5608 50
3035 -0.3566431 0.07274547 0.3866997 1.3985827 -0.04937628 -0.83182627 -1.3945581 -0.014918968 0.61967796 0.3595388 -0.13571896 -0.587444 -0.44010058 -0.40887827 0.05258245 -0.6088473 -0.031147107 -0.62284774 -1.0256116 -0.27388534 0.75312144 -0.8674407 -1.4337021 -0.48720604 -0.6734013 -0.19780384 0.07811597 -0.032095056 -0.16242522 -0.61816376 0.22043645 0.57422304 0.067694664 0.09180971 0.07182109 -0.41303018 0.01004169 -0.60242665 0.20527227 -0.48894343 0.41574046 -1.4840368 -0.6780246 -0.44010797 -0.5621564 -0.37343135 -0.5286993 1.0952466 -0.54580605 0.89122987
754 -0.9722857 0.008763068 1.0073184 -0.06942204 -0.23255108 -0.5705393 -0.10884623 1.332153 0.5578305 -0.18621618 -0.38960725 -0.62857914 0.24902827 -0.19601682 0.35150486 -0.5659806 -0.580846 -1.3087018 -0.35541618 -1.0734253 -0.013023605 -0.7699411 -1.310809 -0.31303796 0.20278011 -0.20204508 -0.008798263 -0.8729053 0.904582 0.6320672 -0.36756095 -0.4641834 -1.7296647 -0.52332306 0.39337277 -0.16876066 0.13728423 0.20503263 -0.2939262 -0.62026036 -0.010080552 -0.7042078 0.5655474 1.2279686 0.06328187 -0.41549465 0.115267955 0.19684304 0.46785107 0.34327838
4872 -0.33402514 0.58746415 0.1099638 0.30340794 -0.69661546 -0.7287482 0.32055596 0.2608629 1.0277097 -0.6556406 -1.1830866 -0.74429697 -0.26072922 -0.56695396 0.7283643 -0.75991404 -0.5799859 0.09472106 0.3124765 -0.90897584 0.45049933 -1.7557118 -0.80118346 0.25660113 -0.40409008 0.49028516 -0.32511705 -0.24558026 -0.10666356 0.7126663 0.51798004 0.27869353 -0.30967712 0.33593416 0.8117952 0.14511558 0.20023283 0.33715597 0.28620884 0.23818302 0.5164038 0.68243635 -0.20573997 -0.7776747 0.73127824 -0.17362447 0.17549796 0.30850384 -0.5523526 -0.44129074
5052 -0.22539738 -0.055980437 -0.02470082 1.8854536 -0.35089087 -0.8804073 -1.1299969 -0.26470357 1.260766 0.38578564 -1.317518 -0.61968297 0.48185915 -0.12885074 1.1097543 -0.25146374 -0.5757434 0.5289784 -0.3823473 0.288979 1.0269028 -1.6942843 -1.0438468 -1.3724614 0.68067956 0.38297522 -0.07857364 -0.25046283 0.035125863 -1.0176743 0.90201116 0.29604697 -0.253348 0.5856542 -0.004490378 -0.8230156 -0.5853164 0.3610009 -0.02389182 0.4268364 -0.07619541 -0.5199383 -1.0051212 -0.19958286 -0.1740227 0.30183002 0.19190194 -0.09043911 -0.33729506 0.60753137
2203 -0.6765515 0.2982782 0.315892 0.7505466 -0.3181852 -0.90112185 -0.093454644 1.0808234 0.12833089 -0.005219931 -0.17103548 -0.098423555 -1.0509894 0.48253214 -0.539519 -1.2436895 -1.3058519 -0.29831186 -1.6374869 -0.030903267 -0.40139797 -0.62573653 -0.8767352 -0.54819155 0.15641278 0.11029719 -0.89797825 -0.09417281 0.7564032 0.36806282 -0.6779181 0.83322555 -0.14718139 -0.8560562 1.3938586 -0.4456926 -0.013272498 0.4018925 0.011686713 -0.27395546 0.794217 -0.33467606 -0.36896673 -0.37394726 -0.109279655 0.27086675 -0.670574 0.6586752 -0.6351212 -0.7496197
1159 -0.9682271 -0.14542632 0.9433378 0.030862818 -0.23597491 -0.68247616 -0.09981886 1.2932116 0.6160296 -0.09168038 -0.37684828 -0.74423677 0.33398038 -0.14114879 0.35563308 -0.6143153 -0.56816155 -1.1800431 -0.41288617 -1.098858 -0.067401774 -0.79578567 -1.1598458 -0.45479584 0.07224781 -0.25185972 -0.02598991 -0.8262119 0.8600599 0.5992189 -0.43709522 -0.48674837 -1.7487336 -0.39485583 0.35404748 -0.0979106 0.1084898 0.26268232 -0.31852558 -0.4969821 0.008081576 -0.64059377 0.62498367 1.2066436 0.14341177 -0.39789388 -0.043601494 0.18759337 0.5326868 0.36112246
3455 -0.7112895 -0.13291526 0.7811371 0.46683073 -0.53579247 -0.49658853 -1.2691762 0.24193299 1.4086426 -0.16113171 0.31632358 0.23327048 0.54333603 -1.0642643 0.24047758 -0.46662003 -0.61296934 -1.262341 -1.3734527 -0.9292655 0.54603666 -1.4987212 -0.58912486 -0.29823142 -0.8994864 0.64488345 -0.63965005 0.23851734 -0.34468517 0.0831234 -0.2595241 -0.97900873 0.04313679 0.19202612 0.6127917 -0.7814306 -0.23788589 -0.40142024 -0.32839316 0.024261449 0.75198346 0.084082596 -1.2399068 0.44475722 -0.059760965 0.8327885 0.52187896 -0.48236996 -0.27402407 -0.4272066
4032 -0.92454016 0.19603878 0.25230247 0.66281694 -0.1290335 0.0635234 -0.7681104 0.1750814 1.205832 -0.13394618 -0.12614392 -0.34230423 -0.22540548 -0.06757616 0.29056755 1.0278732 -1.3375167 -0.39434716 -0.13939777 -0.39386857 0.23290665 -2.2826896 0.64407873 -0.49663258 0.04936799 -0.34280995 0.6056655 0.051504493 0.21159454 -0.5882956 -0.38583452 0.03510032 -1.1007144 -0.48197877 0.40188196 -0.5729714 0.45514816 0.012208358 -0.772244 -0.9070345 1.4186202 -0.24632046 -0.19439358 0.077530205 0.42774448 -0.33898264 -1.3044853 -0.12997246 0.13539344 0.2461678
1895 -1.4582062 0.3566426 1.062888 1.2809038 -0.9330887 -0.76181203 -0.65343106 1.1990157 0.48378372 0.33944184 -1.0557528 0.09582264 0.55920374 0.043962058 0.12537333 -0.56127214 -0.27880087 -0.8174179 -0.37829128 -0.6497041 -0.56082016 -0.0846834 -0.5408073 -0.50974786 -0.17478989 -0.32861596 0.030843927 -1.4006476 0.14381966 0.4338791 -0.5896564 -0.043190558 -0.47399092 0.4853242 -0.1626417 -0.3367279 0.09624976 0.86293644 0.22068079 -0.1675665 1.0609249 -0.17712338 -1.0885557 -0.5800446 -0.34139362 -0.48793507 -0.5229449 -0.53219837 -0.48259485 -0.44810423
1806 0.87645996 0.5312842 1.226061 0.5391728 -1.1468179 -0.9589976 0.35080352 0.71791106 1.275229 -0.66610694 -0.48720834 0.5845284 -0.20474611 -0.5189899 0.4729766 -0.108353876 -0.7067661 -0.16095904 0.055422727 -0.66754466 -0.18144019 -0.920021 -0.7535516 -0.7747514 -0.14243819 -0.7135691 -0.1364184 -0.4188124 0.5095578 -0.044437423 -0.7685515 0.9729018 -0.40258965 -0.2946548 0.4788148 -1.5012277 0.17504437 1.064182 0.38660198 -0.0006456021 0.6363419 -0.7828109 -0.8418507 0.72450006 -0.062868565 -0.47266093 -0.31138965 -0.24997231 -0.07218437 0.66514564
1275 -0.4012717 -0.5532698 0.92015487 0.09265401 -0.41351163 -0.5900585 -1.028703 0.50603634 1.459169 -0.040005323 0.04134602 -0.03799878 0.5795402 -0.37194508 0.55096245 -0.2592902 -1.1602257 -0.5856586 -1.0648147 -1.3701756 0.7201757 -1.1647573 -0.6166565 -0.81656694 -1.7142165 0.9321544 0.17040671 0.18606918 -0.23171186 0.53712267 0.55920935 -0.51286745 0.20218374 -0.56125903 1.1990528 0.16433989 -0.115859345 -0.66756314 -0.17289087 -0.3748101 0.083109215 0.43522978 -0.65029067 0.26958716 -0.71503997 0.36120266 0.19026922 -0.022898639 -0.10278072 0.1315612
3439 -0.7456562 0.12602906 0.19174697 0.16322859 -0.5868725 -0.7211661 -0.57202494 0.06814056 0.263013 0.62425 0.122591905 -0.2563648 0.019435413 0.08310654 0.6656293 0.15527293 -1.0088804 -0.5176104 -1.054892 -0.14796469 0.010249907 -0.5037148 -0.5351118 -0.514796 0.38998613 0.34267235 0.2145922 -0.074593 0.29133058 -0.033962503 0.6080941 0.0916481 -0.35931754 -0.14053802 0.153033 -0.463125 0.013219255 0.3225091 0.07603255 -0.42646566 -0.09331069 -0.06455261 0.07502244 -0.30527696 0.34603852 0.49971312 -0.4629189 0.7593092 -1.2948204 -0.32815245
1145 -1.3694253 0.8286862 0.17266385 0.4525508 -0.40657407 -0.66343665 -0.24075039 -0.005140316 1.573773 0.12548378 -0.80684894 -0.048253052 0.40888053 -0.92663854 0.08439825 0.3664673 -0.8202183 -0.54617304 -1.0967777 0.16865486 -0.067596495 -1.8837779 -0.8388437 0.11297288 -1.4723083 0.09923768 -0.11333695 -0.9372885 0.2694817 0.1967675 0.25161248 0.29923245 -0.4898247 0.07338357 0.37270534 -0.11707112 -0.26041335 1.3652828 0.47776002 -0.52223784 0.22830945 -0.8401409 0.22498187 -0.08635736 -0.69497675 -0.10488671 0.16048923 -0.6665923 0.72920847 0.56988317
2187 -0.6548269 0.4254309 0.7583888 0.33987105 -0.316533 -1.1382608 -0.58235234 0.23062474 -0.20248418 -0.5377176 -0.4434549 -0.28081298 -0.32341835 0.0902609 0.831883 -0.42873073 -0.5124335 0.24538758 -0.94091964 -0.80173296 0.8481358 -1.1035299 -1.9643683 -0.8015193 0.84854794 -0.0012275573 -0.07810285 -0.447757 0.5882182 1.0673846 -0.9632341 0.38453925 -0.42184567 -0.9707629 1.1119392 0.04205612 -0.7614286 -0.46866366 0.88688326 -0.23517579 0.84006655 0.32163638 -0.9238047 -0.13865854 0.17681791 0.54234844 -0.83627146 0.39847738 0.0858432 -0.22415145
597 0.6123827 0.5055212 -0.36545768 1.1041386 -0.790758 -0.3515685 -1.1782305 0.4274975 0.2926884 -0.8611982 0.1467908 -1.0859224 -0.34512576 -0.96355903 -0.14732577 -0.088564895 -1.144679 -0.13041472 -0.8129031 -0.22717984 0.40990865 -1.9655224 -0.8335363 -0.7290711 -0.75682634 -0.014703952 0.66112167 -0.2445822 -0.043567814 0.85111475 0.21614678 0.16965981 0.13439049 0.37274647 0.42747623 -0.29534575 1.1902595 1.1200908 -0.7196264 -1.0298411 0.22793551 1.612298 -0.25541356 0.39052802 -0.0923828 0.41941813 -0.28534213 0.036861546 -0.3627227 0.21358916
4165 -0.08541711 0.83163905 0.13726144 1.2637343 -0.47308213 -0.6039466 -0.2613686 0.120513566 0.6488837 -0.63166505 -1.0526652 0.42810094 0.6312913 -0.2619812 0.16605794 -0.54592997 -0.81861764 -0.24140646 -0.70764756 0.018518122 0.42434224 -0.66051745 -0.71297145 0.21982373 -1.2423004 0.09812958 0.12341657 -0.19534151 0.36782342 0.83715063 -0.4161557 -0.3105949 -0.36338177 -0.58635247 1.1781702 -1.0919255 -0.4357292 0.7798676 0.5406349 -0.49704623 1.187046 0.69871926 -0.60226005 0.30926242 -1.2705129 0.25410208 -0.85138136 -0.49487883 0.24195868 -0.26949304
3490 0.07506043 0.7085362 -0.15291756 1.6751748 -0.9906425 -1.0147121 0.4330788 -0.06831565 0.63481694 0.4366428 -0.14427996 -0.60766834 -0.327188 -0.12183157 1.1738607 -0.49686027 -1.0188384 0.63343513 0.6142547 -0.37221268 -0.39879155 -1.4500726 -0.56266165 -0.6155329 0.35496664 -0.22781672 0.23955126 -0.45844176 0.46486098 0.3691081 0.31646276 -0.9483758 -0.5648642 -0.19214638 0.01215616 -0.2179759 -0.2867179 0.27016303 0.1988386 -0.562571 1.4473617 0.2549107 -0.13004227 0.6001243 -0.5977677 0.93855965 -0.61758506 -0.08245531 -0.42010963 -0.7879836
3706 -0.23123331 -0.07825419 0.40891987 1.093677 -1.0647386 -0.754743 -0.8342282 -0.009751241 1.0665009 -1.1500897 -0.76886684 -0.5795687 0.26710162 -1.1462107 0.18178049 0.007690202 -0.6169827 0.35334268 -0.37501132 0.52903223 -0.4683906 -0.78178805 -1.053251 -1.1642812 -0.9594766 1.0515109 0.4823667 -0.22546624 0.45256522 0.56433344 0.012698848 0.48586306 -0.6192457 0.043950185 0.46554786 -0.60235536 -1.1989486 0.09650797 0.46650848 0.5948779 0.7058228 -0.27971035 0.41592404 -0.58985645 -0.27854913 -0.048443638 -1.3872582 0.10563378 -0.74815446 0.62308085
1563 -0.682597 0.1680813 0.4784951 1.8767157 -0.015441951 0.3967731 -0.73611337 0.26502377 0.23137939 -0.1320609 0.12691689 -0.40068126 0.36827114 -0.9615619 0.20626925 -1.2921627 -1.319175 0.15577261 -0.8223704 -1.7117416 -0.5873029 -0.18243545 -0.013977317 0.3433256 -0.37282196 0.74261385 0.16559662 -0.43248287 0.8923038 0.13739324 -0.15384689 -0.024623612 -1.0848236 -0.34302214 1.1335511 -0.38147035 0.53456706 -0.021091634 -0.08007268 -0.050871707 0.42148033 -0.64070046 0.09951969 0.7317504 -0.027419923 0.5445014 -0.0351135 0.36872113 -0.9526082 -0.33613455
4020 -0.42529377 0.49532393 0.09564062 0.30313078 -0.5683219 -0.5535123 0.2543393 0.64997053 1.1451399 -0.6240293 -1.1119198 -0.72932494 -0.5095521 -0.64101523 0.91810566 -0.6573138 -0.61304355 0.15088324 0.063908376 -0.8570776 0.3430421 -1.6787263 -0.872052 0.0940851 -0.491708 0.36910677 -0.45987326 -0.13113472 -0.3505457 0.71310693 0.54030013 0.20385109 -0.26382628 0.28408045 0.81183755 0.23603407 0.709599 0.180839 0.3361739 0.13244815 0.49735376 0.59177125 -0.24483591 -0.7414534 0.80100495 -0.18701021 0.31580025 0.090193935 -0.49274626 -0.39671332
1121 -0.7625911 -0.23183541 0.8191957 0.47246957 -0.3017681 -0.64381474 0.012507308 0.1458765 -0.39944258 -0.33288875 -0.801413 -0.3326535 -0.8427886 -0.30016688 1.0712959 -0.6455705 -0.8256157 -1.0855125 -0.641746 -1.0203607 0.30929953 -1.3082092 -1.2672249 -0.6689384 0.4761959 -0.567205 -0.38417745 0.39355066 -0.02064626 0.8658051 -0.9560913 0.54770666 0.206325 -1.1169746 0.16664208 -0.88917226 0.37264615 -0.5414875 0.47954696 0.31872696 1.2474197 -0.10465828 -0.28289124 1.0171413 -0.07796131 0.54462385 -1.1516122 0.7014562 -0.3861774 0.43049613
3612 -0.7785021 -0.388605 -0.43629104 0.55023557 -0.3762024 -0.9680184 -0.2525126 1.6932943 0.9490276 -1.1178106 -0.65182155 -0.20364147 0.15621157 -0.5323907 -0.7106803 0.68805087 -0.27574077 -0.27122188 -0.12855645 -0.43359786 -0.4350613 -1.3035177 -1.4746894 -0.419637 0.7442401 -0.40836 -0.53962684 0.08568396 1.1696997 -0.0002476905 -0.45006773 0.66393685 -0.5205941 0.013960576 -0.83009374 -0.6429638 1.2744392 0.49201694 0.28589177 -0.50317824 1.3454313 0.75522614 -0.802151 -0.19675137 -1.1321027 -0.92714006 -0.5978588 0.27310112 -0.5698748 0.09211478
374 0.046600766 0.9283535 0.1471046 1.3891858 -0.65333205 0.083211444 -1.1322997 0.42739883 -0.31824976 -1.367329 0.28128052 -0.6736588 0.04236828 -0.41393125 -0.21285222 -0.11255284 -1.2692293 -0.45212498 -1.083831 -0.431029 0.44967178 -1.9462578 -1.3054929 -0.62395126 -0.4843012 0.04736754 0.41015354 -0.14798333 0.3719689 0.12977059 -0.5903827 0.38632914 -0.31608796 1.3014021 0.2664121 -0.0024798007 0.91534424 0.50777507 -0.030886779 -0.64296854 0.56569475 0.45455256 -0.08998844 0.90272236 -0.30588323 -0.08068053 0.0485511 0.100158766 0.7542766 0.58848995
4696 -0.931991 -0.22226492 0.78109187 0.65797985 -0.25798282 0.10855865 -0.59846985 -0.35417047 0.78706956 -1.0163989 -0.76084054 0.025116276 -0.004802531 -0.57102185 0.525336 -0.48858568 -0.55455494 -0.50187784 -0.6719341 0.3303738 0.39844427 -0.37011135 -1.0458891 -1.6332878 -0.7618765 0.52464795 -0.67763394 0.13410483 0.85642695 0.67641634 -0.006869308 0.29485124 -0.28498915 -0.71963185 0.01721042 -0.6587128 0.030187262 0.5728892 -0.8499042 0.01725421 0.6873818 -0.32477796 0.09364126 -0.37322843 -0.13951209 0.18225813 -0.86982673 1.1647241 -0.26180872 -0.35307878
1844 -0.36295295 0.74926406 -0.0867382 0.30468544 -0.96299124 -1.4707738 -1.27229 0.7046814 1.0580148 -0.86598325 0.02064788 0.27685252 -0.33174297 -0.20351173 1.2804163 0.05010294 -0.60379004 0.86428726 -1.0306807 -0.6199104 -0.806724 -0.76554406 -0.6091717 -0.24690881 -0.89396787 -0.062145125 0.18353112 0.6212127 0.527678 0.20638904 -0.72103715 0.6972124 -0.32500792 -0.17435017 0.6096287 -0.44184846 0.1871426 -0.29978308 -0.15269414 -0.6885511 -0.3026384 -1.0361075 -0.8087532 0.8082897 -0.5172811 -0.52250177 -0.9949338 -0.670978 -0.98326427 0.1608795
538 -0.87976813 0.13102098 0.19654506 0.03035526 -0.61108375 -0.38984337 -0.4569915 0.051971033 0.30968404 0.54642785 0.21261652 -0.38301995 -0.1428817 0.29715958 0.77592325 0.36956033 -0.9414484 -0.5586936 -0.89054745 -0.25785565 0.09737549 -0.5355329 -0.7043621 -0.40158927 0.2243842 0.3101746 0.1907151 -0.16505359 0.17812891 0.3235406 0.62694037 -0.14593661 -0.60284775 -0.13949163 0.056747563 -0.5433773 0.36554754 0.3913545 -0.0517355 -0.3104436 -0.14711204 0.06964555 0.09040865 -0.16645244 0.20834765 0.37679225 -0.31841448 0.60139674 -1.2262034 -0.053419054
1003 -0.67053473 0.8465382 1.2169923 1.2783735 -0.42788953 0.15510952 0.044060275 0.96012145 0.15025653 -0.11236371 -0.4555725 -0.93396837 -0.5716847 -1.0912471 0.08030358 -0.67513275 -0.8934462 -0.6628073 -1.7836099 -0.11088374 -0.675338 -1.6085097 -0.74969137 -0.61192954 -0.9493484 0.07557842 0.15940373 -0.014968618 -0.5746693 0.36918786 0.5258236 0.08859514 -0.8392756 0.50354576 -0.29898944 -0.12722349 0.28236052 -0.22314762 -0.36729896 -0.43638295 0.13785394 0.7340004 -0.31427482 -0.04475767 0.24619456 -0.4676976 -0.9438355 -0.060821854 -0.08327112 0.25070405
1596 -1.0813991 0.48598692 -0.4719132 1.0715466 0.115416996 -1.2397542 -0.6341855 1.2783074 -0.75657564 -0.46283308 -0.35788602 0.20553088 -0.41357416 -0.16257258 0.45400184 -0.030986488 -0.58895075 0.7076804 -0.05180446 -1.258323 0.429943 -0.6706002 -1.613469 -0.12158097 -0.92190987 0.09443393 -0.55681044 -1.3771728 0.4893635 -0.08634285 -0.33543402 0.61261696 -0.90486836 0.07116352 0.37351266 -0.64820826 1.3094043 0.36145735 0.0857097 -1.021676 -0.11076468 -0.4220944 -0.19200866 0.07799014 -0.49558043 0.9309365 -0.85552895 0.49388534 -0.28234383 -0.08139295
5063 -0.64123553 -0.91023034 1.1328591 0.34769338 0.51526713 -1.5495989 0.10774866 0.16864564 0.54440635 -0.06301853 0.37855467 -0.22755353 0.08572177 -0.6018875 0.5716283 -0.49441972 -0.57538146 0.07289647 0.22970177 -1.0977312 -0.27052537 -0.9720276 -0.30647606 -0.2325361 -0.88165325 -0.7983197 -0.5858556 0.05159088 0.19399486 -0.04320834 -0.25180638 -0.31331766 -0.28596282 0.3444302 -0.16179803 -0.15778124 0.2515049 1.0492874 0.045568887 -0.078999646 0.9025961 -0.32339615 0.46896347 -0.17984675 -0.4128719 -0.7179666 -0.3430102 0.8011276 -0.9947691 0.7482219
2225 -1.5770956 -0.63002264 1.2024249 0.99161845 0.40898997 -1.3464469 0.24341246 1.0227014 0.9165533 0.60725564 0.25883865 -1.1494577 1.0100187 -0.35945028 0.17154455 -0.5122458 -0.4615899 -0.62424576 -0.08288789 -1.1115936 0.5237417 -1.2707508 -0.5370517 -0.22721039 -0.27454567 0.09983384 0.16378139 -0.5470384 0.440421 0.5643974 -0.08453703 -0.8250761 -0.8186092 -0.17009997 -0.421182 -0.2538032 0.10656508 -0.25419912 -0.00438531 -0.22151372 0.16088241 0.20978026 0.24151042 0.61328065 -0.20445718 0.30457434 -0.027154965 -0.17278506 -0.15702659 -0.17948596
376 -0.9237956 0.035473615 0.08591884 0.04513692 -0.5677804 -0.52623916 -0.3587727 0.043583095 0.24210095 0.38310596 0.35704544 -0.42448574 -0.030679384 0.043777265 0.85768193 0.50396085 -1.1901771 -0.5681779 -0.92786866 -0.21453299 0.036549807 -0.6830573 -0.5221599 -0.40713596 0.43963957 0.20644055 0.12974493 0.034553844 0.34111795 0.36428836 0.6528452 -0.2531266 -0.6466715 -0.17452005 0.065967284 -0.40394884 -0.024464633 0.46074748 -0.09571817 -0.33971864 -0.06652438 0.1404449 0.080432974 -0.2972674 0.2581369 0.2637517 -0.3435572 0.51008594 -1.168312 0.11606667
3986 -0.9392885 0.11188714 0.57483804 0.92656094 -0.34863883 -1.3565618 -0.10873332 0.9729302 0.07758142 0.4594585 0.08876977 -0.066072114 -0.28508097 0.12480442 -0.32185566 -1.3878078 -0.56265557 0.005896064 -1.4854249 -0.41244656 0.15159354 -1.2124691 -0.8980377 -0.729398 -0.30537462 -0.010779194 -0.24651264 0.40732488 0.09511827 0.6234805 -0.21326022 0.49444032 -0.18810748 -1.1970156 1.2762504 -0.18711033 0.16579846 -0.14116858 -0.2406668 0.39849296 0.88468724 0.45188186 0.5544587 -0.35447693 -0.112507336 0.08277851 -1.0060322 -0.56000143 -0.81968653 -1.2699991
2655 -0.6509665 -0.03302448 0.24354482 0.09534596 -0.74371505 -0.43611205 -0.68359536 0.042533662 0.11717375 0.35761204 0.083436556 -0.28906488 0.14846495 -0.0351547 0.7882857 0.25652483 -0.7696273 -0.56620145 -0.9057241 -0.5181902 0.034235854 -0.5079216 -0.527014 -0.6118653 0.5245199 0.54583305 0.4156388 0.038640834 0.19679402 0.52021265 0.8074973 -0.123477966 -0.4473086 0.013150067 0.07324005 -0.57956773 0.1857932 0.72184944 -0.3548642 -0.32857147 -0.08268609 -0.011444163 -0.13613494 -0.06852719 0.38610798 0.2397963 -0.32037443 0.60834324 -1.1984233 -0.007608521
4234 -0.66215014 0.040970996 -0.109060846 0.8643674 0.17129377 -0.3182769 0.19654618 0.9222036 1.0154274 0.045766067 -0.73169917 -0.18277287 0.6101656 -0.30166352 0.17603423 -0.7112029 -1.4944481 0.28050634 0.47827524 -1.0164027 0.6656012 -1.0120847 -0.34337404 0.32425463 -1.4889203 -0.8122659 0.1480681 -0.04803239 -0.3304661 0.835397 -0.021829205 0.16113158 -0.7430499 0.44212636 0.75057757 -0.8565846 0.30173972 1.0238873 0.65307146 -0.9471536 1.3522758 1.4353658 -0.43826887 0.5353719 -1.5512594 0.16210763 -1.1470125 -0.36872107 -0.6126196 -0.11979375
5247 -0.11021729 -0.32004967 0.8355273 0.79984915 -0.24528411 0.4784046 0.21246353 0.8592757 1.5364887 -0.21845925 -0.46610814 0.11928564 -0.29363468 0.013204425 0.46807465 -0.0778798 -0.79194355 -0.5607469 -0.6559286 -1.0000278 0.9724309 -1.7094641 -0.5612159 -0.41078106 0.07343914 0.8340382 -1.0100902 -0.060691133 0.72337896 -1.4668553 -0.16353735 -0.44446704 -0.39777267 0.25045654 0.41799313 -0.8556961 0.8640431 -0.021893248 -0.32006952 0.3220415 -0.17518517 -1.4146651 -0.52018595 -0.32573947 -1.0050249 0.54582155 -1.2222693 0.67809325 0.23574077 -1.0019357
3753 -0.43773216 0.97095084 -0.15829681 0.89583373 -0.39629203 -1.1920027 -1.0349541 -0.28807685 1.1510361 0.70636725 -0.77368206 -0.55566376 0.59115964 -1.207121 0.32356507 -1.1663505 -0.9864578 -0.093384676 -0.07872162 0.21036202 0.95553017 -1.4860556 -0.47479472 -0.6261137 -0.7410308 -0.34947717 0.026542878 -0.13858187 0.06717654 -0.73958206 0.70313907 0.41974658 0.48398286 0.051356383 0.19466983 -0.9203692 0.33954224 -0.10388553 0.4732469 -2.0297205 0.65732294 -1.019624 -0.9094754 0.27638128 0.1351703 -0.9485438 -0.46573237 -0.21835707 -0.38147774 0.6283662
2575 0.052517932 -0.21377777 0.053439986 1.2398748 -0.282673 -1.2770935 -0.16085249 -0.06253067 0.6446139 0.15770382 -1.1235263 -0.0762993 -0.14984697 -0.5325216 0.2548079 -0.92610115 -0.7272146 0.03042289 -0.38247836 -0.11473443 0.29133642 -0.8428289 -1.6904025 -0.5390869 0.6958233 0.15267049 0.326264 0.018187067 0.90653175 -1.0753992 0.18969376 0.54002464 -0.6105686 0.3432773 -0.12820458 -0.25964382 -0.23687924 0.29877692 0.5228962 -0.6356724 1.0085825 -0.06914534 0.010838718 0.6286724 -0.30451092 -0.659706 0.12717234 0.6960291 0.13799578 0.495362
4062 -0.39107502 0.5636119 -0.2699847 1.0920961 0.34611356 -1.0468103 -0.6901694 0.08417414 -0.04616755 0.86836463 -0.81471735 -1.1264865 0.49921113 -0.19223697 1.366065 -0.089153044 -0.5382145 -0.15791461 -1.2383142 -0.5560864 -0.25199124 -1.1228461 -0.44990435 -0.31338602 -0.459627 0.21426642 -1.1278229 0.26546445 0.066888876 -0.18554488 0.17696388 -0.7121503 -0.5825876 0.63260096 0.6310978 0.10125104 0.94140345 0.8355667 0.3423371 0.35733148 0.8768467 -0.27112636 -0.8610247 -0.11534037 -0.85914594 0.59335136 -0.55074203 -0.32754612 0.52978545 -0.0008545173
3954 -0.84415627 0.41577244 0.8954207 1.3118438 -0.9803011 -0.7717295 -0.6620392 0.8094496 0.46190575 -0.4270074 -0.6107728 0.16185462 0.13322331 -0.68165547 -0.26398188 0.27266616 -0.088923946 -0.20032616 -2.0004861 -1.3425047 0.3480221 -0.36873198 -0.48452416 0.48106968 0.9231347 0.30159676 0.32260856 0.004361919 -0.007631086 -0.2700182 0.061859556 -0.10481823 -1.2657571 0.08761711 0.42583048 -0.10951307 0.7231073 0.9530029 0.2872858 -0.26152226 0.198032 0.03148851 -0.15768714 -0.040441386 -0.7842217 -0.42192867 -0.3814865 -0.252644 0.1766676 0.43043515
1854 -0.99512064 0.5631153 0.15165238 0.53999966 -0.15782173 -0.20005853 0.41961858 0.15151429 1.0798228 -0.99714303 0.010890427 -0.29502568 0.29306167 -0.8971143 0.27373198 -0.13481027 -0.7215585 -0.20100683 -0.81272984 -0.95270526 0.112560816 -0.9701905 -0.91822356 0.10972608 -0.3394252 0.6901067 0.08396615 -0.00878257 -0.650657 -0.64492434 0.61681324 -0.231128 -0.8475333 -0.70563537 -0.4498015 0.32769385 0.5759748 -0.21696773 -0.26953927 1.0523723 0.9699181 -0.4212806 -0.40751433 -0.01763833 -0.83595335 0.6965096 -0.92192185 0.124121845 -0.7681737 0.19705072
724 -0.43805364 -0.3605147 1.0136389 0.026850883 -0.45545354 -0.59909976 -1.0471258 0.35714602 1.458246 -0.008308354 0.07415107 -0.025029285 0.2894411 -0.41921574 0.6472487 -0.2815471 -1.1751918 -0.655393 -1.058297 -1.4055961 0.7054293 -1.1716661 -0.66404814 -0.646671 -1.6688911 1.0344906 0.15291071 0.28281513 -0.19294001 0.5576355 0.62763035 -0.50856215 0.19623293 -0.7320418 1.2229238 0.24736567 -0.06104088 -0.68428427 -0.16185881 -0.28001228 0.08726356 0.32297584 -0.7147363 0.25624177 -0.62355685 0.268617 0.19391252 -0.15732974 0.058603585 0.1528756
4838 -0.21060754 0.5441184 0.68175554 1.1714033 -0.6645832 -0.6017175 -0.5744521 -0.3204595 0.88117117 -0.9413314 0.33850658 -0.70037544 -0.7880919 0.21986787 -0.22283916 0.06895084 -1.7582296 -0.43982702 -0.35380107 -1.2533364 0.11496007 -1.0474561 -0.23754264 -0.31352165 -0.52882516 -0.41564128 -0.43395266 -0.04814929 -0.48992905 -0.46202463 0.5928134 0.060922045 -1.1998291 -0.45038292 0.1940852 0.59044075 0.1007866 0.62551004 1.4382621 -0.49550205 0.86137116 -0.01720553 -0.34419844 -0.24141361 0.29310828 -0.22122772 -0.8652577 -0.811698 -0.5436709 0.81438345
5116 -0.05623116 0.44908568 1.4906873 1.6410731 -0.018754534 -0.5724079 -0.419735 -0.06182328 0.60387444 -0.17992783 0.17882262 -0.53008336 0.39754996 -0.022896493 1.4950813 -1.6559308 -1.877027 0.21974164 -0.5121255 -1.190547 -0.5610486 -1.0687718 0.043559592 -0.025152346 -0.28301486 1.2889036 -1.1934439 0.4151928 -0.55989426 0.062154178 0.028828477 -0.42474872 -1.2165534 -1.0535294 -0.08200561 -0.42651394 0.73010814 -0.43403023 -0.7273428 -0.10206428 0.46564436 -0.6343795 -0.13067563 0.047117695 -0.42093694 -0.22260712 0.45574895 -0.28776485 -0.64577746 -0.038691387
3097 -1.3064486 -0.2919482 0.6701013 0.9632971 -0.8757376 -0.30602726 -1.0319785 0.8880628 0.9597139 -0.40682122 0.017637787 -0.12439444 -0.12839006 -0.16091031 -0.41330248 0.070231654 0.35874337 0.31384107 -1.1965163 -0.91790915 0.78296053 -0.5531262 -1.2101716 0.20234376 0.31490687 -0.34822544 0.6897506 -0.14121185 0.34005722 -0.7026175 0.21937731 -0.09524118 -1.6964428 -0.12511075 0.30659202 -0.6428639 -0.2874387 0.9667914 0.4591837 0.48528883 0.19352432 -0.42051446 -0.738352 -0.17991373 -0.06767226 -0.25997266 -0.29214117 0.12123635 -0.3623873 -0.003368022
1965 -1.1019293 -0.42625284 1.5055637 0.94411075 -1.1643997 0.30330223 -0.35628194 -0.23060234 0.9682997 -0.38393274 -1.5971922 -0.5515955 1.0762213 -0.82326055 0.4528304 -0.41220114 -0.4879017 0.32855603 -0.11381925 0.17280728 0.18407632 -0.6529042 -1.4616804 -0.94030845 -0.48920524 0.28176606 -0.0065653995 -0.23227501 0.63280785 0.18276481 0.63846654 -0.21955821 -0.4635515 -0.32666817 0.99327415 -0.06119018 -0.18019024 0.9200033 0.6451565 0.24091509 0.71349716 0.3247175 0.7923297 0.6039994 0.037495986 -0.6341078 -0.5395248 -0.07237563 -0.7389562 1.0404439
4668 -0.5796505 -0.35488072 0.48939043 0.55791986 -1.6707821 -0.23793603 -0.5496737 0.751382 0.91322064 -0.75776803 0.2909893 -0.26756895 -0.6504375 -0.75058204 0.38526106 -0.86461496 0.011399524 0.1967702 0.16384007 -0.4166889 -0.4628074 -1.8561082 0.077716395 -0.9542385 -0.10234024 -0.516462 -0.82046443 0.43194655 -0.2642797 -0.21238577 0.62972254 0.38279796 -0.45656908 0.14404844 0.284616 -0.4340841 0.92822915 -0.28712466 0.3600288 -0.2127744 0.87739503 0.09551144 -1.0247207 -0.03946187 0.110649824 0.9939696 -0.37773916 0.2108863 -0.36679557 0.025581183
559 -0.24176843 -0.28733876 0.41078517 0.69367635 -1.18116 -0.32859272 0.11961414 0.5845381 0.59412026 0.6254891 -0.2761391 -1.3065175 -0.004488089 -0.06891652 0.43601346 -0.53988695 -0.779753 0.46363187 0.12761942 -1.3862158 -0.45512256 -1.0341251 -0.18782827 -1.5002613 -0.6667352 -0.46118063 -0.6428605 0.07662595 0.7313289 0.17142373 0.91529053 0.06973574 -0.114924595 -0.13576095 0.88964397 -0.6793358 -0.03159383 0.2659478 1.1744354 -0.001499459 0.439324 0.33159634 0.22033578 -0.5395291 -0.038658794 0.22418961 -0.5316415 -0.10403194 0.31274745 -0.81777596
3088 0.029967722 -0.5043294 0.18809307 1.4465673 -0.48803276 -0.44403827 -0.69529486 0.73609394 0.7020853 -0.20131029 0.3864434 -0.44085884 0.96750784 -0.87312543 0.35897562 -0.5174347 -1.0872688 0.31783035 -0.07472057 -0.71597475 -0.20720167 -0.90133244 -1.2998023 -0.14759023 -0.78559977 0.88374585 0.8530381 0.18679145 0.34720013 0.033439193 1.0846334 0.18294288 -1.0542182 -0.42771098 0.9896373 -0.6062683 1.1022159 0.48496568 0.3651694 0.9094783 -0.43793496 0.27910644 0.19619583 -0.68371326 -0.7278536 -0.32512662 0.6801331 -0.0029925862 -0.73569 0.18435787
5194 -0.11347583 -0.122882284 0.14498037 1.0307102 -0.80137354 -0.80897206 0.083550625 1.0894021 -0.13801792 -0.638492 -0.40981537 -0.016125334 1.3841579 -0.47513804 0.9789181 -0.051109873 -0.7565374 -1.3591262 -0.84960735 -1.2878708 0.51709545 -0.79245347 -0.79517126 -1.5004048 0.084697 -0.18003412 -1.0245125 0.6555808 0.11618818 -0.5047887 -0.1526727 -0.6311551 -1.4353578 0.08420979 0.6536513 -0.8363976 0.70335174 1.0910542 0.090464585 -0.5199881 0.47560534 1.1465793 -0.39537102 -0.46388587 -0.5025073 1.5209134 0.990626 -1.0845952 -1.0624702 0.6678192
1755 0.12316318 -0.14211763 0.8040211 0.54850525 -0.82067233 -0.26131853 -0.64281523 0.5284966 1.3217828 0.20267151 -0.6368713 -0.3815284 -0.28060707 0.79175526 0.6850642 -0.65443957 0.03780495 -0.54663306 -1.3439959 -0.20702569 -0.27998304 -1.755882 -0.64875805 -0.709122 0.016455742 0.039785214 -0.61115307 -0.45382187 0.9848185 0.99538547 -0.20532216 -0.39026093 -0.21708065 0.04242672 -0.3026977 -0.29665688 0.5346966 -0.8692187 0.52017957 -0.7838602 1.086825 0.05304172 -0.15370306 0.02400328 -0.5345714 -0.018649973 -0.26146525 -0.19948433 0.09406332 0.18100677
2506 -0.9987284 0.17749624 0.55238193 0.8132362 0.22558746 -0.33705342 -0.5566451 -0.17782281 0.64408064 -0.12782939 -0.21914028 -1.2281966 0.74621594 0.26168406 0.4169309 -0.76037586 -1.4113853 0.005850686 -0.5843431 -0.21203676 1.0959433 -1.7728623 -0.90602744 -0.3427421 -0.1268734 0.58090377 -1.1887019 0.62834716 -0.021522084 0.3784245 -0.23195133 -0.08116448 0.085150585 0.035877418 0.97317874 -0.59819 0.575111 1.3326662 0.40977043 -0.23563398 -0.37398273 0.13342322 0.16443801 -0.61739886 -0.39338568 -0.1310338 -0.5483448 -0.12529022 0.6444412 0.16876064
3773 -0.0044340715 0.8065553 -0.2903002 0.08110548 -0.3781482 -0.75648504 0.12586297 0.41509178 0.06269013 -0.69644547 -0.28493154 0.17716236 0.54310256 -0.6842734 0.78986245 -0.74729264 -0.43379304 -0.8095179 -1.1891227 -1.8403352 0.006569154 -1.6077982 -0.4671226 -0.8712438 -0.24774523 0.004034513 -0.13415465 0.19190474 -0.08294871 -0.5515908 -0.48398924 0.2723036 -0.90206194 -0.106093995 -0.06496793 -0.312948 -0.16316688 -0.01642857 -0.65496886 -0.6697786 0.9654063 -0.48808122 -0.09619709 -0.6139671 0.048428606 0.94088036 -0.2882922 0.17050362 -0.3803056 0.3528308
4580 0.23087439 0.4222722 0.3984197 0.7554113 -0.06675062 -0.82095194 -0.29106742 0.36734977 0.061217766 -0.49266076 0.6670376 0.9378808 -0.08770773 -0.17385733 0.043741036 -1.0788386 -1.2214365 -0.12556079 -0.6235903 -0.70598894 0.0067992224 -1.2526232 -1.4454346 -0.40964115 0.40244752 -1.1927105 -0.36501613 0.15561248 1.0880938 -0.011144662 0.02700188 -0.6205722 -1.1125002 0.4955044 1.0579816 -0.41926336 0.8125828 0.13983287 0.50158435 -0.80149895 0.66199213 0.99574655 -0.14513744 -0.5848617 -0.7289531 0.46852016 -0.897839 0.49449676 0.13143675 -0.36091533
4780 -1.3832434 0.37004864 -0.55635923 0.91082454 -0.82743186 0.13496514 -0.25892663 0.42720535 0.98854625 -0.6245558 0.23823808 0.2752646 0.3109106 0.44335023 0.944245 -0.040753752 -0.51222634 0.09483303 -0.1304958 -0.17855257 -0.26745442 -1.3643873 -1.0667846 -0.3105671 0.34219685 -0.19116245 -0.5823664 -0.3840512 0.43319568 -0.416575 1.0678006 -0.09301888 0.06143409 -0.48449877 1.3799192 -0.0621962 0.3799627 0.2078716 1.0473343 -0.53954655 0.5417156 0.21581337 -0.4523744 -0.17294295 -0.43355983 0.14358586 0.37782216 -0.5752497 -0.05282651 -0.106125735
282 -0.799079 0.41626424 0.05425348 1.556064 -0.2346065 -0.5860834 -0.6223458 -0.20204192 0.2971741 0.52820486 -1.195923 -0.5257663 0.35613808 -0.18486817 0.78574914 -1.0369968 -0.45160887 -0.8350878 -0.1802284 0.17450014 0.87121934 -1.3881394 -0.5854335 -0.39852652 -0.22067155 0.4013669 0.9399861 -0.014766313 0.5887754 -0.18343936 -0.456532 -0.008843886 -0.1920569 0.021977 0.31227463 -1.0783352 -0.055555232 0.019654153 0.08027007 -0.37204367 0.045271173 -0.29121703 -0.98543286 -0.21049953 -0.65918076 0.081902295 0.15359434 1.6458465 -0.06261095 0.16096796
564 -1.0778204 -0.15078533 0.62450075 1.0755821 -0.71586835 -0.51637876 -0.49261189 1.2066752 1.330222 -0.52375495 -0.33664966 -0.7758567 -1.0754489 -0.6909646 0.8858976 0.21501336 -0.1510332 0.48327458 0.10096345 0.03684113 0.034109037 -1.1909994 -0.25825977 -0.61795145 -0.33381382 -0.7910731 -1.5070424 0.38540626 -0.1641498 -0.021829195 0.84978604 0.3418398 -0.3030428 -0.32166263 0.4771347 -0.56572956 0.63494074 0.31670773 0.8048036 0.2966324 0.37512216 0.20848906 -0.6074181 0.48896453 -0.4544639 0.5908574 0.28259194 0.4178965 -0.12241309 0.7613419
4687 -0.13084239 0.48009363 0.68069327 1.3900809 -0.6371556 -0.74925065 -0.65386873 -0.32061976 0.79017216 -1.0071521 0.10574628 -0.6893922 -0.6302172 0.19572183 -0.32273513 -0.10710214 -1.9185823 -0.37030563 -0.51447207 -1.1163988 0.1692067 -1.0370721 -0.29686856 -0.2701126 -0.44574505 -0.50868374 -0.51210576 0.12864405 -0.39074057 -0.6225915 0.6473399 0.10767442 -1.0353266 -0.23277242 0.1784085 0.6169746 -0.033537026 0.59579664 1.3540332 -0.44922605 0.805355 -0.17491291 -0.36592737 -0.35446993 0.26304024 -0.3745061 -0.87159526 -0.9204279 -0.44101784 0.83844334
1841 -0.80790585 -0.16163713 0.19879834 0.18140121 -0.7517327 -0.3957154 -0.6042039 0.027259445 0.41536233 0.52079463 0.15755637 -0.21427818 -0.13424553 0.21394251 0.90518737 0.4380917 -1.0404923 -0.7358036 -0.75266355 -0.18252756 0.06313467 -0.46035787 -0.5329254 -0.4593843 0.13063952 0.218423 0.31361485 -0.0103360545 0.24503052 0.3790358 0.6713463 -0.21650444 -0.75106084 -0.14079796 0.17284921 -0.22767761 0.2701497 0.2816262 0.0044592735 -0.34724137 0.105014145 0.02846902 0.12951651 -0.10222927 0.4113174 0.20349088 -0.5727822 0.68149894 -1.148839 -0.06778304
5419 -1.066971 0.29329577 0.008450262 0.75142974 0.34439227 -0.04402687 -0.33958435 0.5983622 0.67300874 -1.0351434 -0.66423374 -0.30985117 0.91730475 -1.4180479 0.5325903 -0.016269067 -0.9549018 0.12507826 -1.4654176 0.39907292 0.82995844 -0.82232744 -1.3701643 -0.123727255 -0.62010086 -0.4383271 0.045088276 0.1476788 0.77557343 0.9444245 1.0761192 -0.4782529 0.1731793 -1.108863 -0.39371526 -0.8321982 0.67015433 0.3259959 -0.16922665 -0.49041337 0.61999935 -0.14968759 -0.21292177 0.40996897 0.3851859 0.08099835 -0.4441796 -1.0284468 -1.1457745 0.37184057
4182 -0.028788147 -0.21646167 -0.3730141 -0.34374225 -1.3300048 -0.841569 -0.88176966 -0.39543766 0.36660793 0.032724638 -0.10497046 -0.8048424 0.11714006 -0.23174876 0.7321512 0.025314925 -0.47827002 -0.04455694 -0.70283866 -1.1395438 0.35402408 -1.7137004 -0.80381954 -0.67369425 -0.42316988 0.124837376 0.44350365 -0.9123366 0.6348396 -1.0040997 0.14950931 0.10514741 -0.117311426 -1.150795 0.6818633 0.7472005 1.4382029 1.1915231 0.5138335 0.2285747 0.8101507 -0.72727746 -0.7958988 0.22477627 -0.70520145 -0.13413343 -0.38859946 0.5481567 0.37455216 -0.25619045
1111 -0.8323216 -0.25536424 0.98794335 0.56345016 0.23113522 -0.61203724 -0.22200675 -0.094526075 1.4553391 -0.1600317 -0.6972563 -1.1727674 0.06896336 -0.59414494 0.08055801 -1.0447142 -0.71857184 -0.6714379 -0.5624505 -0.19924152 -0.77612406 -0.79015523 -0.4611979 -0.5674019 0.21617433 -0.26678523 0.5055414 -0.15824176 -0.106337406 0.28332326 1.5266598 0.12091471 -1.1126617 -0.6186703 0.76247334 -0.59086937 1.0432572 0.15435046 0.14720222 -0.80994064 1.2717205 -0.5451046 -0.36639002 -0.20318471 0.18814634 0.58024365 0.55909264 -0.30333656 0.48657414 -0.910292
5125 -0.781672 0.9902966 0.6213455 1.5166808 -0.5103734 -0.12790388 -0.6815301 -0.30961922 -0.06945949 -0.31877565 -0.08241212 -0.18651897 0.27630103 -0.3811246 1.2465515 -1.0643995 -1.0208834 0.16867611 -0.36216378 -1.2107773 0.45732492 0.0856888 -0.59746885 -0.09603165 -0.6522757 0.09095122 -0.37590355 -0.0841993 -1.0278354 0.4418468 -0.2168641 0.20716149 -0.93295157 -1.132517 1.058816 -1.3784221 1.2090983 -0.07605287 0.70398355 -0.7339851 0.7347114 -0.11376158 0.5271697 0.24389696 -0.20115843 0.17469798 -0.2014309 -0.088568 -1.5340754 0.20236881
3552 -0.6489936 -0.059065636 0.6314834 1.3586435 0.29008275 -0.6310043 0.27267003 0.8004315 0.46391955 -0.20540695 -1.3710247 -1.241001 0.43219122 -1.0304345 0.5259653 -0.6768508 -1.0257626 0.681358 -1.2490042 -0.94701713 0.9053985 -0.45729092 -0.91737586 -0.5639858 -0.4006984 -0.22481161 0.0032363478 0.4560647 0.6392904 1.1429324 0.2808715 -0.6206782 0.060974777 -1.1545591 -0.7922248 -0.86813754 0.36153793 -0.018112984 -0.19808383 0.16515413 0.39765024 -0.8616512 -0.22100906 0.1748045 -0.04223631 0.11856586 -1.0790949 -0.51449305 -0.32893375 0.81836766
5561 -1.1209186 -0.29823497 -0.39205202 0.694803 -0.79849905 -0.6786086 0.8061608 -0.25185475 0.8657292 -0.9690777 -0.8105351 -1.048332 0.14104578 0.009226678 1.2854251 -0.44952375 -0.4869707 -0.04568565 -0.46988115 -0.47286803 -0.77561885 -2.2255127 0.11638143 -0.39522547 -0.61007994 0.05164262 -0.5730901 -0.3838264 0.17446588 0.2947444 0.74464387 0.3612801 -0.9471412 -0.3556241 0.45189363 0.3736135 0.25348487 0.37646148 0.095477 0.115748875 -0.025323652 0.90339345 -0.43714422 -1.0770113 0.20414001 -0.37124664 0.32705584 0.35235867 0.22192866 0.054863114
4286 -0.15546975 0.5007864 -0.28053546 0.7999452 -0.9091479 -0.35906184 -0.6647422 0.3728797 0.99084866 0.008628207 -0.6117276 -0.24341372 0.24497433 -0.7500119 0.8887229 0.27465183 0.06998506 -0.22025567 -0.20045227 -1.5575012 1.0793449 -1.0963157 -0.4237306 -1.068881 -0.122270875 0.5900742 -0.56605256 -0.32489246 0.471945 -0.97013915 -0.16910006 -0.24471138 -0.89741707 -0.19714342 0.09270279 0.113287844 -0.00040897363 1.0826783 0.071560964 -0.8104453 0.883996 0.75530165 0.39662817 0.050335713 0.18447047 0.34022385 0.110120185 -0.7831193 -0.9955052 0.6362847
2895 -0.32326406 0.5172486 0.37187386 0.66510284 -1.3568345 -0.1754771 0.3111863 0.33707154 0.9480186 -0.21034633 0.4315615 -0.7857183 -0.37224236 -0.7257738 0.60718 0.17782806 -0.29542318 -0.18815102 -0.81739235 -1.2160316 -0.10974559 -0.8053696 -1.1314336 0.16254133 -0.8293878 0.52252746 -0.30325425 1.047151 1.0129514 0.11194218 -0.9195355 -0.38309088 -0.0939649 -0.5265421 0.21857303 -0.18860495 0.47118223 0.7778669 0.86273205 -0.23139752 0.6878951 0.07967648 0.412865 0.18105088 -0.5597473 -0.31265593 -0.098203965 0.62915325 -0.085288 0.6089401
4712 -0.16977349 0.52821594 -0.026595399 1.3286262 -0.84568065 -0.52597785 -1.078644 -0.09765489 1.6140248 -0.41091135 0.28728437 -0.29295105 0.2881801 -0.7613194 0.3990992 -0.86869556 -0.63776976 -0.104019284 -0.133308 0.4530521 -0.51112205 -0.4032058 -0.78399956 -1.4126753 -0.7083118 0.16681938 -0.59574234 0.075653516 -0.077369206 0.3526267 0.4657343 -0.15500322 -0.5230783 -0.6568339 0.6556414 0.3101309 -0.4666015 0.6526884 -0.44997856 0.20942643 0.67005515 0.14197296 0.14618716 0.021164076 -0.48601705 -0.75479984 -0.9301505 0.87916136 -0.6307802 -0.3575743
1017 -0.8485847 -0.33560395 0.7314342 0.8721843 -1.3380755 -0.8887612 -0.07420704 0.5560449 1.1797018 0.0029063146 0.37673154 0.9972885 0.39878017 0.2648981 0.53827536 -0.6708769 -0.3084154 -0.44943976 0.3425123 -0.4700483 0.9420527 -1.4848468 -0.749471 -0.6069877 0.18206415 0.7851989 0.17136613 0.20461655 0.06361035 0.74397916 -0.60796064 0.30215788 -0.86734325 -0.20651683 0.39167386 0.0709525 0.60338104 0.5478737 0.25329837 -0.07460261 0.06338806 -0.84369737 -0.5086154 0.5055654 -0.7881316 0.13666815 0.3437537 -0.12691149 -0.44936788 0.5995777
1535 -0.6773409 -0.5408997 0.43799737 0.95636505 -0.51525235 -1.1097368 0.06034376 0.1798384 0.9087128 -1.0719916 0.08566472 -0.83493495 -1.1196384 0.32892144 1.3187803 -0.60766596 -0.22629479 -0.31756008 0.0016880243 -0.5124865 -0.12981372 -0.9457644 -0.9947578 0.37538558 -0.40072694 -0.22432865 -0.06311522 -0.49486196 0.12472297 -0.32205164 1.1102563 0.62563026 -0.549504 -0.07994289 0.58945984 -0.7383393 0.11638869 0.045438766 0.12154474 -0.48773378 0.17362024 0.8835275 -0.08143928 0.0061320914 -1.2369317 0.3064403 0.26851878 -0.43241096 -0.31761152 -0.4733574
4745 -0.78949976 0.44803953 -0.04924627 0.9575071 0.21648437 -0.13629127 -0.2452804 0.6697282 0.6153448 -0.78908014 -0.6720395 -0.33329746 1.0561618 -1.2190229 0.46406883 -0.20276316 -1.0436176 0.41973272 -1.5793029 0.244591 0.6805915 -0.7886043 -1.3400444 0.15254748 -0.59062594 -0.43431666 -0.12168962 -0.037612695 0.76430035 1.0402457 0.92336565 -0.30220342 0.16929409 -1.1836243 -0.31163916 -0.74492216 0.8730508 0.32928517 -0.1582723 -0.35425428 0.5963494 -0.34261876 0.00991507 0.6620346 0.14981636 -0.09463679 -0.5714372 -1.1223892 -1.3078165 0.12717526
3215 -0.12852332 -0.4600986 0.18154375 0.32820073 -0.23848791 -0.7968024 -0.56178075 -0.058737464 -0.20279567 0.018831348 -0.7537622 -0.64042026 -0.11193215 -0.4035216 0.32655817 -0.2959429 -0.96628314 -0.7330116 -1.0311426 -1.0826926 0.99325496 -1.6165259 -2.181127 -0.45506322 0.5165993 -0.45422092 -0.45347264 -0.35197574 -0.38088927 0.7507788 -0.19433306 -0.7093901 -1.0629259 -0.688305 0.24504898 -0.39852715 -0.6584454 0.23270796 0.89436203 0.940697 0.32074472 0.9844004 0.13573515 0.27801517 -0.31781465 -0.32532227 -0.47694698 -0.36513838 -0.12579331 0.034382977
3639 -0.82217443 1.2321049 0.15364666 0.9849232 0.032560408 -0.628433 -0.5549807 0.12349846 0.6468026 -0.33978802 0.17260139 0.7069073 0.049169652 0.048431274 0.9841892 -0.0152442455 -1.3178183 -0.17494185 -0.7877289 -0.07180365 -0.32213637 -0.5190214 -1.1447192 -0.20857579 -0.5218927 -0.24282502 -0.1541404 0.6524866 1.5935891 -0.04000411 -0.5555796 -0.30263868 -1.5348457 -0.59344745 -0.48943016 -0.95620686 -0.18902317 0.23681962 0.57228565 -0.45306563 -0.12885863 -0.8886458 -0.015084419 1.2387735 -1.2653317 0.24110001 -0.6558727 0.12657014 -0.016225765 0.26918295
1971 -0.16342245 0.4944431 -0.418523 0.6962577 -0.82819176 -0.30324176 -0.76893544 0.09470668 1.0631919 0.023212817 -0.5289208 -0.3059181 0.12170169 -0.9095014 0.7548986 0.2511242 0.06357425 -0.11418061 -0.29434785 -1.7259401 1.1114655 -1.2105806 -0.34591147 -1.0880883 -0.35232642 0.6863848 -0.5096696 -0.35234663 0.37269768 -0.8143376 -0.05035321 -0.09403294 -0.97869015 -0.1996836 0.1446295 0.13107173 -0.25278497 0.98675567 0.058122527 -0.962595 0.93681836 0.6262892 0.31856704 0.016399331 0.3096012 0.21120971 -0.11054693 -0.693055 -0.96397823 0.40417716
1310 -1.0338266 0.40479872 0.06941149 0.6066829 -0.44020623 -0.2171442 0.32335725 0.22879176 1.2081025 -0.8731596 0.024591623 -0.38538072 0.49201712 -0.92894775 0.25905982 -0.15194671 -0.91681886 -0.15526748 -0.64320517 -1.0496427 -0.13122779 -1.0672003 -1.0005467 -0.14128843 -0.26300827 0.53887033 0.24485749 -0.14687747 -0.74286747 -0.59991205 0.8862384 -0.119659014 -0.64305323 -0.98563254 -0.44365504 0.26448557 0.67171377 -0.4984805 -0.13384475 1.1360289 1.0275403 -0.44302717 -0.5549166 0.112276316 -0.4281985 0.4884501 -0.85662246 0.25874794 -0.7547925 0.31532145
4748 -0.29994208 1.1179543 0.82483894 1.8650763 -0.12027252 1.2446059 -0.14001895 0.4516869 0.37553534 -0.123078875 -0.6232145 -0.71735466 -0.47930762 -0.083355285 1.5018145 -0.21088468 -1.2794296 -0.17998928 -0.4179579 -0.9336272 0.17606477 -1.0125786 -1.1780907 0.107366785 -0.72639155 1.2911775 0.3747834 -0.3255897 -0.10629421 -0.6370764 0.12534727 0.04173794 -0.8998076 -0.6360074 0.85521626 -0.90939695 0.14256486 0.32046 0.07097549 -0.20532356 0.7122085 -0.31641155 -0.17236862 0.40596148 -0.6414903 -0.22464213 0.8661614 0.14915015 -0.12278886 -0.36952826
4901 -0.7893943 -0.14240612 1.0059451 1.0005776 -1.5575055 -1.1684792 -1.2149243 0.31150335 1.0160271 -1.0161192 -0.4654445 -0.32981214 -0.6636508 -0.7283858 0.5316868 -0.39511582 -1.3627964 0.16363388 -0.3376915 0.24954581 -0.59477293 -0.5573172 -0.5935747 -0.9458974 -0.7075345 0.98063195 0.23842576 -0.6279443 0.9240152 0.37928426 -0.3788037 -0.48246288 -1.2399322 -0.04683355 0.13112324 -0.36454877 -0.92453563 0.38087285 0.33356017 0.65975183 0.05771663 0.102389194 -0.20224406 -0.28979734 -0.27003625 0.76372224 0.08079757 -0.1293036 0.17049603 0.19224754
2869 -1.7215139 -0.3575647 0.14928965 0.9383553 -0.7433868 -0.09721252 -0.2607516 0.35663697 0.16053948 -0.45615524 -0.3962899 0.20961039 -0.8890139 0.3589076 0.55443364 -0.4122957 -0.90511656 -0.91486114 -0.2586655 -0.53539455 1.3242031 -0.7195854 -0.25773054 -0.15657125 -0.48474017 0.23534445 -0.20356053 -0.027365506 0.46323374 -0.23420052 1.0664686 -0.60510284 -0.36524698 0.7336464 1.3210557 -1.019745 0.3139818 -0.17231457 0.08401088 -0.20772335 1.607515 0.37737873 -0.43512064 0.51284975 0.09474815 -0.74300045 -1.1625317 0.2375287 -0.22861165 0.6959082
2353 -0.59582347 -0.079965375 0.7491575 0.41687608 -0.6071066 -0.52081037 -1.173494 0.349115 1.4943066 -0.18785718 0.18565252 0.14039294 0.5170012 -1.0107147 0.30760747 -0.59479195 -0.71463734 -1.2747976 -1.5052224 -0.8869716 0.66275877 -1.2946506 -0.44815284 -0.09773896 -0.99735415 0.73779 -0.47231662 0.28163046 -0.31280056 0.1054432 -0.28830385 -0.9258689 -0.02936095 0.10071173 0.67627805 -0.6563123 -0.26275834 -0.49971557 -0.2745082 -0.08468862 0.6863074 0.10981867 -1.0380071 0.40770647 -0.030496718 0.9188686 0.44716215 -0.33471674 -0.23045401 -0.3915051
4858 -1.1247892 0.37265277 0.121754155 0.5471413 -0.3231781 -0.29717764 0.24483849 0.28527623 1.4147335 -0.89076334 0.08529644 -0.4501809 0.5033055 -1.0370675 0.23064598 0.05629955 -0.872947 -0.16346104 -0.6734683 -0.9205417 -0.09634898 -1.1406288 -0.7147939 -0.19976959 -0.18681508 0.56110823 0.3177777 -0.33373553 -0.8647969 -0.4369295 0.8067571 -0.054813422 -0.87439114 -1.0049689 -0.38004842 0.30888397 0.69756764 -0.4135946 -0.07568066 1.170492 1.0434917 -0.40137094 -0.5583267 0.14780486 -0.46486813 0.49244848 -0.7839313 0.17045937 -0.64451265 0.32110137
995 -0.27492744 0.34387463 0.33595985 0.99127513 -0.3715508 -0.6796249 -1.2591642 -0.51978374 1.54842 0.76876974 -0.009036764 -0.9264391 0.27364007 -1.3488212 0.54158056 -0.81683594 -1.0802763 -0.8301938 -0.7870431 -0.34253252 0.6841268 -1.1115346 -0.13837585 -0.6777571 0.24568251 0.027133537 0.23752311 0.5359728 0.6520328 -0.95785487 -0.08898476 0.66742325 -0.29504314 0.09867552 -0.8406104 -0.75789297 -0.048965186 -0.20732917 0.53639066 -0.7453967 0.54610276 -0.512057 -0.47783846 -0.61670935 -0.23180556 -0.20174949 0.07168508 0.4389557 0.2371043 0.39736554
5228 -1.2514119 -0.16308507 -0.34302872 -0.023528274 -0.0075244117 -0.5729088 -0.1152173 1.4705832 0.43283913 -0.3037216 -1.0055962 -1.2469645 0.1120974 0.11839267 0.62739503 -0.8871966 -0.7561167 -0.04196973 -0.3147244 -0.58774817 0.89012265 -1.1759899 -0.9473513 0.6705103 -0.9339621 -0.29053488 0.12572125 0.03274449 0.2256246 -0.15325537 -0.33142447 0.36759242 -0.98056227 -1.0025337 0.3667622 0.5782401 1.0380492 1.8233111 0.54357386 0.8890357 0.7182195 -0.9158529 -0.36228722 -0.10612547 -0.528502 0.6387759 -0.6717017 0.8747278 -0.8390527 -0.31755337
69 -0.72539055 0.39626077 0.70735484 1.9348053 -0.25441778 0.26510426 -0.65450287 0.16209207 0.22721195 -0.3026997 0.016127912 -0.35533872 0.30693096 -0.7485358 0.3715562 -1.0307106 -1.3734103 0.23759677 -0.7907978 -1.8337015 -0.5739014 -0.054595917 -0.09802706 0.46657506 -0.47495788 0.6780307 -0.05444933 -0.4371175 0.80514574 0.29548964 -0.32653797 -0.07449882 -1.1613468 -0.34400287 1.1539382 -0.112264805 0.48233056 0.089761086 -0.27260423 -0.035985395 0.3480163 -0.5864355 0.22062317 0.65412843 0.103753604 0.5359268 -0.055745147 0.40424904 -0.7086443 -0.19937107
2409 -0.046485446 0.9763896 -0.39881855 0.18625686 -0.19060396 -0.6932706 0.039043434 0.6326171 -0.0421695 -0.54634476 -0.1492183 0.22745821 0.29476425 -0.5386508 1.0596924 -0.53572166 -0.14631349 -0.80396205 -1.1616348 -1.6319945 0.15122205 -1.619737 -0.5646694 -1.1139302 -0.56329453 0.16148901 -0.18018398 0.13304782 0.14767113 -0.5091561 -0.3322966 0.37310642 -0.9724729 -0.17999946 -0.081788994 -0.24653067 0.029791513 -0.3800722 -0.4361721 -0.66602314 0.89119315 -0.07363221 0.2132975 -0.69656867 0.023649426 0.9373497 -0.29725978 0.014722686 -0.2963473 0.53731954
57 -0.24660522 0.3134041 0.9627237 0.74105924 -1.0178522 -0.8232726 0.42942947 0.44987637 1.1359555 0.0046450025 0.3188436 -0.11373238 0.21663637 0.19167945 0.34695318 -0.6758959 -0.019319104 -1.3860134 -0.4660622 -1.2695307 -0.22241049 -0.2883064 -1.9382082 -0.29714382 -0.6169185 -0.063911766 -0.11914599 0.9640329 -0.24264333 0.18607952 -0.3568979 -0.733641 -0.7755363 -0.40208712 0.47973728 -0.9970512 0.106968045 -0.21672265 -0.036438085 -0.48783225 1.0888451 0.5172501 -0.06827715 0.32638642 -0.552168 -0.9656515 -0.45711973 0.68043995 -0.43902737 0.1843724
2270 -0.045503106 -0.13968578 -0.2917553 1.2119156 -0.17417863 -1.3340914 0.020010965 0.024961185 0.6880655 0.23203926 -1.0115584 -0.32689497 -0.22225718 -0.5913015 -0.103941776 -0.92063296 -0.6676341 -0.19112356 -0.5006224 -0.31355268 0.4568452 -0.789244 -1.6291003 -0.3999617 0.37033084 0.11363629 0.48614419 0.13389409 0.8760983 -0.843317 0.10950639 0.5766787 -0.61202157 0.2760293 -0.19116646 -0.3097051 -0.06381362 0.17113756 0.43687126 -0.8505106 1.1996797 -0.36283132 -0.15532804 0.4593571 -0.2846563 -0.7250151 0.15317194 0.8934774 0.2885413 0.56924087
1963 -0.32236314 -0.5770253 0.5700577 0.70976985 -0.5950125 0.1399723 -0.5186884 0.6708739 1.0126264 0.3287692 0.47150055 -0.59839106 0.8949453 -0.34431624 0.5238433 -1.5934469 -1.1547971 -0.18507734 -0.109674186 -0.9223091 0.14722086 -0.8204359 -0.37948492 -0.21083552 -0.9395525 0.8593813 0.47307342 -0.42326188 1.1339021 -0.49569273 0.07646957 0.10098904 -1.2118123 -0.79717463 1.4287417 -1.2686898 0.80700856 0.4667656 -0.12630731 0.8805461 -0.6417659 0.43880287 -0.11617904 -0.6357363 -0.7244221 -0.27472305 0.18358552 -0.29048672 -0.80077237 -0.17802706
3967 -0.60602236 0.30750838 -0.35991934 0.6344621 0.19988412 -1.8636731 -0.19236296 -0.39316812 1.7008432 -0.17262325 0.47435912 -0.58143365 0.07097528 -0.24823675 0.4495463 0.15955867 -0.39144987 -0.10769191 -0.16348392 -0.3352629 0.74511695 -1.0671973 -1.1406188 -0.17956199 -0.64618236 0.35673022 -0.23026516 0.5733305 0.8808051 0.01289083 0.57145524 -0.2451106 -0.45439944 0.3915804 -0.0033556216 0.46486104 0.62765735 -0.1271177 0.8530209 0.054587588 0.2693925 0.15145133 -1.0281 1.153015 -0.13772854 0.317357 -1.0796889 -0.60092956 -0.5180235 0.34231964
5306 -0.5794177 0.80475855 0.9330002 0.6001961 -1.0467297 -1.0719639 -0.49812987 -0.059479527 0.64817244 -0.94329774 0.9306557 0.13164036 -0.46603596 -0.2970503 0.4556413 -1.8501449 -0.93141884 -0.29584965 -0.6161341 -0.32727572 1.0054262 -0.919917 -1.4961797 -0.32010862 0.90578806 -1.1552322 -0.6985775 -0.180633 1.1771063 -0.38383743 -0.801637 -0.77745765 -0.73939645 -0.76595855 0.52554417 -1.1927171 0.53708315 -0.10038198 -0.30238715 -0.14616778 0.653334 0.41335636 0.44253433 -0.37514424 -0.35977474 1.2229629 -0.5892022 -0.406841 -0.9938326 -0.2628365
2256 -0.1642973 0.5732607 0.52399415 0.10905943 -0.20902103 -1.1471605 -0.48384902 0.3083041 0.4684087 -0.06866945 0.2860711 -0.42167693 -0.734919 0.1789695 0.3018056 -1.7332847 -0.6450304 0.6508709 -0.4965817 -0.8923784 0.110680856 -1.1664176 -1.262951 0.26754203 0.2524706 -0.3912185 -0.36406216 0.5110366 1.1100343 0.2128919 -0.2367657 -0.3170434 -0.8886361 0.0864167 0.6534394 -0.7442306 0.80570096 -0.3481362 -0.5432327 -0.05575951 0.68175095 0.5898123 -0.5356948 -0.56637293 0.17693758 0.5414809 -1.5726372 0.37484652 -0.31664574 -0.026877316
4363 -0.059488643 0.79372436 0.0951266 1.2788663 -0.47615767 -0.46837804 -0.10428334 0.13713014 0.63967633 -0.63882065 -1.1128865 0.37396422 0.6572687 -0.23668024 0.14667454 -0.54313207 -0.84834063 -0.27153972 -0.687405 -0.023544839 0.42258176 -0.7488456 -0.8362335 0.4245463 -1.1727613 0.19696258 0.0618819 -0.12663269 0.46972066 0.8832904 -0.42465317 -0.26876533 -0.36737075 -0.55962753 1.2525368 -1.0656922 -0.34705612 0.7995072 0.4171584 -0.5530076 1.3835181 0.7252877 -0.6297792 0.4426358 -1.2977062 0.29043457 -0.76411366 -0.51470286 0.2367801 -0.21361984
834 -0.35666507 0.3443983 0.21781841 0.33798805 -0.6699103 -0.7436457 0.5016585 0.3277115 1.1026226 -0.5687375 -1.0813806 -0.9015498 -0.4732824 -0.6804551 0.93484795 -0.7203757 -0.7197336 0.122302465 0.11820323 -1.0530685 0.3589699 -1.6132867 -0.794283 0.11049526 -0.68606526 0.3808416 -0.37364623 -0.2743518 -0.22381099 0.6800676 0.60177195 0.23829153 -0.29233065 0.19002275 0.6761128 0.055185728 0.53358436 0.2155305 0.24788775 0.2622458 0.4170547 0.78754926 -0.057365105 -0.86785066 0.65258735 -0.003987805 0.26357096 0.01920433 -0.43406448 -0.6184551
2842 -1.6901815 0.5370247 0.9916677 0.44137552 -0.17617269 -1.2251554 0.51678437 0.4690768 -0.012841639 -0.5244268 0.40057755 -1.0818892 -0.83907324 -0.691855 0.56386817 -0.65177065 -0.44287843 -0.093432546 -0.061038777 -0.5309696 -0.21308011 -1.3017395 -0.6604363 0.06656756 -0.76192135 -0.32332236 -0.16591164 -0.31514424 0.89420277 -0.53670007 -0.64308584 -0.83485156 -0.49658114 -0.09846581 0.7916888 -0.5666794 -0.5003822 -0.02404825 -0.09523615 -0.82188076 0.6485874 -0.21951646 -1.2147735 0.61137474 -0.36920375 -0.22564492 0.6420137 0.3724039 -1.0074769 0.80502135
2393 -0.41782814 0.61909825 0.4281852 -0.18527903 -0.052620564 -1.0823908 -0.34334064 0.14293596 0.4433045 -0.12486289 0.3719971 -0.47769985 -0.58921885 0.07584966 0.3336751 -1.6783999 -0.72317994 0.6659039 -0.5653805 -0.8608726 0.2917949 -1.2498907 -1.3925996 0.16419646 0.32286918 -0.5256871 -0.3591924 0.44288713 0.91571313 0.37089247 -0.18730679 -0.2694224 -0.9301639 0.2090665 0.5574683 -0.79718554 0.84844 -0.29595768 -0.410132 0.18855135 0.73733956 0.56646913 -0.77415067 -0.3714894 0.103940524 0.68228674 -1.6000195 0.3091739 -0.1929693 -0.15479347
2160 -0.72364736 0.23980415 0.41147706 0.6128034 -0.30843914 -0.41367304 -1.0053099 0.8467044 0.40337506 0.3663049 -0.07057388 -0.20094748 -0.05091823 -1.1963997 0.09526502 -0.40885592 -0.9035214 0.42143115 -0.0718195 -0.12690952 1.5462092 -1.987541 -1.6688675 -0.7708197 0.16034313 0.0665208 0.36107892 0.013434514 0.4667016 -0.861291 1.1671088 0.11143541 0.44890285 -0.36015445 -0.19193144 -1.064658 -0.4863278 0.37130275 0.4041201 -0.6398912 0.6910523 0.8609727 -0.79099655 -0.18167384 -0.75696445 -0.0400829 0.011143757 0.75435567 0.25021666 0.5353826
1052 -1.3313384 0.0099321855 -0.35051954 0.94427204 -0.21802734 -0.3420374 0.098736994 -0.009848196 -0.1620765 -0.47571123 -0.70139503 -0.592777 0.31286508 -0.91646576 0.19215108 0.11533138 -0.9992526 -0.27236938 -1.4193163 -0.8272758 0.71680206 -1.2437563 -1.2047626 -0.40519282 -0.4019039 -0.35857204 -1.3993019 -0.24079944 0.5421955 0.012420822 1.1881204 -0.29870722 0.1586495 0.13510065 -0.79020464 -0.09730562 1.3408767 0.3625028 -0.12263943 -0.8452281 1.0051955 -0.17475235 -0.20888518 0.30000237 0.30488297 -0.7387709 0.17793822 -0.6652535 -0.9253122 0.2706242
4672 -0.9452053 -0.10665509 -0.6810079 1.415877 -0.15139617 -0.74247366 -0.3100036 0.3059937 0.29785958 -0.083620906 -0.45605183 -0.43430522 1.0508403 0.41200694 0.8325708 -0.7002139 -0.5485213 0.40425807 -0.9430139 -1.4915923 -0.70057774 -0.38243908 -0.7047333 0.41675743 -0.43411073 -0.07975217 -0.12610544 0.2898242 0.02622655 0.7937246 -0.35268936 -0.20214592 -1.1189058 -0.7244239 0.9613313 -0.9546078 0.43964702 0.75823784 -0.2827833 -0.6116029 0.9097469 -0.75388265 0.028331326 0.48078367 -0.20586343 -0.24095538 0.5372709 0.08477349 -0.5181117 -0.9072151
4934 -1.0516719 0.6966153 -0.8741239 0.21848744 -0.08669105 -1.23297 0.17247464 0.3764044 1.9924539 -0.07369915 0.008887794 -0.13248152 0.39915168 -0.25754964 0.6386555 -0.4402272 0.10504094 -0.12808514 -0.76544863 -0.13602783 0.42523307 -0.3805647 -1.055559 -0.39084807 -0.7192674 -0.07965402 -0.48265433 0.55189073 0.6079184 -0.11018277 -0.63606507 0.61737883 -0.9692075 -0.01998297 0.45687073 -0.2943343 0.74743986 0.43515357 0.31764412 0.1526144 0.041344386 0.10702772 -0.6964917 1.2988162 0.48760492 0.56983304 -1.4646304 -0.5108064 -0.9810661 -0.14356767
503 -0.94648534 -0.20340963 0.8541477 -0.109562814 -0.27691054 -0.74077636 -0.118763186 1.3431474 0.5339409 -0.13162127 -0.32798234 -0.6852003 0.13227208 -0.26657805 0.37359005 -0.58391666 -0.6035527 -1.2570641 -0.30054286 -1.1306492 -0.16219278 -0.7518698 -1.2335197 -0.42754906 -0.09940656 -0.29566473 0.041274883 -0.75738895 0.9043188 0.549788 -0.61761016 -0.39209166 -1.711652 -0.29515418 0.44011378 -0.096940085 0.15645057 0.30090284 -0.30528352 -0.5843638 0.056833193 -0.7495835 0.6230819 0.99775237 -0.0003835981 -0.65577114 0.055262722 0.30211416 0.4027168 0.4423717
1937 0.5321908 -0.19990048 0.6084762 1.0656233 -0.25848585 -1.150521 0.87200266 0.9372222 1.2099208 -0.20892163 0.07933702 0.33820212 -0.2560112 -0.5557654 0.8182537 -0.49636778 -0.3461077 0.011632427 -0.58323354 -0.60646886 0.7290358 -1.3888674 -0.8088803 -0.18356639 0.06880076 0.43416557 -1.228911 -0.0787548 0.19102313 -0.66995317 0.054147787 -0.17795552 -0.2236445 -0.40326753 0.39254567 0.10788124 1.1287717 0.4697848 -0.76312613 0.5777666 0.8699434 -0.6384702 -0.9526213 0.040319808 -0.70964956 0.022747928 -0.7883881 0.38065293 0.14013794 -1.1299403
4904 -0.26007742 0.5029117 0.5645695 0.52072597 0.21278813 -0.91646665 -0.16330439 0.30865112 0.6489321 -0.5019655 0.29140076 0.44284356 0.41944918 -0.2914902 0.4520178 0.1574727 -0.24791364 -0.24254747 -0.09817684 0.025021277 -0.23841016 -0.65245426 -0.48299938 -0.43444654 -0.31455562 0.19964628 -0.058496233 0.78085935 0.7866751 0.06301137 -0.3179433 0.8956047 -0.19825241 0.081481956 0.2662406 -0.4370002 0.107825115 0.009062251 -0.0020646679 -0.22299305 -0.5711133 -0.121952884 -0.6380169 0.74988276 -0.0520134 -0.22428967 -0.8784859 -0.6165717 -0.46534857 0.12050319
3720 -0.92341065 -0.11369633 -0.72470784 1.4994568 0.05432552 -0.7412542 0.062302377 0.34161955 0.3928477 -0.06584411 -0.5870773 -0.6298339 0.84875363 0.49311814 0.8283131 -0.6826534 -0.4781677 0.30774423 -0.7051538 -1.4724885 -0.44470605 -0.42129 -0.74558204 0.4637541 -0.3190472 -0.00435214 -0.17960288 0.35646367 -0.0341787 0.6554648 -0.30591545 -0.28993252 -1.1593859 -0.8004923 0.99170464 -1.1013464 0.28857926 0.72165316 0.0065984325 -0.97193104 0.8860504 -0.9609275 -0.14268339 0.46852702 -0.2479451 -0.314051 0.4144335 0.053650465 -0.48207116 -0.96737516
361 -0.3901094 -0.209072 0.97919494 2.1454194 0.03696386 0.6679669 -0.25857785 0.50937706 0.114328854 0.28762603 -0.17620829 -0.2578171 0.5229635 0.17621239 1.2396799 -0.8996388 -1.2641792 0.3783992 -0.4325721 -0.79358536 -0.16497244 -1.247089 -0.4201927 0.83591 -0.14488643 0.108051084 -0.006262842 0.1773341 -0.30096495 -0.17304137 -0.15026878 0.047469534 -0.64546746 -0.53820306 0.6357594 -0.7955271 0.5467076 0.14537765 -0.6399323 -0.5862101 0.6311513 -0.3093416 -0.310468 0.6747667 -0.19829851 0.5445085 -0.49644777 0.15488689 -1.4462714 -0.3910618
1647 -0.08881252 0.13187711 -0.25601295 1.170083 -0.7030678 -0.55890214 -0.118363775 -0.10475281 0.54016364 -0.6926871 -0.47233167 -0.2705409 0.15865707 -0.20139326 -0.24732327 -0.33263782 -0.92104375 -0.067027695 -0.29650098 -2.079595 0.2754889 -1.3213279 -1.1768938 -1.9250178 0.1694784 0.26526338 -0.5843027 0.44677252 0.48684892 -0.123183005 -0.58431375 0.58366024 -1.0176126 -0.050419953 0.2760868 0.13063353 -0.07121367 -0.058967423 -0.47702637 0.14798145 -0.40564734 -0.19353509 -0.22981441 -1.0858344 -0.50946784 0.876742 0.1920499 0.046541464 -1.1407341 1.0028881
2631 -0.05147236 0.47479257 0.14952566 1.4612111 -0.75504965 -0.30227116 -1.2484328 0.2955679 1.5606401 -0.5621865 0.22527911 -0.47408617 0.26295066 -0.95891786 0.29358733 -0.87445265 -0.82633 -0.1438562 -0.17021891 0.5319219 -0.5127185 -0.40385866 -0.85798454 -1.4111471 -0.65443367 -0.030497337 -0.47833243 0.1999412 0.036201004 0.59572035 0.5600543 -0.02852066 -0.5241037 -0.615928 0.5264262 0.36829856 -0.41430137 0.48097652 -0.360895 0.039718326 0.53214645 0.2661989 0.16997597 0.112095326 -0.2771209 -1.0081226 -0.9318642 0.776921 -0.52933824 -0.18649526
5074 -0.66249645 0.38902953 0.7910172 -0.28344998 -0.15719487 -1.2513658 -0.5389519 0.8380695 -0.053141326 -0.9049951 0.6031533 -1.0991544 0.46496588 -1.6615009 0.57992035 -0.5182648 -1.2228016 -0.4293857 -0.29736343 -1.1056002 -0.035143808 -1.1350662 -0.22251363 -0.8110875 -0.49590775 0.130495 0.047024783 0.2312551 0.27997276 -0.74115896 -0.8996173 -1.3056759 0.32174405 0.24169728 0.118148685 -0.81913227 0.5454151 0.24653088 -0.24178444 -0.55064166 1.0488034 -0.24832894 -0.34142277 0.89841 -0.40940452 -0.97395366 -0.6107792 1.1690245 -0.12479074 -0.16880062
1780 0.29914483 0.27397898 0.20922846 0.94044954 0.07552663 -0.6651265 0.08515253 0.65577334 0.8617124 0.56133455 0.16783997 -0.014401613 0.10540164 -0.36353946 0.95855707 -0.000365761 -1.4566665 -0.9650577 -0.37225512 0.09607367 0.651876 -1.3030785 0.23996092 0.59244627 -0.4413175 0.45680383 -0.27466616 -0.7876063 0.5156181 1.2148398 -0.04822527 0.41948968 -1.402031 -0.12101096 0.9469773 -0.3150971 0.66231847 0.26599476 0.44810796 -0.24993889 0.33077344 0.49614766 -0.25863358 0.50456715 -0.7087533 -0.8541207 -0.70194197 0.7342985 -0.111273386 -0.4026542
4678 -1.0575207 0.3511818 0.40768906 1.8528847 0.25877 -0.39760172 0.24140283 1.3470836 0.34033966 -0.50969636 -1.3627039 -0.3041017 0.5014698 -0.51707965 0.5502277 -1.0024043 -0.50210273 0.20787802 -1.0696971 -0.404605 0.41419497 -0.5970607 -1.3823142 -0.4749676 -0.45415497 -0.71671766 -0.7969932 0.35765913 0.57215524 0.8044825 -0.17243789 -0.24475978 0.2706812 -1.110653 -0.49417734 -0.72003603 0.5286789 1.0617248 0.14430395 0.3058839 0.9053941 -0.81035215 -0.33094513 0.08502872 0.05539674 0.3817839 -0.11310393 -0.72632223 -0.24349743 1.2937106
1852 -1.075252 0.35553104 0.09804056 0.5309239 -0.2019533 -0.23010889 0.33284232 0.3310667 1.2978466 -0.9507299 0.033425782 -0.3476783 0.4820351 -0.93428946 0.2308076 -0.05681264 -0.9824352 -0.2660016 -0.6212015 -1.0403687 -0.0850524 -1.1098493 -0.8288347 -0.050404668 -0.247819 0.5870524 0.10063763 -0.1462869 -0.7409747 -0.49606267 0.9267645 -0.033903472 -0.82245106 -0.87473583 -0.4878985 0.31840336 0.5496481 -0.43294227 -0.13650636 1.113213 1.0150315 -0.350237 -0.50991195 0.17721309 -0.5886968 0.6505145 -0.80217254 0.22060893 -0.6488533 0.3042052
337 0.09998757 0.946029 1.4451287 -0.38395303 -0.4734959 -0.68451446 -0.17807153 1.213807 0.91559356 0.20315553 -0.011474404 0.5965816 0.5215405 -0.51805073 0.24488723 -0.036995858 -0.89190495 -0.5101794 -0.46849933 -0.411334 -0.54666203 -1.0439706 -0.8641058 -0.6075757 -0.36478618 -0.33266982 0.11043674 0.29812464 1.1924274 -0.16426092 -0.15898865 1.4881055 -0.38185844 -1.3680246 0.36243826 -0.7946128 0.39675173 0.5339297 0.13470802 -0.23230363 0.1380091 -0.3288923 -1.2199084 0.71697676 0.1345308 -0.49525923 -0.3354156 -0.40684757 -0.29147217 0.44883385
3775 -0.3596239 0.7349887 0.66943467 0.8056397 -0.87042195 -0.24421063 -0.34155566 0.004883713 0.27743766 -0.29881376 -0.5220084 0.60032505 -0.34598467 -1.2227336 0.65467495 -1.2371829 -0.65777445 -1.4507309 -0.39652035 -0.17465556 -0.109692454 -1.7588018 -0.842247 0.33173087 -0.19221638 0.4359448 0.40325642 -0.27630514 0.99706006 -0.37334272 0.52671224 -0.10115651 -0.7476203 -0.91591114 0.29844436 1.0631613 -0.027269388 0.040145427 0.56922793 0.59797794 0.9422538 -0.7235464 -0.8509549 -0.20337659 -0.16822715 0.17625444 -0.39028966 -0.17826405 -0.3962918 -0.9452824
1481 -1.8947818 -0.17177656 0.85168314 -0.03543158 -0.055350244 -0.15560348 -0.5861748 1.0442743 0.56465775 -0.41753548 0.436669 -0.5363696 0.52771956 -0.7886702 0.16028365 -1.2500203 -0.5298819 -0.8018786 -0.17916591 -1.2277247 0.40651724 -1.3821967 -0.34919816 -0.73576534 0.46243414 -0.19806513 -0.8007659 -0.5493797 0.5085039 0.30868712 -0.00033891673 -0.77727383 -0.97751254 -0.66707075 -0.09718173 -0.01639486 0.49787688 -0.26850307 0.10777003 -0.1577014 0.47309813 -0.31299242 -0.070322715 0.6203491 -0.3934763 -0.54321426 0.54483765 0.99283916 -0.24807543 -0.22437713
4589 -0.4485055 -0.19608408 0.5687526 0.5469969 -1.5542053 -0.42424452 -0.48614866 0.70750386 1.0325875 -1.2026055 0.18468618 -0.3501101 -0.5647407 -0.7739262 0.48953068 -0.77695346 0.030707512 0.23932903 0.015634319 -0.07930807 -0.33135325 -1.8116794 0.2523605 -0.700025 -0.16332932 -0.61972994 -0.6524667 0.20667258 -0.16818321 -0.28060332 0.68895555 0.2595703 -0.584545 0.10979656 0.3468913 -0.41993925 0.88466036 -0.2583878 0.12703711 -0.3670501 0.8632694 -0.124499656 -1.0164641 -0.0039683203 0.15088324 0.84235525 -0.27477524 0.28533494 -0.5567926 -0.1317552
4503 -0.57134295 -0.1411503 0.54355264 0.68820465 -1.7247041 -0.4368813 -0.5411404 0.6614634 0.9819591 -0.87127244 0.31245765 -0.28188866 -0.6097329 -0.6286835 0.5699331 -0.7470017 -0.057209644 0.34818384 0.2760898 -0.1658424 -0.33034146 -1.8680509 0.106258966 -0.83813673 -0.016660571 -0.59780383 -0.67272663 0.28925687 -0.2728151 -0.30168906 0.65122604 0.19174495 -0.5840443 0.20143661 0.32577437 -0.4411882 0.7185169 -0.39263222 0.6422067 -0.34730318 0.9341681 -0.27638504 -1.0115821 0.11797053 -0.036722858 1.0178403 -0.41171834 0.41786408 -0.39764863 -0.07247894
5058 -1.4614801 1.1020364 1.0463619 0.4457059 -0.106276825 -1.3799434 -0.014790506 0.22594792 -0.856317 -0.0841 0.5824024 -0.7434412 -0.572878 -0.98639834 0.37335125 -0.55393946 -1.1232693 -0.14385532 0.1788272 -0.8968727 0.09675367 -1.4305983 -1.0877429 -0.28672314 -0.82695615 -0.5977106 0.27147382 0.1558364 0.15864542 -0.072723344 0.019643748 -0.5544756 -0.28865078 -0.36502782 0.5661305 -0.122903384 0.29197577 0.72066164 -0.20359279 -0.68697286 0.32315645 -0.4481348 -0.3038395 0.43335852 -0.21429731 -0.4083535 0.7652592 0.10438179 -0.3370122 0.75066346
1880 -0.67270243 0.045781422 0.66920036 0.67138654 -0.12178237 -1.0430279 -0.07042475 0.8871176 0.7668277 0.23705915 -0.16846842 0.28593805 0.8406542 -0.22991583 0.3358322 -0.3016745 -0.99675614 -0.34707683 -0.05163974 -0.5299229 -0.67988753 -0.9006359 -0.92214274 0.13556816 -1.3729098 -0.5595012 0.25498304 1.1273317 1.0124198 0.331608 0.22071825 0.48297617 -0.48532104 0.50426066 0.4127614 -0.27230385 0.2793917 0.63607 0.22891936 0.00077691145 0.20656754 -0.70151997 -0.52123797 1.1295084 0.55312425 0.74575174 -0.5909092 -0.6875269 -0.3164308 -0.438003
452 0.27102575 0.2886749 0.37067723 0.95765555 0.09397869 -0.842198 -0.3446653 0.3759883 -0.0076447274 -0.35180786 0.5573502 1.0006139 -0.31989497 -0.2891059 -0.089277245 -1.207025 -1.3419393 -0.051539764 -0.6966358 -0.75602704 0.07361435 -1.254418 -1.5528038 -0.5271798 0.27746445 -1.2988222 -0.31324822 0.12008685 0.5955123 0.29979184 -0.119788334 -0.3317818 -1.077052 0.22993691 1.0610038 -0.1340953 0.7035099 0.1224403 0.40995148 -0.6389148 0.83057594 1.1664186 -0.18422487 -0.6484556 -0.60129625 0.3320918 -0.99652636 0.4493792 -0.13121179 -0.60614616
5443 -0.2722177 0.42644066 -0.21475111 0.7692037 -0.47746837 -0.20867473 0.06717049 -0.13216378 1.9098392 0.25088406 -0.5396689 -0.038211245 0.40555292 -1.128958 0.12565732 0.1945165 -0.94163376 -0.8675867 -0.7378283 0.5218179 -0.40789744 -1.9197559 -0.48065114 0.043832377 -1.273607 0.39595398 -0.045349363 -1.0293264 0.15414056 0.20633283 -0.22308537 0.32425317 -1.3123883 0.26994336 0.11453732 -0.303283 -0.003712809 1.2993548 0.51179403 -0.38945982 0.22256601 -0.5076637 0.40200895 -0.059134416 -1.3767862 -0.17516378 -0.27680504 -0.7704512 -0.081508 -0.1333643
3835 -0.53457844 -0.2079948 0.6925489 2.1238606 -0.8094421 0.54990804 -0.55233175 -0.2612296 -0.13048813 -0.3569717 0.09676878 -0.059279528 0.33857366 -0.14699167 0.8970922 -0.7669647 -0.47132856 -0.36045045 -0.5723979 -0.8900106 -0.6802064 -0.90173364 -0.07043931 0.14789298 -0.29837248 0.3636993 -0.5640888 -0.21198516 0.45103365 0.17529094 -0.71514446 -0.74790627 -1.2680411 -0.66974986 0.6004994 -1.2689269 1.4080106 0.69539666 0.13279916 -0.66079617 0.2722934 0.042682707 -0.20690833 0.33801836 -0.12518772 -0.66157615 0.3258458 -0.022541467 -0.95866156 -0.9651979
251 -0.044252302 0.46572587 1.1646699 0.93894476 -0.030897442 -1.3748971 -0.7386605 0.111547865 1.01348 -0.28587076 0.30798617 0.7311298 -0.2878626 -1.0123827 0.17549205 0.5360514 -0.533757 -0.103094876 -0.39149657 -0.23533326 -0.06461515 -0.87910765 -0.68730414 -0.65489626 -0.7913865 0.665444 0.40150437 0.8081508 1.2623744 0.4217276 -0.2675412 0.72797316 -0.10720718 -0.005313231 0.6125178 -0.566122 1.1550459 -0.36843073 0.46294078 0.30693755 -0.5762222 -0.06347364 -1.0651654 0.35377342 0.30020764 0.04293931 -1.349148 0.20941968 -0.7111926 0.26029673
1206 -1.1204903 0.24606879 0.39691478 1.7999666 0.12539555 -0.5153581 0.104912415 1.2950721 0.15044072 -0.4590951 -1.1815273 -0.3201668 0.45599025 -0.5411547 0.26396674 -0.7961194 -0.440735 0.29164448 -1.1330624 -0.6060174 0.1741364 -0.3936708 -1.4564958 -0.74176353 -0.37980664 -0.87044173 -0.85086155 0.34748977 0.55937195 0.57494694 -0.042956803 -0.16584466 0.37542245 -0.9922892 -0.38205987 -0.8044445 0.4534 1.1580689 0.17239039 0.25600362 0.9449078 -0.8486867 -0.36091796 -0.024812976 0.19180755 0.24502578 -0.063160256 -0.83297205 -0.29497176 1.0576186
3515 -0.17373765 -0.1734046 -0.33194813 0.5241235 -0.6735666 -1.3523732 -0.29981196 1.7281917 0.62848616 -0.10863158 -1.0709523 -0.60176367 0.9163739 -0.27578142 -0.26781538 0.60762364 -0.73445296 -0.23410065 -0.06603222 -0.44388598 -0.038791068 -1.0227504 -0.44541243 -1.3345482 1.0695987 -0.12811387 -0.27099186 0.03352494 0.71420175 0.6745414 -0.64110124 -0.37379506 -0.8623507 -0.53825974 -0.36900365 -0.31909052 1.1989086 0.18785235 0.20686541 -0.30206153 1.3255262 -0.20663218 -0.095427185 0.7245422 -1.0410143 0.42012772 -1.0991645 0.33374113 -0.65275115 0.21298353
1364 -0.93058 0.124458276 0.27966186 0.043767493 -0.66831845 -0.63981634 -0.47441673 0.066622816 0.36130807 0.5569831 0.2119044 -0.38413125 -0.11182961 0.2628988 0.9472343 0.3056542 -0.8900354 -0.6863169 -0.85251665 -0.41448873 -0.012735986 -0.4839398 -0.609451 -0.5528205 0.46091032 0.22036815 0.26926747 0.15088883 0.22435963 0.26329386 0.58709496 -0.11827946 -0.44336003 -0.23571573 0.22808982 -0.39977407 0.30971575 0.5312175 0.12359534 -0.30096996 -0.0766868 0.04543638 0.05535026 -0.21430765 0.34277368 0.20425253 -0.37249452 0.5521328 -1.1317754 -0.0059237937
2641 -0.13771349 0.56975764 0.7257722 0.8248296 -1.0284495 -0.26050803 -0.4782415 0.07629552 0.34724113 -0.27829424 -0.5030742 0.5975548 -0.28277114 -1.2658287 0.5656147 -0.932061 -0.7597426 -1.3353752 -0.32211158 -0.20390354 0.03154741 -1.770599 -0.6958027 0.26299414 -0.16663638 0.6516644 0.39121923 -0.44778302 0.9615183 -0.6436928 0.2642919 -0.0754233 -0.9445711 -0.9041535 0.47971365 0.7985988 -0.082146645 0.27012625 0.5248168 0.68375015 1.0111306 -0.9013173 -0.81656885 -0.30082488 -0.18379892 0.24933104 -0.54735035 -0.055095274 -0.10691426 -1.2501941
5205 -0.007586464 -0.04403918 -0.65333956 0.6970612 0.5277651 -0.5742848 -0.4417801 0.1787322 0.67373955 -0.46832216 -0.07407797 -0.035424393 -0.1262721 -1.1027318 -0.33574304 0.0850551 -0.4505828 -1.0163532 -0.3092336 -1.2452607 0.10244809 -1.7511653 -0.03189258 -1.1569324 -0.505586 -0.300219 -0.097114295 0.6686351 0.33099023 0.2864434 -0.45352766 -0.24634942 -1.0939524 -0.43958294 0.3466866 -0.531374 -0.152547 0.9104418 -0.8038866 -0.52944165 0.031520862 0.21755642 -0.189801 -0.4731358 0.11065968 0.7788737 0.18341538 -0.16093808 -0.7440842 0.09541499
1506 -0.12970446 0.42152303 -0.26269865 0.5861507 -0.64081204 -0.42203897 -0.7636317 0.29129145 1.2711831 -0.015294465 -0.62044024 -0.36606473 0.029145414 -0.89579797 0.81243896 0.20189136 0.12333157 -0.21163258 -0.27624017 -1.6151075 1.0445004 -1.1558477 -0.30383015 -0.9414969 -0.2386546 0.7796003 -0.42232466 -0.36840737 0.3920092 -0.9508021 0.06797214 -0.15179186 -0.7579871 -0.25281164 -0.0051562656 0.12959187 -0.2679255 0.97438115 0.0077177975 -0.7809493 0.9245 0.5281349 0.4028129 0.09664841 0.1617389 0.15536574 -0.074790865 -0.71503145 -0.9335324 0.5546977
1681 -1.0958962 0.37609407 0.19689222 0.66343343 -0.22063163 -0.2315668 0.38243484 0.24813202 1.3474498 -0.9643651 0.040110707 -0.39269114 0.2522193 -1.0527955 0.24484335 0.061679613 -0.7287592 -0.20519851 -0.803979 -0.94423074 0.00029799395 -1.1673579 -0.7267016 -0.007830737 -0.30138758 0.7757654 0.28458917 -0.31695843 -0.6353913 -0.5241035 0.82931924 0.0073605557 -0.9219365 -0.81669974 -0.5831361 0.31021303 0.6017685 -0.21524853 -0.13876216 1.1424874 1.0751815 -0.4741971 -0.5526982 0.20793073 -0.5240279 0.69867206 -0.7447991 0.38439712 -0.6367685 0.22348978
5113 -0.36703598 0.40266904 1.0993444 2.0766797 0.6466956 0.33264244 -0.6905366 -0.06849048 0.4218748 -0.16891973 -0.40877548 -0.90677524 0.5807759 -0.303723 1.0949049 -1.3263414 -1.2691933 0.14640869 -0.29086298 -1.5957904 -0.5009598 -0.7610789 0.12804529 -0.28070414 -0.19500232 0.42629486 -1.6478255 0.022509757 0.124228895 0.013134941 -0.5182465 -0.24141955 -1.4549317 -0.5419706 -0.007249283 -0.86778206 0.19685687 0.062866375 -0.67859507 -0.35573485 0.27816522 -0.2933421 -0.42416897 0.59930736 -1.1178463 -0.015730515 0.010717124 -0.24666587 -0.60368985 -0.56200767
1924 -0.651202 -0.45470366 0.49173602 0.22262782 -0.5005796 -0.059135936 -0.5238145 -0.3142901 0.5662811 0.67455345 -1.4254177 -0.36508024 -0.46259138 -1.0356544 0.6185294 -1.1031613 -0.4311121 -0.36214685 -1.0339513 -1.0025043 -0.037608776 -1.2964293 -0.8438254 -0.2538234 -0.25837675 0.0513292 0.37560904 0.7771143 1.0344235 -0.15864578 0.6194818 0.21618864 -0.73570126 0.305968 0.35393763 -0.92964417 0.76513207 -0.04163587 0.79982436 1.2837784 -0.008468236 0.10349149 -0.45659798 -0.28055274 -1.0293089 0.6758612 0.29975247 -0.48002794 -1.1470006 0.2894656
1294 0.4135421 0.2345719 -0.012474237 0.8168393 -0.97840136 -0.21434502 -1.2140685 0.09298595 0.16384399 -0.7457568 0.02905112 -0.61012995 0.15406628 -0.8423746 0.7755691 -0.5012891 -1.4530386 0.11223282 -0.63525265 -1.0486479 0.25707984 -1.1806036 -0.66410863 -0.8810994 -0.64143294 -0.5346446 0.06535553 -0.03684736 0.09655007 0.45550397 -0.7098157 0.3408762 0.63673913 0.56593996 0.5921042 -0.06380345 1.3057138 0.23903264 0.16404526 -0.39562228 0.4435382 0.7818533 -0.9882514 0.79126346 -0.0758351 -0.16903515 0.10561948 0.6502363 -0.16185416 0.047010295
928 -0.5486361 1.0743543 1.2927107 0.036931254 -0.06277251 -1.6072505 0.22325656 0.68663645 0.13430896 0.6554289 -0.42434874 0.18744971 -0.29250234 -0.19644809 0.013708499 -1.0843859 -0.70113504 -0.04085452 -0.9755635 -0.24105208 0.19548267 -1.1584423 -1.2168208 -0.05012572 0.723579 -0.9523343 -0.81386095 -0.20921627 1.054609 0.16507721 0.746064 -0.30401933 -0.5530379 0.21327013 0.3074202 -0.88041246 0.7244896 0.548729 0.65233445 0.053594183 0.7909382 0.28420362 0.5026019 0.3258334 -1.1463907 0.47570577 -0.9611291 0.21285364 -0.20333803 -0.0008768574
335 -0.8539837 0.42965677 1.1250901 0.73105866 -0.5389158 -1.5772642 -0.8806122 -0.19910115 1.513466 -0.26966217 -0.34034407 -0.19951388 -0.08853378 -0.11371009 -0.26079458 -0.4152224 -0.80779195 -0.7779256 -0.26766452 -0.382364 -0.86538917 -1.0707774 -0.21798006 -0.47812366 -0.55527407 0.018471241 -0.50104755 0.3735069 0.6822005 0.35718942 -0.39356682 0.72331804 0.19736892 -0.6015626 -0.15965426 -1.0607326 0.7289958 -0.28223023 0.060682893 0.041291904 -0.59412485 -0.029684281 -0.5180738 1.6192272 0.024161771 0.2989762 -1.1570922 -0.6982902 -0.33784384 -0.10987106
2823 -0.4728987 0.049213096 -0.26353315 0.11738338 -1.2219399 -1.2866528 -0.2952371 0.09300857 1.5705738 -0.6988164 -0.46870682 1.0426499 -0.28629258 -0.8344953 1.3646517 0.26011547 -0.37951282 0.5149071 -0.4801515 -0.5838318 -0.5615365 -0.60758984 -1.3279313 -0.12531279 -0.48620933 -0.25379288 -0.06322113 0.73813957 1.2494327 0.89818645 0.116690844 0.46733794 -0.89104986 0.068176806 0.5450671 -0.7476933 0.12834775 -0.53844815 -0.045916688 -0.6034757 -0.02939291 0.04227886 -1.265342 0.7327032 -0.26671386 -0.6657952 -0.27066085 -0.32924628 -0.6601382 0.35404328
2126 -1.5038347 -0.08546254 -0.23560551 0.88089275 -0.25593567 -0.20729549 0.00589531 -0.18264133 -0.29239365 -0.5102752 -0.76412356 -0.73146003 0.32722583 -0.7974865 0.16765203 0.24949403 -0.9475552 -0.3364729 -1.4312335 -1.1120933 0.55358744 -1.1957554 -1.0960524 -0.53218156 -0.1293638 -0.30099168 -1.4357519 -0.25555748 0.3748585 0.11483899 1.1069123 -0.41263482 0.15390356 0.33953062 -0.7140414 -0.0118422415 1.2176081 0.57177275 -0.03526467 -0.75738066 0.9041528 -0.26362038 -0.36554897 0.1940639 0.21404283 -0.87604 0.16037427 -0.5917678 -0.7591214 0.20823754
2943 -0.7423231 0.111234136 0.72881466 0.8055988 -0.27386215 -1.0710285 -0.1913891 0.7975556 0.48998278 -0.05191118 -0.24663301 0.3850175 0.5461018 -0.3853982 0.49986222 -0.11796351 -0.73406684 -0.100504726 -0.29293212 -0.94453454 -0.7208385 -0.89579 -0.8480206 -0.05931413 -1.5332654 -0.3372708 0.36142516 1.2592134 0.7940381 0.4513677 0.36509898 0.71332026 -0.19348952 0.51228565 0.7685189 -0.1914817 0.34861293 0.471972 0.15959717 -0.11681941 -0.027633363 -0.78667295 -0.6418961 0.94033945 0.81289786 0.5160007 -0.7773174 -0.5736458 -0.50695205 -0.5508754
5565 -0.5896568 -0.41147813 0.38129428 0.67277604 -1.6700419 -0.5060113 -0.29772455 0.87597793 0.77892834 -0.9592719 0.33943638 -0.5158148 -0.36247498 -0.644918 0.6582414 -0.7554971 0.16494064 0.18116282 -0.072795086 0.061180267 -0.5787612 -1.6207654 0.36928266 -0.6748732 -0.2864695 -0.55544394 -0.84337777 0.18857402 -0.33478618 -0.3132483 0.5608283 0.16233505 -0.9129004 0.22800228 0.5383053 -0.5943923 0.8596492 -0.20045242 0.50411487 -0.5251542 0.742723 -0.15915187 -1.1625255 0.0598481 -0.007756281 0.8241246 -0.33892447 0.17473522 -0.48519272 -0.086640365
1620 -0.19219024 1.0207684 0.9055603 0.24730806 0.042626068 -1.1392393 -0.1200762 0.69632363 0.29690167 -0.60761046 -0.16580373 -0.31995004 1.0536073 -0.54342437 0.3883005 0.037789054 -1.0593877 0.0070954524 -0.10961953 -1.4431037 -0.9893752 -0.88903916 -1.6289052 -0.122368924 -0.7606823 0.08745992 -0.9712336 -0.86681324 1.2143275 -0.5259385 -0.15624665 -0.6097212 -0.11850488 -0.21856658 0.56742674 -0.5850956 0.06749236 0.8755834 -0.064032644 -0.07411364 0.8515408 0.38478065 -0.018325714 0.3973058 -0.302457 -0.70948094 0.042171765 0.9588044 0.10525303 1.078356
2574 -0.14118889 -0.123575896 0.43364358 0.9091613 -1.4177883 -0.34269807 0.19886456 0.45202672 0.66798544 0.6726991 -0.0021813388 -1.4388193 -0.07612275 -0.12030552 0.36064625 -0.28402257 -0.8139947 0.2887517 -0.032810677 -1.4753612 -0.3677307 -0.96361685 -0.186627 -1.6549706 -0.42046943 -0.31739902 -0.66617656 -0.14111336 0.9418067 0.029927442 0.947679 0.03329363 0.05064519 -0.26337454 0.9801016 -0.61317337 -0.2768851 0.30964 0.98586893 -0.15489268 0.5378281 0.2117394 0.3054398 -0.39963317 -0.26978403 0.13546267 -0.6691047 -0.09787582 0.31386986 -0.786297
85 -0.50250536 0.02634071 0.06375487 1.3718661 0.2847185 -0.6799307 -0.1043775 0.8406747 0.18816772 -0.748565 -0.82528174 -0.83759236 0.4475042 -0.76568466 0.3116013 -0.30025136 -0.962618 0.068913795 -1.4089532 -0.44098896 0.74083453 -0.3460671 -1.3411304 -0.76726145 -0.90880454 -0.24464929 -0.5571758 0.05718461 0.78935724 0.8618121 0.13463235 -0.16945916 0.28645286 -0.91480875 -0.35056728 -0.89964193 0.2538172 0.4191205 -0.0029771638 0.35407656 0.37905902 -0.5728561 -0.25109848 0.26558557 0.37273923 0.46678504 -0.74776566 -0.9145459 -0.6485241 1.684954
3801 -0.43454134 -0.2911845 0.50961465 0.5570722 -0.22136268 -0.59269124 -0.24332227 -0.049306847 0.3152067 0.38993573 -0.48459342 -1.3839804 0.15191571 -0.97586256 -0.3307972 0.2291135 -0.65093505 -0.7063481 -0.9786734 -2.0226748 -0.5115432 -0.6560951 -0.6719695 0.4555998 0.6008946 -0.0147017315 0.28234133 -0.25569293 0.23804095 0.2035969 0.3582407 0.91997296 -0.36875704 0.24843833 0.84344107 -0.56914276 0.28586197 0.60638815 0.5288791 -0.08654851 0.72092474 0.13420625 -1.4781227 0.7107758 -0.16570285 -0.043319244 -0.74355304 -0.10482252 -0.20974445 0.16193116
696 -0.44385508 0.34126467 -0.41676039 0.9423931 -0.08432153 -1.0427436 0.1551117 1.3840206 0.8013176 -0.0033527578 -1.0095007 -0.27680907 -0.59477264 -0.23512428 1.11059 -0.48601136 -0.39008698 -0.7550015 -0.123022884 -0.42233884 0.96039474 -1.7132955 -0.5321117 -0.23602806 -0.16455488 -0.103551 0.78336453 -0.3897895 0.19683589 -0.7534752 -0.5184432 0.2299119 0.0288797 -0.45961016 0.58862054 0.102714 1.3787836 1.761006 0.5364248 0.51655096 0.45857355 0.36953625 -0.2953813 -0.544468 -0.98059803 1.5443467 -0.21163568 0.21211573 -0.9755264 -0.38057777
2021 -0.07073893 -0.23722018 -0.29327562 0.6902868 -0.2578744 -0.82136154 -0.3666786 0.61984533 0.9428858 0.5336968 -1.6057591 -0.2743187 0.31609142 -0.19503845 0.25919244 -1.1421127 -0.82249725 0.0154560665 0.04948795 -0.07554968 0.32873702 -0.8472877 -0.9591069 0.104801446 -1.5277127 0.049238324 0.5072439 -0.26565918 -0.53583467 0.9885841 0.4088127 0.23471141 -0.611763 -0.05511537 0.6943209 -0.6527856 0.30736563 1.1069206 0.42032033 -0.72001857 0.88174134 1.0835811 -0.9795804 0.03362465 -1.0391281 0.37489143 -1.1075616 -0.5008393 -0.9982528 0.44526652
228 -1.529568 0.30448714 -0.13364574 0.36324453 0.80959934 0.16920143 -1.1954639 0.30164376 0.32555088 -0.19840556 -0.25205642 -0.70737976 1.1852574 -0.2902947 0.48369628 -0.2872493 -0.9815729 0.47797394 -1.0070738 -0.5659988 0.037879374 -0.68867564 -1.5454627 -1.2200046 0.19926648 0.12344622 0.08073104 -1.0503728 0.3952379 -0.44259325 0.07363745 0.952834 -1.5453987 0.47648063 0.16097093 0.68573755 0.23140186 -0.006933777 0.22767143 -0.697098 0.5777051 -0.17668192 0.40156236 -0.036577582 -0.46338767 -0.290087 -0.8168378 -0.12372771 -0.5388517 -0.121495426
5234 -0.27828866 0.10641271 -0.46407095 0.16120182 -0.93337655 -0.51171184 -0.4377024 0.666652 1.1303966 -0.14856459 0.38526642 -0.67534 0.69385535 -0.972273 0.33495188 0.13775758 -0.97774404 -0.12905025 -0.17905913 -0.5581252 0.023944596 -1.3902048 -0.32276654 -0.49740648 -0.113046534 0.12906292 0.22186258 -0.5336501 0.49143285 -0.7466772 -0.78783983 -0.11866858 -0.254395 -0.9495677 1.1514567 0.55734307 0.5618578 1.0615252 -0.060413133 1.221607 0.461424 -0.81473464 -0.7584434 -0.25768277 -0.19677173 -0.22189361 -1.4740944 -0.0037125258 0.09598529 -1.0817139
3673 -1.3377653 0.25379765 -0.13659315 0.8855201 -0.7318249 -0.22059722 -0.89938915 0.2910104 0.82663214 -0.39122692 -0.9538509 0.08983763 -0.686261 -0.07668622 0.30668774 0.3304176 -1.3647678 -0.93870795 -0.18149886 -0.28337663 0.19765261 0.039173584 -0.31562695 -0.74145633 -1.2732304 -0.017955543 0.16833544 -0.4754452 0.768406 -0.08252885 0.6597966 0.17514682 -0.7160999 0.56561154 1.8220949 -0.14996926 0.67356867 -0.005621721 0.48796088 -0.26163778 1.5443234 -0.5042228 0.1365372 0.38962734 0.52963597 -0.29352906 -1.3272188 0.06154079 -0.13907485 0.926877
5355 -0.9224845 -0.23049562 0.017885353 -0.070267886 -0.20099825 -0.55934185 0.004960691 1.4420415 0.71716475 -0.5387854 -0.8108505 -0.62121487 0.8630153 0.07814705 -0.23385642 0.31227836 -0.36880904 -0.46885532 -0.4037801 0.14405638 0.18128009 -1.6248659 -1.3875937 -0.91787064 1.7304883 -0.6363674 -0.22062632 -0.29459175 0.88022804 0.17715855 0.12259603 0.9917603 -0.7581994 -0.26111165 -0.2725247 -0.932919 1.2770469 0.56000006 0.33816397 0.25897473 0.9983522 0.21787384 -0.38271523 0.5538896 -0.7014355 -0.246354 -0.10960159 0.50744843 -0.5064784 -0.2698353
561 -0.06407071 -0.2665117 0.5266535 0.99048024 -1.2967496 -0.2084246 0.26630113 0.44388396 0.52574426 0.51714396 -0.2995471 -1.284541 0.013931739 0.06365232 0.451924 -0.48905432 -0.6957476 0.38495684 -0.049501557 -1.3102785 -0.39718074 -0.95657563 -0.16629489 -1.5645474 -0.55094904 -0.46492487 -0.5394848 -0.09163852 0.8684309 0.13768671 0.7961339 0.16654043 0.008572586 -0.2919771 0.9178685 -0.55466986 0.029599652 0.52564114 1.1392902 -0.19913407 0.19726107 0.41603395 0.27067712 -0.2683305 -0.24777654 0.14895079 -0.49204192 -0.19052066 0.23420975 -0.9940107
885 -0.31806374 0.9567362 0.5136032 0.82386 0.39338365 -1.2531121 0.81904167 0.00598942 1.454168 -0.7403783 0.07269166 0.81698483 -0.13353005 0.101141214 0.39576298 0.043401755 -0.7840559 0.1161191 -1.2830529 -0.94590557 0.021029878 -1.3809347 -1.2608482 -0.081494644 -0.03426046 0.6556971 -0.28847045 1.0527595 0.6880336 0.67842525 0.24548376 0.11762471 0.037309203 0.19853267 -0.24337174 -0.98032403 0.71529955 -0.11297146 0.63208884 -0.49577668 0.5473037 -0.036511764 -1.2561831 1.3543497 0.18573023 -0.3736391 -0.92758256 0.031573318 -0.43914014 -0.57531357
3713 0.17421158 0.07895036 0.04150107 1.463858 -0.2234573 -1.354435 -0.119358644 -0.19313309 0.6256904 0.21410313 -0.9672411 -0.006643775 -0.3234961 -0.33499795 0.0778343 -0.5695784 -0.7576492 -0.029288048 -0.5519523 0.017849611 0.33221632 -0.8550381 -1.7340151 -0.60558236 0.6011624 0.28343382 0.14633255 -0.22174636 0.8288035 -1.0388303 0.14182028 0.4007545 -0.45564467 0.16726264 0.097713135 -0.5140329 -0.48828447 0.20443664 0.5142223 -0.959704 1.1448443 -0.30455393 -0.13688919 0.724898 -0.30470148 -0.6416037 -0.050672524 0.44443497 0.17037684 0.69554317
4707 -0.7383298 -0.44093266 0.43839544 1.100649 -0.64607066 -0.19708383 -0.008358806 0.4456056 0.60668445 -1.1787432 -0.56420237 -0.4568933 0.34104973 0.24901117 0.6756482 -0.45468158 -0.32466185 -0.14162733 0.70631534 -1.196933 -0.76836216 -1.3613036 -0.51092875 -0.34284243 0.045149 -0.45630786 -0.9807494 -0.22956206 -0.040620632 0.34606236 1.2370403 0.4435292 -0.317346 0.035826534 1.1119782 -0.83389413 0.93891186 0.3076006 -0.40994632 0.070479274 0.5334224 0.58165777 -0.53616416 0.21849026 -0.64978856 0.16268401 -0.6062798 -0.7103515 0.884957 0.17098373
1657 -0.2084684 -0.11761154 0.118881546 0.88581824 -0.50709593 -0.52938247 0.44442183 1.026354 -0.076697044 -0.67105526 -0.48654845 -0.17518653 1.286354 -0.6127609 0.9506512 -0.08987426 -0.588601 -1.2044176 -0.9229419 -1.1087973 0.5181465 -0.80508095 -0.811633 -1.281171 0.12590927 -0.15891172 -0.7689378 0.4549727 0.29560462 -0.48407367 -0.21112931 -0.6779172 -1.3781238 0.0066511827 0.45813826 -0.7521409 0.8277008 0.8563916 0.28081605 -0.38356268 0.43715823 0.8770072 -0.42201248 -0.39076868 -0.46441463 1.4789358 0.9809169 -0.9389664 -0.8923174 0.49800834
3707 -0.61196816 0.3121775 0.098312765 1.0310141 -0.923535 -0.75637305 0.50234103 -0.13985072 0.9269517 0.2455532 0.13246004 -1.5808439 -0.51187253 -0.018707054 0.96006167 -0.081158295 -0.36751106 -0.36338118 0.118273675 -1.875518 0.21791998 -1.1219524 -0.42915776 -1.1728079 0.5444329 -0.1541902 -1.3104082 0.0615344 0.9108596 0.29703602 0.7443221 0.039726384 -0.91313374 -0.23557578 0.4166427 -0.18748675 0.30326426 -0.66247326 0.13356607 0.19720319 0.8685922 -0.95669854 0.29263744 0.17942892 -0.108606026 -0.8410622 -0.48240432 -0.122674175 0.43442893 -0.49424943
317 0.053139582 0.19472805 0.25833395 0.96341056 -1.1024525 -0.07212263 -0.87331617 0.764218 0.68890333 -0.8514517 -0.087321915 0.15024321 0.37038746 -0.35694343 0.07957888 -0.07740982 -0.7963406 -0.7450295 -0.5587943 -2.4351866 -0.18748201 -0.52244097 -1.0344466 -1.8009425 -0.43966344 -0.19993381 -0.7948364 0.38058445 -0.10020491 0.5196892 -0.77132976 0.5745358 -1.0476377 -0.42702264 0.21162266 -0.16226782 -0.22659278 0.34352815 -0.567339 -0.447659 -0.08393591 0.0039008516 0.2514512 -1.1679909 -0.44408685 0.31913447 -0.39783642 -0.20132905 -1.1797129 0.4773515
301 -0.8191141 0.10959154 0.098664895 0.054817054 -0.7280429 -0.64758205 -0.47373378 0.08024814 0.3378428 0.4325314 0.08281626 -0.38844115 -0.07693163 0.045058947 0.9008568 0.3445315 -0.95073414 -0.6814871 -0.87965167 -0.2466804 0.17086482 -0.4173974 -0.6411754 -0.42599556 0.30598664 0.039538737 0.31550604 0.02979373 0.42432636 0.30189043 0.73139954 -0.30637443 -0.44801328 -0.33345777 -0.07595473 -0.3211431 0.31601992 0.584248 0.11220614 -0.25800535 -0.19547957 -0.03457239 0.021426616 -0.2342352 0.2730229 0.31624916 -0.3682667 0.5276961 -1.2723272 -0.21429226
2794 -0.6281726 -0.57166624 1.3490607 1.1964512 -0.4932367 0.04697231 -0.28439027 -0.3796659 1.0195729 -0.57618725 -0.7080561 -0.6881572 0.69245625 -1.2125303 0.3448461 -0.8816687 -0.9052937 -0.38574883 0.616915 0.032735188 0.30922955 -0.77243453 -1.153577 -1.1510842 -0.9544782 -0.06636817 -0.73987955 0.5118793 0.06570026 0.07595535 0.6183338 -0.19614701 -1.0134133 -0.31785184 0.003920789 -0.9116665 -0.21724398 0.037835322 0.536296 0.616419 0.23832557 -0.05509027 -0.58368295 0.9927191 -0.0015795889 -1.1596545 -0.650325 0.53600585 -0.33897048 -0.22436416
2774 -0.47573656 1.0150663 0.98986614 0.337803 -0.18629195 -1.3081642 -0.0011567964 0.5767532 0.016565844 -0.7463295 -0.27275544 -0.5774465 0.83155143 -0.4895841 0.35315406 -0.118479334 -1.0759032 0.10090463 -0.11255765 -1.3423123 -1.0174352 -0.9047179 -1.4403666 -0.05679402 -0.91932285 0.0054007126 -1.0597099 -0.93569094 1.2002327 -0.64010894 -0.09009412 -0.72545534 -0.23504244 -0.31557143 0.7589536 -0.6550795 -0.09863688 0.78973764 -0.1181362 -0.256917 1.0218164 0.31440148 -0.11986191 0.39901555 -0.11157093 -0.5988673 0.020698234 1.0075964 0.065651655 1.0209038
3549 0.097949095 0.092048556 0.10568509 0.65971816 0.16239662 -0.37063667 -0.008428904 0.40628546 1.3678098 0.090995595 -0.28847504 -0.9539871 -0.054333586 -0.6511928 0.949172 -0.75871205 -1.0615348 -0.1888171 -0.7126275 -0.14818446 -0.30386126 -0.25390235 -1.009766 -0.30024317 -0.40592316 -0.69815123 0.05163025 -0.6452756 0.36482564 0.18986161 1.5000689 0.6059455 -0.869739 -0.32945606 0.9565733 0.31573308 1.351148 -0.044974107 0.18023424 -0.6041507 1.333164 -0.2279073 -0.7432519 0.8503979 0.10987662 0.5373418 0.38831118 0.49042836 -0.13718855 0.021377217
5472 -1.1171186 -0.13442682 0.28677872 0.7458366 -0.47360083 0.19918728 -0.6329958 0.3630415 0.16259512 -0.4156636 -0.4222912 0.07109058 -1.0127498 0.33544618 -0.19541864 0.5146984 -1.1247693 -0.8444816 -0.26918623 -0.33598173 0.6709693 -0.8168985 -0.2300028 -0.7361042 -0.6820672 -0.046541654 0.060393628 -0.09780272 0.5690253 -0.43369353 0.39463016 -0.14443618 -0.5331796 0.73316765 1.3170645 -0.5093455 0.49093837 -0.014287024 0.002924882 -0.49571654 1.2575784 0.15627383 -0.34530285 0.58772063 -0.07227435 -0.46314484 -1.1508588 0.18915188 -0.26979595 0.6877257
3858 -0.22779979 0.42927358 0.18871664 0.2916411 -0.7332495 -0.6791362 0.18528824 0.27531096 1.0706407 -0.70063096 -1.2178911 -0.8462132 -0.41320428 -0.636823 0.86876446 -0.732133 -0.55381274 -0.011893128 0.31934822 -1.1504886 0.37577394 -1.7506795 -0.7422477 0.29419756 -0.49662164 0.46992686 -0.36916736 -0.11225484 -0.3894974 0.7306595 0.60278153 0.31801143 -0.4362369 0.30648556 0.7973988 0.04654342 0.60325444 0.24302407 0.026076151 0.25221717 0.3667247 0.640187 -0.07844467 -0.8045092 0.6563071 -0.07601885 0.16531712 0.16220453 -0.33619875 -0.41177362
3459 -1.169796 -0.18207864 0.62997526 1.1197289 -0.68585896 -0.56761587 -0.24366072 1.2862874 1.3147582 -0.7432341 -0.3607042 -0.7546707 -0.86947876 -0.58839786 0.7360885 0.2544397 0.096315816 0.27251893 -0.0690775 0.21111853 0.15507935 -1.1523284 -0.38535434 -0.5666086 -0.48609325 -0.80487055 -1.4625366 0.5705649 -0.14800613 -0.12231041 0.9967866 0.36471346 -0.37989962 -0.4377763 0.5308387 -0.4736952 0.6765348 0.37120184 0.617723 0.21266297 0.25848627 0.39244944 -0.73293597 0.60140085 -0.3315896 0.3475782 0.2327774 0.28685212 -0.23503 0.79099345
4235 0.0003204541 -0.06587129 0.66972184 0.5746619 -0.5203874 -0.623431 -0.5315586 0.27973905 0.75352365 -0.26203656 0.049750626 -0.8785193 0.26395157 0.7988215 0.9670495 -0.67728424 -0.6761447 -0.66078013 -0.39069176 0.10458625 0.80460984 -1.3430493 -1.0146112 -0.8563856 -0.43241498 -0.2223123 0.44141772 0.39275125 0.22188887 0.3034901 0.50227475 -0.82504743 -0.28978574 0.46176714 0.311698 -1.7130537 1.1473086 1.1700472 -0.9339027 0.8692724 0.739472 -0.7264702 0.20103376 0.5076531 -1.1227815 0.009076051 0.012156939 -1.1425052 -0.71920586 0.4487837
1222 -1.4355304 -0.31509483 0.3133156 1.0999155 -0.88943976 0.06765928 -0.819257 0.7770208 0.3328811 -0.7787832 -0.5847645 0.32370442 -0.97032493 0.06803211 -0.01924463 0.6430963 -1.4197562 -0.9910409 0.124403015 -0.8692767 0.9690599 -0.040281925 -0.72655964 -0.737927 -0.8566302 0.15886225 0.064870864 0.21152319 0.57664675 -0.087332346 0.382848 -0.51323795 -0.65596396 0.23615459 1.1709164 -0.37766626 0.5590095 -0.34728295 -0.26597723 -0.5695396 1.2893623 -0.65970933 -0.66345215 1.0253977 -0.2650846 -0.537344 -1.2026173 0.17497577 -0.18350615 0.76723176
2486 -1.5611432 -0.058181718 -0.583234 1.5465922 -0.64481807 -0.94913775 -0.82706064 0.6499682 0.666249 -0.1471631 -0.54858804 -0.57945335 -0.6461649 0.41619977 0.10534536 -0.26332608 -1.5301118 -0.9696496 -0.011191625 -0.11865889 0.9514264 -1.5966339 0.5468005 -0.31075326 -0.22115403 0.31143278 -0.107089825 0.21075875 0.38361576 0.0033056324 0.13683078 -0.38763028 -0.5310672 -0.40945122 0.116760015 -0.5986135 -0.52338463 -0.21060525 -0.85861737 -0.98712015 0.6685951 0.3358459 -0.49236616 0.025625966 0.0886392 -0.16344255 -1.4192784 -1.2653728 0.0010496834 0.335265
3591 -0.8949551 0.16195215 0.101009436 0.13570681 -0.61080515 -0.5416823 -0.45011234 0.114713 0.13193077 0.43897152 0.18648617 -0.60327154 -0.09176986 0.26131752 0.89289266 0.42938054 -1.0151969 -0.6568681 -0.84614843 -0.29419658 -0.030878754 -0.4743853 -0.58423114 -0.4115103 0.2956946 0.25165147 0.116852365 0.012321661 0.23212142 0.29408267 0.82234967 -0.14280458 -0.5522567 -0.16909486 0.24630803 -0.31896162 0.36332604 0.4674597 -0.05064716 -0.37792802 -0.043035198 0.091104195 0.07409843 -0.2062012 0.46938455 0.25365952 -0.53462696 0.5021318 -1.0237064 -0.03339983
4953 -0.63516796 -0.06522579 0.76009655 0.6401122 -0.22349274 -1.1083 0.053997032 0.8824949 0.7212412 0.04860762 -0.5851643 0.59416175 0.654737 -0.18293802 0.40892735 -0.22076039 -0.90249056 -0.27898124 -0.2753904 -0.62828743 -0.66967744 -0.9446687 -0.96801454 -0.26487827 -1.254738 -0.36900315 0.41323632 1.2390165 0.8933304 0.20353886 0.18978928 0.65156764 -0.2078465 0.6051447 0.34518176 -0.32915112 0.06163658 0.30915213 0.18523304 -0.25700292 -0.17287315 -0.5683987 -0.6605716 0.80333877 0.5067804 0.46432015 -0.83645535 -0.58651376 -0.3356434 -0.42783213
5360 -0.6850993 -0.3367896 -0.54126894 0.09951036 -0.5463791 -0.9246043 0.119052574 1.1344256 0.7798824 -0.25869036 -0.90192765 -0.7859808 0.66020703 -0.5496184 -0.5171657 0.6605368 -0.9676173 -0.20768642 -0.13039951 -0.06897754 -0.51998603 -1.358119 -0.76218045 -1.2140263 0.8907371 -0.35929304 -0.33943853 0.22211075 0.7905436 0.87991625 -0.44782415 0.233949 -0.49365202 -0.3887348 -0.5212684 -0.43495673 1.4721521 0.32940555 0.26925096 -0.28305748 1.0335821 0.20391905 -0.44853622 0.555455 -0.9442563 0.42104375 -0.48577282 0.3129451 -0.72999275 0.037191022
1969 0.0017736604 0.7025735 -0.05903971 1.329734 -0.6559434 -0.65108544 -0.33283222 0.039021417 0.6723662 -0.5268586 -1.2686439 0.5160116 0.6623317 -0.16009766 0.16364413 -0.5539591 -0.72012216 -0.22684738 -0.6861463 0.08819064 0.36580944 -0.6866611 -0.786521 0.23786667 -1.1452417 0.23929673 0.11676375 -0.14983042 0.22538354 0.88651615 -0.30811515 -0.23907484 -0.44966748 -0.6137139 1.3168955 -0.9831644 -0.3304301 0.76385546 0.52696204 -0.38631824 1.1958061 0.6634772 -0.69625854 0.22613947 -1.2861962 0.33384913 -0.92465186 -0.59357655 0.13931333 -0.20009305
3435 -0.062100157 0.53399366 -0.29858112 0.73422074 -0.81679267 -0.37203255 -0.8347722 0.32999933 1.3022473 0.09932486 -0.65439826 -0.30278778 0.22964197 -0.826832 0.5668247 0.27731803 0.12621824 -0.13081211 -0.1424342 -1.4729564 1.038942 -1.217362 -0.473823 -1.0972414 -0.27627602 0.7532835 -0.46824872 -0.3904435 0.36136425 -0.8988306 -0.13161674 -0.116956376 -0.673319 -0.3043494 0.08274484 0.004882571 -0.1877045 1.0285705 -0.116124436 -1.0029478 0.81813043 0.7189949 0.1933968 0.16539739 0.003003137 0.03617289 0.06434748 -0.6096282 -0.95912015 0.5329195
426 0.2560734 0.18713969 -0.3182694 0.26761574 0.38709715 -0.8247653 -0.7282595 0.6693734 1.0450369 -0.4780632 -0.57907623 -0.4559153 0.54293746 -0.61846775 0.65605927 0.42466292 -0.071047194 -0.49504608 -0.44110835 -1.8553493 0.79695183 -1.0648079 -0.6681579 -1.5201595 -0.68907785 1.0766687 -0.5024129 0.13412066 0.08048826 -0.4179894 0.10826077 -0.14298804 -0.940132 -0.13124543 -0.27843997 0.07576291 0.1108264 0.42468178 -0.5835311 -0.61456835 0.3556139 0.45094818 0.13378637 -0.56267875 -0.70052224 0.30501306 -0.17994419 -0.69954437 -1.1866587 0.7430322
1781 -0.578104 0.012162026 -0.34301615 0.51383704 0.24651161 -1.7761974 -0.38925463 -0.16794267 1.6182718 0.14910814 0.415199 -0.5414096 0.35059708 -0.18105797 0.22218625 0.117295265 -0.5676587 -0.069144435 -0.024136132 -0.41588885 0.64328307 -1.0623755 -1.1177396 -0.28793585 -0.92713255 0.41960356 -0.28031301 0.88739556 0.86290693 0.16424282 0.568676 -0.2734211 -0.7879899 0.2583478 0.0064111887 0.50210875 0.724969 -0.0977793 0.9112442 0.16171846 0.23888321 -0.01511235 -0.8973754 1.2724745 -0.13747238 0.3853038 -0.9749549 -0.45223913 -0.45992333 0.33642474
5161 -0.0075026355 0.055217735 -0.14132972 0.6002891 0.09922379 0.14725693 -0.43947327 0.33352584 0.18780594 -0.44960502 0.28050813 -0.4802128 0.09480133 0.11827351 0.8081501 -1.4567381 -0.31442317 -0.4120754 -0.7074612 -0.11238097 -0.061667968 -0.6773364 -0.14886329 -0.5346327 -0.33120418 0.3749279 0.23311472 0.20975822 -0.10974317 0.29650667 0.28132445 0.08574698 -0.8650081 0.034888517 0.7106562 -1.3004346 0.5745164 0.75517005 -0.5427227 0.89032644 0.07563162 -0.5384708 -0.39472935 0.32597536 -0.622279 -0.54924023 0.27275473 -0.550594 -0.827791 0.5892698
770 -0.37035632 -0.5041699 0.2368252 1.0050124 -1.0871099 -1.1680737 -1.0572776 0.6179137 0.8385934 -1.1405815 -0.16694432 -0.8309995 -0.17987712 -0.713097 0.39576054 -0.84709626 -1.0663493 -0.31850627 -0.22806768 0.38857704 -0.8206234 -0.92594707 -1.2768561 -0.25909737 -0.2174236 0.697277 0.012381201 0.18222122 0.7028226 1.3102987 -0.06683415 -0.1381241 0.050728586 0.20261966 0.25972962 -0.4723289 -0.7210764 -0.1529326 0.614337 0.5479282 0.8147667 -0.5378585 0.32214853 -0.087626226 0.062190577 -0.15129471 -1.3199997 0.35921022 -0.16556486 -0.22513631
213 -0.88043094 0.07148235 0.14033517 0.0063906675 -0.75224584 -0.38224757 -0.3599354 0.09927184 0.42606917 0.37588045 0.08127331 -0.315419 0.12869138 0.23078074 0.870245 0.448916 -0.8667546 -0.4234861 -0.90825856 -0.2736931 -0.11386506 -0.564189 -0.74195355 -0.5069872 0.29125592 0.28780773 0.34395528 -0.04020051 0.15821703 0.3713077 0.8417004 -0.11522327 -0.578502 -0.011126973 0.18847656 -0.31163362 0.24567102 0.4463976 0.25114262 -0.5017971 -0.15622424 0.017622447 0.20268027 -0.3398157 0.19193444 0.14238165 -0.4182702 0.5615201 -1.1416701 -0.059076075
2880 -0.22963543 0.5302539 0.10561434 0.4063511 -0.6658968 -0.7451232 0.3351127 0.31724334 1.139058 -0.5136843 -1.332934 -0.88816774 -0.50321543 -0.6215749 0.9975227 -0.71272564 -0.7347613 0.053905323 0.06319114 -0.91088825 0.21479043 -1.8071276 -0.70411867 0.0085747065 -0.4882564 0.3827025 -0.21906546 -0.38638037 -0.2809723 0.81776845 0.46488416 0.029010309 -0.38203275 0.18426989 0.4850768 0.30559954 0.5682841 0.11433375 0.15197149 0.15898195 0.50477713 0.4700212 -0.23280762 -0.810558 0.79194033 -0.24625206 0.33085775 0.13540602 -0.4406103 -0.39382347
1348 -0.28107587 0.10223194 0.09210135 0.83797044 0.12143604 -0.71705836 0.3791196 0.6940403 0.58394563 -0.61493087 -1.3629171 -0.7369967 0.8667054 -1.080076 -0.21841687 -0.048892174 -1.042203 -0.71302074 -0.18273926 -0.8757662 0.26598933 -1.3356224 -1.5158194 -0.3293179 -0.31463 -0.4514398 -0.37297976 -0.10947479 1.5698926 -0.5411211 0.09405223 -0.1381053 0.15986313 0.07843572 0.51607066 0.8664424 0.63583696 0.24655348 0.6250878 1.5063306 0.18154407 -0.96227723 -0.23322591 0.0680192 -1.1815655 0.03280909 -0.3618843 -0.4816388 -0.12506123 0.19620083
3219 -0.83849126 0.015578934 0.2066028 0.11920581 -0.81776553 -0.5918145 -0.4054751 0.10513484 0.2505477 0.6251908 0.20258519 -0.4319533 -0.06254102 0.23448022 0.89534926 0.448452 -0.9654864 -0.52513325 -0.8081303 -0.35985643 -0.12752399 -0.40218672 -0.67902946 -0.46842134 0.36273837 0.26659563 0.23703884 -0.016642733 0.31400916 0.4110752 0.6839753 -0.2394632 -0.5505787 -0.11867245 0.039246164 -0.403132 0.36043558 0.42339227 0.09790815 -0.19796576 -0.05707642 -0.084671 0.07835268 -0.17124546 0.22644033 0.2263235 -0.3390517 0.52917355 -1.2100335 -0.08457797
3251 -1.6523802 -0.22044125 0.6962577 1.2679049 -0.6290463 -1.3548982 -0.7085084 0.9190686 0.6501883 0.07911033 -0.9434765 -0.6251177 0.21766075 -0.79409605 0.86765593 0.20383558 0.52250206 -0.43909398 -0.7165964 -0.52440625 -0.53605586 -0.29060435 -0.13797723 -0.82517266 0.37497965 0.23155262 0.86575395 -1.3866979 0.8902473 0.941441 -0.25276315 0.17875709 0.17215885 0.84358424 0.54700536 -0.35319966 0.47312242 1.0478945 0.7528217 -0.044298533 1.0409082 -0.57493377 -0.741839 0.59498525 -0.31878337 -0.43123427 -0.27867448 -0.16550277 -0.36687467 0.109933935
773 -0.78582954 0.7844335 -0.08263034 0.61968434 0.55980486 -0.30404055 -0.4989937 0.7457992 0.4638419 0.59061646 -0.95578796 -0.2408737 0.26170343 -0.12150343 0.29095635 -0.63863426 -0.7891296 -0.9127566 -1.0157042 -1.2906635 0.40734524 -0.528127 -0.43720388 -1.3298234 0.33490282 0.7286504 -0.21521148 -0.41449714 1.0328913 0.13594605 0.86944926 -0.15895866 -0.71737677 -0.73595816 0.39061686 -0.7912014 0.5037975 0.11087468 0.88850296 0.44456148 0.3130477 -0.557745 0.29055336 0.0135829 -1.9118387 -0.2213705 0.34308654 -0.26351592 -0.68878275 -0.8318069
