7262 50
6136 0.72642624 -0.9360851 -0.080883995 0.8916806 -0.88318586 0.21597056 0.4590886 0.8242677 0.70561296 -0.7771152 -0.42811614 0.8872595 -1.5526471 -0.65381753 -0.055177733 0.60029864 0.36152357 -0.11237327 -0.42988145 -0.14636338 0.2976275 0.3105259 -0.31802753 0.40126923 -1.3878999 0.27743798 -0.3771279 -0.7023384 0.16260052 0.6081142 0.64962137 0.35005784 -0.39698863 -0.9612855 0.19543546 0.14605117 -0.30973375 -0.29538855 0.09589244 -0.8175091 0.19373098 -0.6235143 -0.5657615 -0.94139695 0.7360292 0.55215657 0.05479706 0.43426532 -0.24978055 -0.7369437
2768 0.4498917 -1.1891975 -0.27187452 -0.21901976 -0.1334057 -1.1654449 -0.3583629 0.11884598 0.523507 -0.9006909 -0.8598396 0.99553835 -0.104319096 0.011442912 -0.91949517 -0.65553474 0.98589116 -0.4157828 0.555514 -0.25052226 0.68555105 -0.26575065 -0.8745178 -0.1442293 -0.9604865 0.30489856 0.46733555 -0.62181115 0.04978559 -0.46537367 0.16976005 1.0250605 -0.4735772 -0.4931146 -1.195942 -1.1109961 0.47785708 -0.09338992 0.15614265 -0.49322492 -0.18230496 -1.0432373 -0.2923509 -1.2819403 0.18512557 -0.48847172 -1.0175605 -0.32386112 -1.01496 -0.34472916
4755 0.032149803 -0.38923797 -0.13429081 0.6764868 0.046443645 -0.6157937 1.0453175 0.42835173 0.52775013 -1.1788197 0.28836638 0.7962597 0.22737347 0.16267501 -0.69045854 0.5968203 -0.110929176 -0.37465748 -1.1692932 0.13992873 0.3278176 -1.0796665 0.7517725 -0.4832193 -1.1027336 0.83788097 -0.12132766 -1.2439672 0.20276628 -0.08657903 -0.8698576 -0.3158548 -0.70979404 -0.6191146 -0.028130876 0.37174007 -1.0334417 0.07859313 0.4667079 -1.0553122 -0.63412124 -1.2040753 0.07944265 -0.85198236 0.37865463 0.23637128 -0.049623746 0.3676872 -0.25872627 0.47140715
3211 1.1985936 0.214548 -0.72701716 -0.08257354 0.56453526 0.034794893 -0.6504959 0.04529901 1.2167736 -0.83717805 -0.720208 0.33335227 -0.27711332 -0.29020026 -0.4972505 -0.44516897 1.3074763 0.6491053 0.7785209 0.69525725 0.7913369 -0.35975075 -0.7534124 -1.3731152 -0.64678025 0.6383814 0.16024303 -0.7791638 -0.20718148 -0.2019308 0.17257242 0.5837623 -0.7630242 -0.7053857 -0.6551587 -0.459556 0.31309855 0.5642396 -0.7196437 -0.5648536 0.48648283 -0.6153698 0.2858426 -0.24912038 0.64421207 0.3375265 0.4985429 0.017261978 -0.45785013 -0.51454496
6471 0.70689124 0.22166575 -0.40441978 -0.41218394 -0.103689075 -0.56640315 -0.04135967 1.0254017 2.2119486 -0.6054502 -0.1984702 1.6374936 -0.49206078 -0.34279066 0.04122938 0.20294823 -0.03307161 -0.51642287 -0.655537 0.6960604 1.2934439 0.12112369 -0.6352811 0.10756571 -0.3193716 -0.6800165 0.48881763 -0.790598 0.44597757 -0.3355512 -0.36790687 -0.42645675 -0.7843471 -1.3228956 -0.7552043 0.14316714 -1.3750194 0.332645 0.0032649764 -0.6497958 0.089211404 -0.5230193 0.3217787 0.5182411 0.15028472 -0.09364277 0.15097964 0.45562756 -0.5055542 -0.32240278
6192 0.6360581 -1.104527 -0.1584767 0.8284808 0.09470295 -0.20533822 0.96023816 0.11341237 0.4023634 -0.22689396 -0.21330315 0.9979282 0.84550196 0.2103485 -0.22756702 -0.23644596 1.0457438 0.34029958 -0.13381676 0.58151066 0.42864677 -0.6782363 -0.09910369 -0.89860284 -1.0781847 0.24167834 -0.33633342 -0.081402056 0.66709757 -0.034150627 -0.5244578 0.35294142 -1.4069138 -0.9685687 -0.29652193 -0.50056446 -1.186536 0.9693307 -0.41122064 -0.15946926 0.013515424 -0.97370183 -0.59796345 -0.021248234 0.12679067 0.26470885 0.055496857 -0.4066042 -0.87106305 -0.37512293
4608 0.9187923 0.7525643 -0.6122326 -0.4762013 0.22718771 0.16018689 1.0689515 0.49554044 1.0668628 -1.4116342 -0.22687246 0.36605552 0.59981364 -0.04751519 0.44345206 0.25578618 0.9588656 0.016285198 -0.27439946 0.058742937 1.1891834 -0.601998 0.43854642 -1.0106207 -1.1743667 0.18409441 -0.9276933 -0.9238017 -0.22488318 0.39844367 0.027929002 0.5073509 -0.5022663 0.19712636 -0.31756377 0.37367758 -0.35604843 0.42907742 -0.013950952 0.15746522 -0.2328272 -0.38381895 -0.25406623 -0.031990085 0.35690522 0.9286736 -0.01874853 -0.5435284 0.8862481 -0.14236183
2284 0.14678913 0.12963578 -0.23684262 0.51590645 -0.26139212 -0.55672854 0.038347565 0.9492503 0.3873362 -1.6791534 -0.8675314 0.8947302 -1.0841086 0.6360386 0.2215098 -0.42987218 1.0626868 0.4063622 0.5528831 0.26920915 0.68700254 0.55204904 -0.35977513 -0.55915785 -0.51303715 0.07920777 -0.66079044 -1.2982529 -0.70362145 -0.84612507 -0.22686714 0.80854726 -0.47781417 0.2100141 -0.08073308 -0.19460015 -0.7646216 0.17347035 0.47076797 -1.147403 -0.37432766 -0.61976063 -0.5678055 -0.7209535 0.22831173 0.83180714 0.51175284 -1.070121 -0.35294345 -0.813391
1061 0.37533572 -0.42832583 -1.2016963 0.45560926 0.1731082 -0.5332171 0.44354793 -0.52019674 0.08417998 -1.4779108 0.19991417 1.5645498 -0.36363545 -0.117053516 -0.845333 1.7444278 0.026515797 -0.075464316 -0.83515507 0.1675889 0.54236686 -0.2054329 0.17838591 -0.5359175 -0.86896664 0.31459457 -0.19844906 -1.0378519 -0.4871822 -0.051288996 -0.45503503 0.5784605 -1.085279 0.29215187 -0.2967379 -0.27126855 -1.3303038 0.49096605 -0.35422692 -0.47488236 -0.37568456 -0.5675088 -0.5083633 -0.63729364 0.2493386 0.648542 0.33993584 0.26641265 -0.43511188 0.395566
5747 -0.32134154 -0.34154207 -0.4368984 -0.022291943 -1.0577193 0.6429794 0.07463315 -0.0082439715 0.032035515 -1.4657854 -0.13502891 0.64469945 -1.4531428 0.23639531 -1.3704299 0.042193796 0.70173883 -0.6619166 0.32287005 0.02363785 1.4590623 -1.1198962 -0.25998047 0.29401618 -0.34425437 0.34083238 0.33138642 -0.5650214 0.53288025 0.14557542 -0.66649634 -0.40298465 -0.7910005 -0.17065106 0.21045758 -0.45428008 -0.83786124 -0.38157243 0.6772845 0.21900496 -0.39163154 -1.2482351 0.3937108 -1.1192822 0.9930226 -0.19969325 -0.29100803 -0.038168576 0.053317282 -0.37757945
5386 0.4177192 0.5684829 -0.29781607 -0.035187773 -0.48749858 -0.7204059 0.4695553 0.67011005 0.18212262 -1.2320678 -0.45832533 0.7402433 0.34419212 0.9485473 -0.8657783 -0.44155806 0.82842356 -1.3849896 0.021300677 0.15217812 1.1828327 -0.060006857 -0.5186441 0.6052273 -1.6664838 0.6910051 0.8966172 -0.9773854 -0.05509927 -0.31388915 -0.1497529 -0.2371716 0.2935604 -1.1997987 -1.0193168 0.5035839 -1.068923 0.562625 -0.6326811 -1.0159028 0.23178583 -1.093451 0.8264182 0.0748697 0.22116978 -0.18647297 0.21506213 -0.1620663 0.29930854 -0.2184368
4968 0.9198484 -0.7452771 0.27583054 -0.18180911 0.0710335 -1.0352011 0.13230884 1.5135349 1.4062953 -0.6140239 -0.35049284 0.2461737 -0.18660286 -0.79421693 -0.36701632 0.043677624 0.74814063 0.16425252 0.035612714 0.03990879 -0.12326423 -0.9633139 0.013137576 -0.5565755 0.23476703 0.95301366 1.2507794 -0.9949807 -0.20005752 1.0665294 0.028016249 0.40810794 -0.35300347 0.21526541 0.20481108 -0.41514 -0.9002556 0.04788915 0.030784257 -0.99264866 0.10772155 -0.26391405 0.1019089 -0.77236646 0.36664358 0.56052655 0.033471495 -0.7053398 -0.97845465 -0.7825103
3982 -0.31419665 -0.055508442 0.5616955 -0.36227065 -0.190765 -0.20583786 0.7011496 -0.33906895 0.8146341 -0.33375135 0.11547052 1.388999 -0.981296 0.26745474 -0.34312424 -0.06751239 1.2212276 0.20904005 0.63678354 0.1486411 0.5468924 -0.69212496 0.6067531 -0.2766415 -0.6785273 -0.32056352 0.30297923 -1.5241017 -0.5193065 0.4383449 -0.13070706 -0.0853837 -0.26747805 -0.54513216 -1.3057553 -0.3659384 -1.7200366 -0.8196197 -0.58401865 -0.5862476 0.6666916 -0.46577883 -0.22447115 -0.019667588 -0.48129305 0.88241756 0.2566273 0.29249117 -0.41364995 -0.09529135
5993 0.2375493 0.24758181 -0.37082958 -0.6316195 0.14805064 -0.7746971 -0.02469465 0.13678761 0.39409512 -0.6325933 -0.57493335 1.0071602 0.45306194 -0.9129667 -0.7766755 1.1302966 1.8497157 -0.5137274 0.058861714 -0.9961589 1.0606488 -0.051630437 0.4884713 0.21433683 -0.7662812 -0.8067871 0.8510574 -0.17650566 -0.1932625 0.36710143 -0.2598925 -0.0737583 -0.639211 0.09587175 -0.29145503 -0.41992283 -1.1246024 -0.25475037 0.11722604 -0.32172382 0.25295356 -1.3745049 -0.49021935 -1.1905252 -0.5599523 0.108492546 -0.6417595 0.5913806 -0.43652025 -0.24284363
6897 0.91933405 0.10056108 -0.07751425 -0.38546482 -0.28350607 -0.03387695 0.9443359 0.87480325 2.0546172 -1.9674221 -0.15478487 0.92527187 -0.09621319 -0.6093827 -0.73625016 -0.1875983 0.93246245 -0.37215072 -0.7366733 0.386511 0.62990296 -0.20887114 0.21369533 -0.5003694 1.2564608 1.2169431 -0.4550851 -1.7955716 -0.5078798 -0.005950966 -0.22568375 0.10594415 0.39246416 -0.5672725 0.34800133 -0.5895625 0.03178422 -0.124988265 -0.11016524 -0.7740023 -0.31028783 -0.100837596 -0.041430242 -0.22755553 0.5821584 0.58995634 0.40713665 -0.23122562 -0.13988379 -0.6380098
3758 0.8101657 0.026783135 0.5243052 -0.36401534 -0.16585456 0.077855326 -0.43684316 1.1951673 1.5197271 -0.8684665 -0.21224405 -0.17188913 -1.0219853 -0.35950196 -0.26394734 0.42711458 0.83475673 -0.7914535 0.8033715 0.5889765 1.1969994 0.18876459 1.1555794 -0.86343896 0.05322321 1.1457816 -0.34647116 -0.52576315 -0.12245371 0.74313796 -0.5355514 0.81406593 0.07488066 -0.37712762 -1.0385637 -0.5996848 -0.38006353 -0.3426777 -0.682044 -1.2811416 0.30160126 -0.2671755 0.048307914 -0.5964882 -0.49158284 0.59603745 0.21231484 -0.83397007 -1.2690264 -0.26147863
2800 1.156371 -0.15434113 0.12675786 0.71873933 0.085457645 -0.3367549 0.39366668 0.50718343 1.0586408 -0.22366951 0.21429767 0.15558805 -0.14201608 -0.48487598 0.77321756 -0.32510683 0.5905413 -0.6526263 -0.73256993 0.6996165 1.6850743 -0.793558 -0.10733221 -1.1492312 -1.0522647 0.5934511 -0.004401282 -0.11572806 0.30415565 0.09333306 0.18022117 0.20294295 -0.3664088 -0.12495372 -1.1173899 0.2354202 0.01449416 0.089613095 0.07621979 -0.6652186 0.43126178 -1.0102606 0.6455021 -0.037108775 -0.02850099 1.4508486 -1.2298404 -1.0527992 -0.3394509 -1.0486314
3162 0.6299538 -0.14625672 -0.6269555 -1.2578937 0.22117648 -0.76391757 0.19805688 1.1956077 0.5285427 -1.5354838 0.13177094 -0.41385487 -0.21571293 0.082819544 -0.5802976 1.1317711 0.034712292 -0.53641015 -0.24375452 1.3323561 0.9373506 -0.64015037 -0.14191926 -1.1486368 -0.2960133 0.49057558 -0.053267036 -1.5701458 -0.05747981 1.0838286 -0.0012820591 0.46568316 -0.09519202 -0.46522772 -0.020930892 -0.86126375 -0.733051 0.051992614 0.038395416 -0.4398427 0.6771316 -0.4973766 -0.33979803 0.005339397 0.7722089 -0.36110088 -0.20808615 -1.4438634 -0.8895148 -0.40856037
2377 0.36774796 -0.36404908 -0.44975814 0.68160355 -0.64116883 -0.57133657 0.24660982 -0.099865265 0.0682261 -1.7599298 0.27798688 0.8556057 -1.4245304 0.9358044 -0.021021763 0.29984525 1.349779 -0.26015446 -0.0041694017 -0.3759736 1.0251228 1.2342219 0.34594366 0.037067346 -1.2085574 -0.52605575 -0.3814001 -0.8435496 -0.25633645 0.6562537 0.2627914 0.043715816 0.05920786 -0.14589274 -0.024570424 0.04019232 -0.44430408 0.27917472 0.07789148 -0.42563155 -0.78944486 -1.0805808 -0.20325485 -0.37294364 -0.44454446 0.29066068 -0.51235354 0.37125188 -0.03509095 -0.05953564
5726 1.1358773 0.53460914 0.21467613 -0.07144683 -0.49826854 -0.1831739 1.1353695 0.617993 1.0352315 -0.62897545 -0.33331892 0.6862969 -0.32725102 -0.16969328 0.4956894 0.5472988 0.5084818 0.08970194 -0.6255022 -0.012326247 0.8732887 -0.8396002 -0.41650903 -0.4550425 -1.0263034 0.001157415 -1.3264663 -0.95763105 0.18231204 -0.36561775 0.43655908 0.033154555 0.27978098 -0.15212022 -0.4810082 -0.39846185 -0.4988884 0.8608316 0.28067514 -0.7095559 0.4267693 -1.0637125 0.93998224 -0.8419188 -0.26840416 0.42556128 -0.6495442 -0.34244454 -0.11713078 -0.7551722
2172 -0.06716491 0.4649503 -0.86419743 0.8439322 -0.66823167 0.037514582 0.4154923 0.37035933 1.3821198 -0.67190224 -1.1838666 -0.3995973 0.43138862 -0.37946784 -0.12100533 0.8530102 0.79886246 -0.34619996 -0.07866872 -0.08652122 1.1467195 -0.49610382 -0.59609044 -0.6620252 0.29253224 0.01576248 0.5201063 -1.8950856 0.31466395 0.24159655 -0.18313386 0.34358236 0.010537437 -0.6644614 -0.31391567 0.0968366 -1.3926891 0.24403645 0.026069863 -0.054757126 0.27135944 -0.94284284 -0.38497108 -1.1420519 -0.17785658 -0.1927167 -1.580249 0.51997894 -0.6580777 -0.25825506
1905 0.5299909 -0.42744672 -0.30872074 -1.3681258 -0.36026633 -0.40527567 -0.47123605 1.2193543 0.16533433 -0.604969 -0.65132445 0.66856945 -0.006507183 -0.2368957 -0.7658679 0.36874458 0.21527654 -0.23606347 0.18350387 0.5306429 0.67203695 -0.16957515 -0.036819983 -0.38794833 -0.5196144 0.30032054 -0.4370372 -1.5635397 -0.9530183 1.3336445 0.6748776 0.5840119 -0.22611812 -0.13559003 0.22889964 -0.51194316 -0.6352208 -0.7971303 0.26450664 -0.21968426 0.263268 -0.7088993 -0.5157731 -0.50369704 0.74444205 1.0782912 0.84229743 -1.0385576 -1.0885315 -0.45949072
1058 0.2666872 -0.6272412 0.030723913 0.5968267 -1.4223555 -1.0022372 0.51561517 0.14384164 1.5259111 -0.6670947 -0.32800633 0.19353159 0.30974814 -1.0689626 -0.65085137 0.30435678 1.3751471 -0.14336844 -0.35294825 0.058472667 1.4336592 0.36035535 0.39037824 -0.26428118 -0.38468656 0.19041736 0.72461325 -0.765764 0.4778875 -0.29147366 0.034498166 0.79006624 -1.2252262 0.05431936 -0.68882287 0.59818304 -0.47428527 0.49134713 -0.003659822 0.2873682 -0.36021197 -0.19651741 -0.038122967 -0.58324814 -0.06403572 0.96057487 -0.4895454 0.49742094 0.49572542 0.25986415
6356 0.993869 -0.8991887 -0.023375185 0.5188762 -0.44543082 1.0140108 -0.17900097 0.027961683 1.1721114 -1.3832533 -0.85743904 0.15674652 -0.16719991 -0.7448704 0.32666752 0.33052546 1.655445 0.5760086 -0.28777567 0.12708364 1.414888 0.71566796 0.45787835 -0.6599146 -0.030805169 0.25506598 -0.82312346 -0.91147363 -0.3284513 0.3494639 0.35487422 0.77758133 -0.38346258 -0.5208446 -0.68193156 0.0003815026 -1.1354793 -0.75310594 0.6447046 0.23624144 -0.28993925 -0.50363463 -0.3265088 0.35530433 0.6872855 0.22581859 0.14239305 0.045446496 -1.1013755 -1.0580982
2296 0.6562731 -0.1665286 -0.53658026 -1.1196419 0.20184691 -0.77055824 0.3075619 1.1379904 0.4375958 -1.4714388 0.18299909 -0.14776476 -0.27902085 0.0026135754 -0.55509627 1.0174277 0.036985915 -0.68988764 -0.23457384 1.2206196 0.82691944 -0.42370522 -0.13810238 -1.2529774 -0.25428033 0.45482057 -0.08623136 -1.6359984 -0.21356134 1.1779524 0.019442959 0.42817578 -0.00784157 -0.62610364 -0.019279774 -0.74846566 -0.7232504 0.007347426 -0.11224415 -0.3382278 0.59723425 -0.4151783 -0.30968535 0.20109762 0.8547048 -0.3743703 -0.15683928 -1.4771451 -0.9962308 -0.42908052
3827 0.70486164 -0.21742713 -0.56899244 -1.1174512 0.17171592 -0.83344376 0.2497076 1.1643139 0.68021894 -1.5911533 0.11477596 -0.37589216 -0.32765558 0.0074040503 -0.5348337 1.1892233 0.06588215 -0.48908842 -0.21187353 1.1331221 0.7970397 -0.5359966 -0.09600073 -1.1873261 -0.3438477 0.5159916 0.07098444 -1.4879854 -0.15032215 1.198229 0.059113763 0.3857911 0.06919827 -0.61662525 -0.019633012 -0.82496303 -0.7305001 0.095008254 -0.09088922 -0.46227047 0.64976305 -0.33076122 -0.36691976 0.15494667 0.8194751 -0.3150038 -0.22004916 -1.5305542 -1.0200255 -0.41156593
5259 0.64878315 0.47200632 -0.54818064 -0.16933082 -0.5910557 -0.84895617 -0.1792055 0.097010046 0.6237513 -1.215205 -0.24741983 0.6028191 -0.28409913 0.49961028 -0.4618682 0.63362306 1.0935401 -0.33674753 -0.590507 0.3208697 0.26823786 -0.6006433 -0.68342346 -0.8233319 -0.32074475 0.0092860805 0.91730857 -0.622827 0.40748587 0.5859367 -0.40446708 0.9976099 -0.68768346 -0.60519326 -0.5076022 0.46089587 -0.743598 0.1781407 1.314059 0.56238395 0.48509964 -0.9208742 -0.20075284 0.33700392 0.7627406 0.703804 0.83542573 0.1397466 -0.30719078 0.32579857
1729 0.61870635 -0.3406047 -0.2053706 -1.1703254 -0.29688063 -0.3281913 -0.42149413 1.123493 0.43911955 -0.4926775 -0.5873063 0.71432817 -0.1674831 -0.33080176 -0.61333555 0.02483542 0.14436142 -0.48064923 0.1377393 0.36833367 0.79149973 -0.07096264 -0.11984823 -0.56746054 -0.36466238 0.20132817 -0.43292645 -1.7588347 -0.8890344 1.3206443 0.6828573 0.8393681 -0.21517582 -0.31494364 0.14041689 -0.4978965 -0.5330671 -0.64218706 -0.17200455 -0.42060527 0.2579857 -0.60900617 -0.31875178 -0.49334562 0.83008796 1.4324762 1.006172 -1.3537538 -1.2989231 -0.62865376
3174 0.4332623 0.5905635 0.12305546 -0.25620988 -1.5716114 -1.386623 0.2951035 0.81543446 0.9246599 -1.3854414 0.18611857 -0.23464693 -0.3982974 -0.79992133 -1.1752682 1.0165404 1.2330691 0.5687212 -0.19862945 0.21964668 1.3627977 -0.8072509 -0.4939715 -0.5705643 -0.49008763 0.6351715 0.12959974 -0.79505986 -0.3808324 0.2330937 -0.7401986 -0.69559646 -0.8969324 0.3513502 0.20656587 0.36491936 -0.78234065 0.3346169 -0.8411253 -1.1552649 0.49617863 -0.16532283 0.1752074 0.19183247 -0.13301544 0.06945724 -0.20002963 0.3537898 -0.47728932 -0.31102553
6939 0.7287064 -0.43134794 0.3166137 -0.87733173 -1.0213882 -0.46214896 0.59278744 1.6371506 0.82132477 -0.5045927 -0.8932796 0.6301248 -0.28761247 -0.13745224 -0.5776148 0.2705605 0.9010911 -0.45143208 0.22155884 -0.098581865 0.16756327 -0.19234635 0.48298368 0.4871493 0.3181444 1.2706316 0.18559283 -0.9442256 -0.8800458 0.5963825 0.44337574 -0.29812837 0.08441339 -0.4080439 -0.7914115 0.17126162 0.378928 0.28790417 0.4052328 -0.81011623 0.19212593 -0.8081597 0.11857991 -1.187173 0.17842752 0.22683758 -0.03580782 -0.8239011 -0.90336025 -0.54158974
4665 0.7576367 0.7202485 1.2147235 -0.23870555 -0.5140374 0.032131273 0.661411 0.18883514 0.5695542 -0.8487409 0.09396878 0.9893456 -0.5291328 0.7284332 0.36144668 -0.45879135 1.0193573 0.6622929 0.045517914 0.6268487 1.079954 -0.5428194 0.4711466 -0.35317194 -0.70519507 0.04452214 0.37484932 -0.59404135 0.6090871 0.013461949 -0.9352436 -0.038933743 -1.3431896 -0.71556896 0.12998787 -0.7559827 0.34512666 -1.2604263 -0.41855204 -0.37442857 -0.64752334 -1.0325861 0.16832513 -0.5400609 0.38871065 0.9455223 -0.24460219 0.38642693 -0.9929126 0.028182672
7032 0.7340536 0.17984408 -1.0302384 0.043662794 -0.027860671 -1.4146417 0.9229842 1.6679567 1.368348 -0.351548 -0.4514853 0.58826005 -0.8520907 0.41089898 -0.61031014 0.2502313 0.94209605 -0.18953232 1.4303256 0.8995578 0.50381464 -0.36352566 -0.043399017 0.06725151 -1.4708647 0.5417051 1.002101 -0.26904246 0.33665192 -0.38933563 0.11131045 0.5693206 -0.1780933 -0.5808673 0.849203 1.0283581 -0.7115711 -0.01466506 -0.15076075 0.5446072 -0.7478742 -1.2207382 -0.3641137 -0.35055482 0.73125136 1.2156126 -0.956436 -0.81120265 -0.36899513 -0.16268212
1747 1.0847875 -1.6289957 0.011936142 -0.072980404 -0.6588721 -0.9658662 -0.31835768 0.6717292 -0.06948937 -0.6187355 -0.45732066 1.449129 -0.005664408 0.6116599 -1.063724 -0.2679196 0.8670277 -0.5685497 0.9866898 0.20626955 0.66938084 -0.12847486 -1.0679814 -0.65203 -0.4862242 0.0139741665 1.4708507 -0.25149214 0.2900854 0.26449162 0.42632023 0.79568446 -0.60186553 -0.75211567 -0.6360095 -0.85594 -0.08328214 -0.099599235 -0.2890038 -0.24366121 -0.2568679 -1.3601971 0.25835946 -1.0953263 -0.37805277 -0.6762071 -0.8672132 -0.7166564 -0.9594475 -0.8732855
367 1.5188189 0.50084966 -1.2711807 0.3037633 0.36118534 -0.053561956 -0.723325 0.7663026 0.5187329 -0.6985459 -0.6634776 0.472294 -0.46419796 0.24268977 -0.14415883 0.07533644 1.2321726 -0.73045385 0.07615749 0.1202476 1.0538627 -0.21104904 0.27196315 -0.18422557 -0.014138106 -0.8399138 0.7164622 -0.9932528 -0.61096513 0.21289676 -0.26276922 0.2955654 -0.17524128 0.6178476 0.012476624 -0.37135252 -0.4598422 -0.15326291 -0.05484361 -0.40154833 0.6268519 -1.1463314 -0.6673985 -0.63470405 0.024236072 0.40699977 -0.4422682 0.094381265 0.05647181 -0.61840546
3764 0.20904978 0.12232299 -0.10031364 0.45022064 -0.08872316 -0.6484309 0.259748 0.89491993 0.35933444 -1.4808843 -1.1929156 0.9497277 -0.9389169 0.71619177 0.3305734 -0.33639726 0.9761566 0.44495398 0.6003314 0.21052107 0.76287824 0.554381 -0.33761624 -0.61489046 -0.67617553 0.20163555 -0.58144975 -1.2332156 -0.5159436 -0.8248147 -0.26207557 0.82586706 -0.474862 0.19542277 -0.15760008 -0.25743407 -0.821356 0.28678536 0.5564154 -1.1458702 -0.3238287 -0.35304186 -0.6973554 -0.54465234 0.095500015 0.7528573 0.53722095 -1.1086668 -0.4215329 -0.67351496
6153 1.5744181 -0.8583322 0.032585107 -0.1422362 -0.333281 -0.06977441 0.15315768 0.38017863 0.6704481 -1.1111944 -1.4213165 0.041955866 0.061821852 0.57925594 -0.49829578 0.18981124 1.6634579 -0.30884352 0.48308533 0.6694542 1.1530513 -0.07455691 -1.4249924 -0.061600517 -0.43055207 0.46821544 0.6573503 -0.8166337 0.3623345 0.58906263 -0.21790123 -0.47611552 -0.15963472 -0.9881662 -0.26970717 -0.6914644 0.43375438 0.9259003 -0.48831096 0.90603936 -0.13103643 -1.2740153 -0.6552778 -0.23860289 -0.04876359 -0.17203394 0.32855028 -0.5163881 -0.60668623 -0.5620751
5738 1.6423527 -0.94422096 -0.82603735 -0.72005206 0.2028525 -0.5587775 0.52122736 0.2582275 0.43660647 -0.9208802 -1.2711247 1.007988 0.10473392 0.013884487 -0.09460822 -0.151287 0.95636165 0.010769457 -0.019420112 0.595181 0.5774565 -0.07614412 -0.7859231 -0.9996617 -0.413815 0.47690785 0.91477704 -0.784613 0.4991869 1.1753817 0.37796712 0.2771025 -0.8064706 -0.08865619 -0.73772883 -0.7339463 0.048176315 -0.33413076 0.23400381 0.22358498 0.0853695 -0.8780234 0.5916045 -0.1125117 -0.33607423 -0.7132533 -0.52828985 0.15931956 -0.1247046 -0.10134454
4253 0.27845412 0.47724614 0.119081005 -0.6077603 0.013184606 -0.28860766 0.36764804 0.17527448 0.7927219 -1.3400136 -0.26984027 0.22853878 -0.6351277 -0.45685896 -0.6031424 -0.48913926 0.31503403 -0.59379554 0.9324851 0.48579088 1.1538105 0.07632969 0.94710684 -0.008219313 -0.12456205 0.01771149 0.74436045 -1.664287 -0.12932248 -0.095248245 0.8072984 0.8622346 -0.4919252 -0.023466792 0.59401774 0.32802707 -0.7499809 0.3404748 0.12223829 0.044143092 0.3052213 -1.2306173 0.21354562 -0.5421858 0.696708 0.4753516 -0.7814346 0.28034484 -1.5344847 0.26701283
4678 0.058706403 -0.8077368 -0.4265051 -0.4651227 -0.44371402 0.17394884 0.10393565 0.48633492 0.8892412 -0.26807117 0.14518991 1.9376956 -0.30620927 0.053669255 -0.95550376 0.2989468 0.73385036 0.16919585 0.2489406 0.16452584 1.3662935 0.3711461 0.74829954 -0.3240939 -0.39091584 0.020787006 0.66691947 -0.34492105 0.74210685 -0.27394542 -0.71048635 1.1851767 -1.0334266 0.2810269 0.41570613 -0.04179615 -0.28282514 -0.22884557 0.008458781 -0.7027128 -0.21000357 -0.19048649 -0.58659244 -0.33614302 0.8889564 -0.056894876 -0.44407588 -0.17467995 -1.1808279 -0.6208606
1701 0.9586453 -0.7841862 -0.3494318 -0.10386665 -0.99686694 0.41470885 0.3257295 0.7166666 0.3228866 -0.45725513 -0.54220045 0.3529908 -0.638609 -0.22899432 -0.19357386 0.64286363 1.7653666 0.16661236 -0.1068075 -0.54776883 1.1846411 0.2640664 1.2010119 -1.4333266 -0.35714918 -0.08304461 0.48221242 -1.370308 0.08199048 0.38216498 -0.17414872 0.8595391 0.8230132 -0.70772636 -0.36638102 0.45127702 -0.34955174 -0.66207033 1.0534984 0.36278233 -0.4201222 -0.7378324 -0.2888734 0.8358868 0.24757028 0.47364095 -0.7952588 -0.67049587 -0.6240901 0.20067686
5742 0.6197352 0.092914216 -0.30019486 0.21804231 -0.50055295 -0.5366803 0.94080925 0.66766876 -0.073579945 -0.13468152 -0.37643138 0.88749343 -0.20075832 0.312243 0.09471389 0.12133372 1.8845937 -0.18396403 0.64915156 0.14801279 0.3161373 0.4934102 0.77203435 -0.6010168 -0.7121108 0.021860085 0.720037 -1.1150677 0.40993068 0.45548242 -0.6817954 0.17260571 0.25380304 -0.58571774 -0.041609757 -0.68168855 -0.13315955 0.0035145918 0.05103027 0.6573323 0.6669887 -0.9197709 0.573754 0.45049784 0.020716844 0.7803131 -0.36074793 0.4060653 -1.6914579 -1.2828679
9 0.8642359 0.720161 -0.6423184 -0.44533148 0.27385017 0.1713623 1.2338868 0.42204705 0.98380935 -1.292217 -0.17422935 0.40080622 0.51776594 0.06670937 0.4318953 0.1313532 1.0184093 -0.011552537 -0.19145352 0.15081178 1.2966077 -0.43030763 0.41011658 -1.0330523 -1.2489288 0.3877621 -0.91657996 -0.90319717 0.0083665 0.33091694 0.12019238 0.5340129 -0.4328182 0.15490527 -0.278482 0.41673034 -0.27882203 0.40687323 0.036400076 0.17740415 -0.09372175 -0.29284945 -0.13188706 -0.08052012 0.3571374 0.88980865 -0.11905475 -0.49082884 0.8638777 -0.061856948
2187 1.0005777 -0.19552644 -0.010269988 -0.90052944 0.19028501 -0.13079356 -0.09781707 0.7983023 0.9139369 -1.0144459 -0.7281911 1.1916013 -0.5435264 1.0158751 -0.70492244 -0.26369813 0.31055218 0.779242 -0.34624234 1.0358883 1.1433389 -0.9899926 -1.4040166 -0.50118333 -0.89332557 -0.20315914 0.5232826 -0.600576 -0.251419 0.35630083 0.29827484 0.3943708 -0.7409085 -0.21930557 -0.1545037 -1.4237893 -0.31043935 0.5006701 -1.1050687 -0.58875406 -0.6040881 -1.0563838 0.022683065 -0.14288358 0.19536152 -0.41020018 -0.6609374 -0.35178843 -0.66798896 0.63333684
277 0.09132889 -0.44721538 -0.287959 1.1419917 -0.4116031 0.384379 -0.09105773 0.19748718 0.43505776 -1.6212275 0.28763297 1.1683298 -0.8238919 0.32928985 -0.31667405 -0.014116219 1.2972562 -1.2542413 0.35399753 -0.8016409 1.145706 1.0067527 0.04928321 -0.80348456 -0.94494593 0.1659851 -0.46984956 -0.6224076 0.45083025 0.45679504 0.43948463 0.24697085 -0.6949819 -0.01245364 0.2619531 -0.2360512 -1.05577 0.680995 -1.0289892 -0.0820044 -0.22269443 -0.17829031 0.45949963 0.017273294 0.099617295 0.6624797 -0.032240078 0.062255744 -0.15437838 -0.62252414
5961 0.31596473 0.029050631 -0.018902069 -0.09979942 -1.065478 0.29149705 0.8805432 -0.3042501 -0.196217 -1.3599414 -0.39853776 0.6460787 0.36080912 0.057183273 -0.5619294 -0.22620066 1.4318213 0.120539114 0.7285718 0.7266108 -0.013744004 -0.06174197 0.5967809 -0.8256982 -1.1960396 0.39467064 0.048355427 -1.3944837 -0.023628881 0.5290972 0.5300245 0.38935927 -0.57275015 -0.05151025 -0.481659 -0.52715534 -0.48821568 0.65036744 -0.192358 -0.63231176 -0.2801732 0.022657953 -0.4699713 -0.941202 0.67457545 0.4758182 -1.1332077 -0.95678216 -1.0213645 0.23546946
2211 0.28471437 -0.7641436 -0.3272869 0.5584652 -1.6337005 -0.8434994 0.47966462 0.24707647 1.4147625 -0.5829276 -0.29405606 0.16090451 0.23828234 -0.9891341 -0.62320983 0.4362111 1.2956027 -0.09764014 0.047522973 -0.032711197 1.3291681 0.37432218 0.38992557 -0.27798465 -0.15961449 0.18651386 0.7116645 -0.9099157 0.328002 -0.38160706 0.041265313 0.80841565 -1.1041867 -0.005160391 -0.44263443 0.76343834 -0.56741005 0.7086376 0.022915252 0.3765827 -0.10030957 -0.120896816 -0.018862873 -0.6021681 0.053858954 0.80408204 -0.28874448 0.4972912 0.4347376 -0.050906703
4258 -0.06330881 -0.33133006 -0.09358402 0.61227566 0.2371273 -0.9410831 0.031877115 -0.53521115 1.2630159 -0.84001684 -0.34755513 1.7468704 -0.5637824 0.7443577 1.350414 0.1084304 0.96753937 0.5207445 -0.7650633 0.56318885 1.353548 -0.5847609 -0.20380652 -0.011814315 -0.8692612 0.24007179 0.5228753 -0.90937954 -0.010202676 0.5883744 -0.13753037 0.54688823 0.09796763 -1.0858798 -0.3256185 -0.2649816 -0.61084735 0.15611681 -0.38559693 -0.01856143 -0.3340029 -0.9897417 0.42404643 -0.4473286 0.800295 0.8679596 0.6848515 -0.6088304 0.42969316 -0.31109598
1649 0.65524393 0.17931691 0.3989289 -0.24927273 -0.12926526 -0.6359203 1.2051896 -0.1907081 0.6348761 -1.4342148 -0.18044022 0.7178889 -0.73182654 0.67576665 -0.7341433 -0.5399191 1.4294378 0.43095854 -0.5917556 -0.6319072 0.24776006 -0.18480203 0.09775969 -0.9118235 -0.17870706 -0.04632479 1.2191842 -1.6862576 -0.5894558 0.67916787 -0.21323638 0.33974501 0.019120893 -0.24798468 -1.204954 -0.25576377 -1.1487105 -0.008889304 -0.3178536 -0.122976206 0.70851314 -0.17351386 -0.918328 -0.37411368 -0.29716587 1.4259348 0.36203027 -0.06978845 -0.5214827 0.69377166
1959 0.4833516 -0.5466798 0.8893515 -0.4035746 -0.8822972 0.015384511 0.24371766 1.5382586 1.1885351 -1.3371587 -0.01677118 0.3585168 -0.15987347 -0.047804814 -0.8930168 0.77831995 0.81186956 -0.5435712 -0.10642705 0.39220545 0.3278321 -0.5241705 1.2156147 0.49541152 0.05685026 0.39070204 1.1106477 -1.0986496 -0.6425189 0.8809814 0.106180474 0.44620362 -0.40915602 -0.19753633 0.4213947 0.409607 -1.317247 -0.9397957 0.98380256 -0.61977184 -0.46642673 -0.6635292 -0.36414585 -0.6815508 -0.043712914 0.47320673 0.68565834 -0.58773077 -0.61687034 0.1974959
325 1.5619912 0.739697 -1.12559 0.3008883 0.07933537 -0.17382024 -0.67477304 0.8699017 0.77739966 -0.6918767 -0.6463586 0.45105383 -0.52708244 0.15572862 -0.19756603 0.1433538 1.2867163 -0.65594137 -0.24269433 0.19702397 0.72426754 -0.24918376 0.14755274 -0.06414715 0.24912654 -0.73619217 0.52098703 -0.9464175 -0.34806666 0.13664263 -0.3840736 0.32716513 -0.03537744 0.6031983 -0.03088581 -0.23491183 -0.66989577 -0.2874792 -0.13390274 -0.45141244 0.7815857 -1.3735341 -0.56370896 -0.47562593 0.0020853712 0.23779862 -0.51665837 -0.14175089 -0.00017150509 -0.70790416
956 0.038010355 -0.026898297 0.082270905 0.1533572 -0.08446783 0.4092026 0.22296505 -0.11477057 0.7986642 -0.8290216 -0.31927872 0.64599913 0.058743995 0.10104104 -0.7341934 0.657312 0.69833726 -0.5238377 -0.4214513 0.11087222 1.0697455 -0.4661589 0.1264217 0.35872823 -0.67056215 0.19845572 -0.004778447 -0.38652942 -0.05079666 0.6294695 0.12782249 0.7829238 -0.24744879 -0.018642105 -0.11061356 -0.051276263 0.32479173 -0.051387522 -0.58044606 0.30718854 0.45909634 -0.37615022 0.7916546 0.0812157 -0.22594668 0.1303537 0.23150672 -0.05411599 -0.85936993 -0.14590475
1202 0.64987683 -0.051677033 -0.17717166 0.111178346 -0.37410495 -0.4643288 0.95208406 0.7600062 -0.06085636 -0.0054308125 -0.29896605 0.88709944 -0.42902625 0.3904401 0.15772127 0.007306991 1.7365888 -0.0076115457 0.61051875 0.1435112 0.3481417 0.45503202 0.7746369 -0.630386 -0.6929495 0.32040998 0.58519554 -1.0015179 0.49078417 0.56091696 -0.56723446 0.154751 0.39401636 -0.56381565 -0.09151971 -0.87357247 -0.19302145 0.34512922 -0.005252304 0.54951495 0.61779964 -1.2294223 0.39625221 0.3228733 -0.0030783594 0.5307988 -0.30034465 0.3964602 -1.5742462 -1.2413056
6315 0.28567073 0.0014990229 -0.036071625 -0.021317344 -1.0429121 0.24146956 0.9866426 -0.3289265 -0.22222617 -1.2937145 -0.35781735 0.6922159 0.33865523 0.13751262 -0.59869534 -0.19034687 1.4955628 0.15774095 0.64672595 0.78568137 -0.058450695 -0.10823728 0.5800885 -0.83855796 -1.1976954 0.23316734 0.091890424 -1.3474576 0.020080276 0.557937 0.45741755 0.36342 -0.57651204 -0.025607964 -0.5181581 -0.49202883 -0.37931865 0.6051607 -0.20064174 -0.6045094 -0.2713599 -0.054083038 -0.42963687 -0.96970445 0.69365174 0.42834207 -1.1728463 -1.0038624 -1.0274881 0.25681236
4074 0.6306001 -1.3953656 -0.8305316 -0.58545303 0.50148207 -0.6909057 0.24693689 -0.39794463 0.24399391 -0.463057 -0.54110634 0.24125549 -0.06615227 0.5280757 -0.8664982 0.14415506 1.0021764 0.2042221 -0.477579 0.6671098 0.5135561 0.07669836 -0.8023958 -0.4839265 -1.1001238 0.53951204 0.7785854 -0.52436167 -0.45411837 0.2214123 0.35146183 -0.70704514 -0.38533446 -0.21846414 -0.2784362 -1.4932986 -0.016093584 0.16311651 -0.73653626 -0.13606587 -0.5296895 -1.1879137 0.52579916 -0.6545966 0.043224923 0.056468893 -0.37116432 -0.4490226 -0.15186647 -0.6838666
3856 0.72729003 0.70822734 -0.6055509 -0.2057024 -0.6076969 -0.90264165 -0.26716432 0.2094863 0.75283945 -1.2382574 -0.2530455 0.5260297 -0.29446644 0.28454822 -0.51136905 0.7076608 1.0309349 -0.23261829 -0.87129945 0.37406477 0.33790982 -0.76638806 -0.7470911 -0.79275393 -0.37801653 0.099790454 0.80501467 -0.5573053 0.3853729 0.5685215 -0.45503378 1.0193572 -0.52772814 -0.57508063 -0.47712377 0.42385533 -0.66313 0.09035733 1.3010658 0.5056384 0.34469166 -1.1283641 -0.2121609 0.3352458 0.7389557 0.6761476 0.7021197 0.122359276 -0.22089419 0.30838642
3004 0.22016883 -0.11483362 -0.25737286 1.5743586 0.12328872 -1.1348976 0.06317979 1.001069 0.6315999 -0.46092373 -0.09428688 0.8514575 -0.8985344 0.40289444 -1.4299046 0.08047779 1.7446678 -1.1019868 -1.0427061 1.2448797 0.599073 0.20427456 -0.1282168 -0.77994573 -0.19685218 -0.1722951 -0.5716538 -0.46844563 0.61598784 0.63094556 -0.13862354 0.31983906 -0.86030847 -0.19654815 -0.40159795 -0.5384838 -0.58484834 0.25418678 0.23823197 -0.78206694 0.45385137 -0.6301255 -0.073763646 -0.0051938286 0.37520775 -0.57964635 0.040182322 -0.7045693 -0.5109895 -0.33078277
6349 1.0681511 -0.1797525 -0.6544697 0.7595593 -1.0202163 -0.08318691 0.50929016 -0.19944918 0.2955086 -1.4127797 -0.092690185 0.8428209 -0.72141355 0.040064447 -0.41728902 -0.11153415 1.0682334 0.040559083 -0.24534144 0.039972328 0.75719523 -0.20945103 0.3623654 -0.53804237 -0.33926722 0.4744542 0.9740471 0.026664555 -0.3343691 -0.48163277 -1.385767 -0.019929705 0.7459816 0.106520385 -0.6836058 0.41268176 -0.4967754 -0.19384393 -0.5166336 -0.26171267 -0.5516538 -0.12008919 0.17540537 -0.40646294 0.55585116 0.6703053 0.16815443 -0.13689579 -0.6905747 -1.083628
2321 0.37366697 -0.20130956 -1.0086734 0.03499434 0.2826388 0.4111447 -0.22955798 0.7356931 0.6960503 -0.46255302 -0.46051222 0.5626676 0.75970757 0.00718513 -0.14543806 0.1699189 1.4427878 -0.8104589 0.2996601 -0.4506204 1.4555799 -0.7806202 -0.3870586 -0.7810615 -0.9687854 -0.907978 0.70503736 -0.7901456 -0.16644719 -0.22319317 -0.54055965 0.014115369 -0.25923088 -0.47572023 0.34145033 -0.21257688 -0.33526567 0.32672718 0.20892854 -0.30065218 0.34255046 -0.87605625 -0.57463384 -1.5200714 -0.42543936 0.86786276 -0.66407204 1.0911045 -0.026215034 -0.5242971
1692 0.6053134 -0.97466093 -0.9196518 -0.38229918 -0.19153753 -0.45802066 -0.5379468 0.06329021 0.38079342 -0.39974028 -0.11380979 0.65549314 -0.80430055 -0.6690565 -0.13152303 0.15026043 1.3874307 -0.29484934 0.040493652 -0.21397789 1.3763487 -0.82616544 1.1205075 0.26371488 -1.1413795 0.38883334 0.4597601 -0.7096744 -0.20042847 0.79808486 0.45130187 0.95117944 -0.111348964 0.046846475 -0.23398149 0.34988436 -1.7988688 0.81510633 0.5610188 0.027003724 -0.07512632 0.19795153 0.09444189 -0.92379683 0.012293671 -0.8832601 0.20924257 -0.66032153 -0.764849 -0.34796044
6572 -0.41163388 -0.8874753 0.6028402 -0.11737933 -0.9201057 0.036744457 0.50077546 0.67445415 0.4010304 -0.36365715 -0.14191583 -0.018064985 0.23694924 0.73887295 0.4549703 0.43984464 0.89328253 0.27404624 -0.3641226 0.027049966 1.510428 0.15218212 0.5151211 -0.040469352 -0.75070816 0.10918182 0.14052825 -1.3539677 -0.28790233 0.045562893 -0.49990955 0.2965705 -0.6621707 -0.9310817 0.50290126 -0.91601974 -0.94201064 -0.80296385 -0.5988224 -0.4567217 -0.38686523 -0.73965144 0.47978672 0.20334153 0.9012768 0.37806803 -0.12849557 -0.35785234 0.52949965 -0.55103105
1224 0.731193 0.0029252868 -0.16428198 0.19144505 -0.45671323 -0.5895088 0.9069007 0.6666397 -0.06738147 -0.082950085 -0.493687 0.91574043 -0.29091302 0.33111122 0.14911118 0.14724702 1.6004455 0.12373163 0.5572781 0.14783314 0.3735684 0.5797705 0.7770789 -0.5508375 -0.6571106 0.2268419 0.58013666 -0.998794 0.43307602 0.36057028 -0.53289825 0.3655279 0.21422604 -0.5112647 -0.1625719 -0.8323986 -0.18026705 0.13015631 0.07448786 0.5711353 0.66616094 -1.011782 0.4787151 0.25200936 0.08925935 0.84402186 -0.2953245 0.4243644 -1.8179775 -1.311957
3034 0.33002654 -0.28800675 -0.5523756 0.121447444 0.20932405 0.15117918 -0.34578976 0.81676257 0.7114157 -0.47429445 -0.5037099 0.4001579 0.5185143 0.102646954 -0.20191734 0.34664986 1.2637815 -0.99601257 0.2869429 -0.550311 1.3444437 -0.80598485 -0.30201927 -1.1591408 -0.95991504 -0.8144468 0.6950802 -0.75679684 -0.3252056 -0.017748907 -0.46154624 -0.011208742 -0.3464171 -0.57759684 0.41883284 -0.4001508 -0.19244169 0.35406718 0.29661614 -0.29876816 0.24854241 -1.0151837 -0.60747117 -1.5297815 -0.17618205 0.5059924 -0.6207454 1.1763778 0.20486607 -0.77314746
5767 1.5344508 -0.87065506 -0.9352776 -0.8955976 0.18103002 -0.64864945 0.59193075 0.35491487 0.25199243 -0.9156366 -1.1392639 1.0497177 0.062227428 0.049430385 -0.13413985 -0.065401174 0.76266605 0.08624487 -0.0467993 0.38228366 0.49985012 -0.10893889 -0.56091326 -0.9346502 -0.441659 0.4894875 1.0002285 -0.818221 0.5588871 1.1605517 0.41650903 0.3298751 -0.68611014 -0.16139431 -0.7440111 -0.86477304 -0.08109267 -0.21705955 0.25410703 0.33763924 0.08866932 -0.83020085 0.6667018 -0.1645425 -0.33778003 -0.72588766 -0.6719333 0.18499476 -0.2593974 -0.090813495
2540 0.4549609 -0.25400576 0.14057495 -0.46979547 -1.2936656 -0.1226531 -0.023111537 0.5767934 0.4066404 -1.4384551 0.3265709 1.1110392 0.033478886 -0.6724411 -0.3325773 -0.015478714 1.2253366 -0.6923231 0.07950561 -0.26023763 1.3557786 -1.1931828 0.5800862 -1.6532887 -0.14199096 -0.13196182 0.5609787 -1.1651933 -0.028578006 -0.7793654 0.03281827 -0.25843322 0.21328321 -0.015391753 -0.9518644 -1.1455513 0.29225898 -0.49869105 0.21784957 0.12724026 -0.17014521 -0.81333214 -0.22431424 0.54327863 0.5785996 0.10998617 -0.22882544 -0.036751565 -1.0077872 0.18735014
3089 -0.1418044 -0.08233864 0.0867137 0.16372833 -0.3875368 0.28297642 0.26021397 -0.08109975 0.78938437 -0.77147424 -0.27613777 0.4670738 0.35360464 0.027673641 -0.6184644 0.5378549 0.6521923 -0.3607744 -0.54886514 0.3573465 0.9602282 -0.5750144 0.088842936 0.20443375 -0.52026147 0.11099274 -0.034524634 -0.3479767 -0.069167666 0.6623909 -0.13493073 0.7354731 -0.5186032 -0.019540053 -0.13577043 0.00052162126 0.09935185 -0.20478196 -0.8458438 0.5146906 0.35743654 -0.3542159 1.1030653 -0.08707724 0.0829128 0.099713854 0.20165876 -0.021349547 -0.86442 -0.10072495
6034 0.113523096 -0.18934357 -0.039019387 0.03546812 -0.16870782 0.38172606 0.3843786 -0.091664724 0.8766258 -0.5196969 -0.37477452 0.59919506 0.24244791 -0.04351942 -0.89308673 0.419441 0.7275701 -0.5921693 -0.44774926 0.21843848 0.91286296 -0.45660213 -0.00076058146 0.29552862 -0.7485846 0.18931699 0.009784612 -0.11116749 -0.17137423 0.69426185 0.06759932 0.7880662 -0.3472836 0.08090792 0.005990731 -0.14784703 0.22955835 -0.17772216 -0.4629671 0.25735086 0.30727965 -0.5535148 1.0636053 0.050916754 -0.0027894164 0.14890783 0.17877221 -0.040657274 -0.82309276 -0.0750548
828 0.45826495 -0.2822896 0.786227 -0.5209281 -1.4569016 -0.8738286 0.4142876 1.4629405 1.0027486 -0.51126873 -0.93892163 1.1682612 0.10506911 -0.43045598 -0.31343985 0.23828444 0.90758705 -0.6983254 0.17486534 0.18745314 0.03332393 -0.7867508 0.6086411 0.322684 -0.032956876 1.5385981 0.27334395 -1.0330511 -0.5930548 0.98448616 0.1574673 -0.04605475 -0.13154891 -0.45574227 -0.85227895 -0.12161984 0.42936316 0.10243323 0.5408 -1.0265867 -0.2827213 -0.7861896 0.18724017 -0.6583776 -0.05283307 0.74903303 0.07841261 -1.0950211 -0.6539387 -0.508427
6234 0.39646953 -0.9559434 -0.5011954 1.6355367 -0.56245816 -0.7675993 0.50015706 0.39385876 0.3150029 -0.5337412 0.0061590453 0.9317414 -0.36261615 0.661672 -1.0700969 0.21962549 1.6700112 -0.755892 -0.4372227 0.5215301 0.27940595 0.37961334 -0.5175456 -0.7968404 -0.9821428 -0.5089828 -0.55456495 -0.49366814 0.9162801 1.2069408 -0.94282514 0.078504294 -0.8252807 -0.6669618 -1.4845479 -0.18227266 -0.6359506 -0.19207923 0.2886739 -0.6362536 0.23527688 -0.22059771 0.5842345 -0.091110595 0.4140484 -0.6417131 -0.21553253 -0.11688653 -0.3536206 -0.313864
3681 0.9331377 0.6143746 -0.6936395 -0.46515492 0.33844107 0.105890304 0.9698565 0.3166903 0.9783652 -1.3488911 -0.19447891 0.33900887 0.59870857 0.1539257 0.48587713 0.14570835 1.005067 -0.03299673 -0.094298 0.16276686 1.2523804 -0.5502466 0.4795452 -0.89886796 -1.2524027 0.38947028 -0.7594473 -0.6797746 0.002168609 0.30813047 0.087358564 0.52048796 -0.35676435 0.23929958 -0.37137264 0.25169566 -0.5475449 0.32059667 -0.015096815 0.060427766 -0.02942424 -0.32506487 -0.32409227 0.036769595 0.34258166 1.0782839 0.053817283 -0.5187846 0.93738496 0.08741121
3866 0.5492961 0.6023502 0.63622725 -0.30248606 0.030452006 -0.24333306 0.0587328 0.64765906 0.5915272 -1.4005439 0.9978552 1.0281731 -0.33691984 0.34826443 -0.67209375 -0.9073763 1.442276 -0.5019728 -0.24412532 0.79980725 0.66847545 -0.16147335 -0.3568875 1.0365567 -0.93441445 0.6931202 0.80813766 -0.71381956 1.005812 0.53347135 -0.034409065 0.13313016 -0.058286287 -0.5384016 -0.9892276 -0.31430218 -0.31672242 0.4573502 -0.39601547 -1.3811067 0.031638682 -1.3482299 -0.06295068 -0.46828818 0.45606858 0.58774996 -0.09900847 -0.073627844 -0.15003668 0.118868455
374 1.5161455 0.058788385 -0.19080615 -0.4493309 -0.030731883 -0.57249933 0.30301642 -0.040912747 1.2404459 -1.183469 0.61454093 0.2739762 -0.11726212 -0.097089544 0.60206366 0.6832658 0.6119896 -0.6987949 0.60716784 -0.030418893 1.5267243 0.05490396 -0.10999857 -0.083381824 -1.1125392 0.24489018 -1.1617438 -0.38979155 0.8168005 0.10201645 0.07939739 -0.27067727 0.14898701 -0.16277242 -0.78190607 -0.8440564 -0.6270758 -0.07849962 -0.18202713 -0.49840525 0.35734364 -0.8181552 1.0756063 -0.38775447 -0.19057277 1.1740047 -0.243083 -0.4064258 0.2501257 0.1663287
1120 -0.35080874 0.39486533 -0.11324147 -0.051359855 -0.025055302 -0.28229144 0.29085612 0.7971367 0.6852089 -0.50912637 0.377867 1.3653585 0.24476492 0.75847524 0.07943812 -0.21692249 0.6387213 -0.1966658 -0.5535392 -0.20077643 1.6567737 0.5062196 1.05868 -0.64685845 0.011552123 0.06414905 0.35453624 -1.2593912 -0.26075757 0.42423752 -0.6509637 0.35678244 -0.7035771 -1.2437675 -0.01589864 0.27937388 -0.07426484 -1.2705793 -0.5081611 -0.09509588 -0.29048163 -1.1942219 0.07680776 -0.65643245 0.83529395 0.8028563 -0.45511696 -0.74470675 0.4772507 -0.02118303
517 0.14426965 -0.87554723 -0.32509655 0.5551501 -1.35995 -0.86248785 0.44323477 0.22221124 1.7065675 -0.6919193 -0.3559312 0.10198995 0.26745102 -0.86938804 -0.600351 0.4511931 1.2576544 -0.080210306 -0.14265381 -0.1481601 1.72865 0.49604347 0.39796206 -0.22565857 -0.3104408 0.117700875 0.67787457 -0.7428915 0.37001976 -0.16674985 0.050166767 0.9177643 -1.0112047 -0.022906896 -0.5533469 0.5426547 -0.49483645 0.39975056 0.08038093 0.18026201 -0.14637335 -0.2939128 -0.030921424 -0.36051127 -0.076838955 0.95421433 -0.4708776 0.53367543 0.6762432 0.1059001
990 0.9326175 0.60977566 -0.6870176 -0.56979495 -0.032836247 -0.04974425 0.99428636 0.60107535 0.9838331 -1.528092 -0.052591532 0.25275463 -0.68657875 0.6980988 -0.110720284 -0.75668544 1.4943738 0.0565138 0.07721046 0.3639823 0.6700614 0.4533555 -0.49164715 0.65261805 -1.6254117 1.2246377 0.5383327 -1.3139701 0.3316904 -0.041804913 0.50779134 0.17438325 -0.39084807 -0.7347442 -1.1323622 1.3024179 -1.0779651 -0.19898804 0.09244026 -0.14248997 -0.12504214 -0.72631234 0.13144146 0.71884346 -0.104062535 -0.120607905 0.06051334 0.16953816 -0.012113297 -0.9497191
1241 0.5553977 -0.4003083 -0.34724098 -0.51727664 -0.7050262 -0.43291834 -0.55907166 0.38876107 1.7086749 -2.1501296 -1.0549715 0.045984797 -0.5594889 0.13333175 -0.32877064 0.59677124 0.6489597 0.09932883 0.23102835 0.39631337 0.07722238 -0.52974117 0.81104594 0.062639914 -0.987995 0.77917475 0.7672609 -0.38458422 -0.25070035 1.0191838 1.1693295 0.48865545 0.5992913 -0.7416468 -0.7689546 -0.39216977 -0.9458873 -0.0002907151 -0.015280608 -0.5781667 0.61582536 -0.116953075 -0.42725238 -0.33906278 0.5977576 0.7245106 0.20379378 -1.1662273 -0.25949842 -0.21775559
1732 -0.41009554 0.22787306 -0.10794165 -0.43013218 -1.0630276 -0.7395978 -0.028010586 0.9969251 1.039437 -1.0261399 -0.49740678 0.26810673 0.36114368 0.1061866 -0.16292167 0.085510515 0.4757622 -0.0064148623 -0.5562285 0.13504001 1.2242935 -0.390961 0.1766931 -0.8045605 -0.5429139 0.2470249 -0.08232113 -0.55165446 0.5313082 0.011503236 -1.2423598 0.37808385 -0.8275564 -0.84981906 -0.2785702 -0.38201162 -1.4857863 -0.46101886 -1.0999618 -0.04077373 -0.63281125 0.0103432555 1.3159894 -0.8468467 1.1894754 0.52621967 -0.12389356 -1.156289 -0.8384258 0.39655355
2 1.5778586 -0.56209534 -0.62896246 -0.30450615 0.75716096 -1.1441629 -0.47591034 0.3971293 0.59712154 -1.0211973 -0.3473102 0.49173343 -0.112747476 0.76412153 -0.44036174 0.13474584 0.47586346 -0.43093067 0.16528702 -0.42986038 0.07914937 -0.33350033 -0.42301223 -0.71079355 -0.98378485 0.40386662 0.09139573 -0.3680659 0.14737456 0.5302731 0.76428497 -0.03084962 -0.045058254 -0.42119932 -0.5758577 -1.1440855 -0.014966114 1.0040197 -0.44962737 0.40774527 -0.3957464 -1.3954214 0.75446737 -0.9390295 0.1838168 -0.16084698 -0.47159907 -0.25491405 -1.0203481 -0.34573987
2942 -0.065044284 -0.2104965 -0.39115563 0.14995834 -1.0382601 0.7355068 0.2962965 -0.057053324 0.007976273 -1.3901436 0.056417532 0.7039111 -1.5535539 0.031426013 -1.3624483 0.012929258 0.506419 -0.7111423 0.1427513 0.031217922 1.6002322 -1.1413064 -0.34410167 0.38721502 -0.30196998 0.47763136 0.22279258 -0.694049 0.42386386 0.16992125 -0.6503071 -0.3391558 -0.83573925 -0.047897495 0.101617716 -0.5665451 -1.0724185 -0.19286425 0.49942496 0.34561855 -0.3447013 -1.1022055 0.3031544 -1.0346557 0.71002775 -0.22551648 -0.36547953 -0.18872055 0.109871544 -0.36769032
1143 1.2423874 -0.27594584 -0.713175 -0.2705611 -0.24635974 -0.091571234 0.09696456 0.3771717 1.2835565 -0.7023088 -0.56527936 1.13949 -0.61047596 -0.172658 -0.17436975 -0.120953694 0.83735484 0.25889716 -0.0070702275 0.6962 1.9814699 0.42688504 -0.060612015 0.7774665 0.08397015 -0.63046914 0.28582436 -0.9908656 -0.027141353 -0.21156299 0.5740426 -0.886311 -0.18266189 -1.365877 -1.3828185 0.5092343 -0.6485081 0.5979106 -0.3006073 -1.2930149 -0.42439312 -0.22165033 0.5219895 0.33398038 0.25953126 0.6312175 0.28813925 0.34624776 -0.7647562 -0.34088096
5378 1.1312494 0.4119797 0.09473485 0.02005282 -0.49701643 -0.2862503 1.1232046 0.56929153 1.0386457 -0.5047263 -0.2679129 0.57911664 -0.13331577 -0.19412754 0.29544333 0.58188367 0.52892625 -0.19613639 -0.7488947 -0.068190455 0.743071 -0.71668684 -0.67626643 -0.49488637 -0.98808324 -0.23520431 -1.2596081 -0.8543059 0.04785513 -0.38390556 0.25906643 0.15859571 0.433562 -0.37342772 -0.34527665 -0.4652068 -0.28307846 0.69196284 0.48275575 -0.9169441 0.3759087 -1.2211138 1.1286136 -0.889378 -0.031533245 0.4596088 -0.87610984 -0.32717222 -0.118039034 -0.90376264
4113 0.41995388 -0.65777767 -0.23102824 0.5997086 -1.6789491 -0.9710541 0.36903682 0.24024193 1.5727155 -0.5453513 -0.34660646 0.1255924 0.13813284 -0.97170144 -0.68522125 0.45281336 1.2952495 -0.13945527 -0.026759768 -0.048559144 1.5863513 0.24779715 0.26973307 -0.19115233 -0.40543598 0.29424074 0.62325054 -0.84236884 0.62581366 -0.42621928 -0.118383184 0.7887512 -1.2348362 0.0557219 -0.43881482 0.7399869 -0.5146501 0.6096766 -0.24257077 0.09270846 0.009395341 -0.048512973 -0.12713203 -0.45547342 -0.1384775 0.9235185 -0.37757403 0.48932913 0.49591205 0.2962934
2534 0.5081674 -0.015022704 -0.68415785 0.62353593 -1.0945455 -0.22829835 0.70566356 0.55893016 0.7812439 -0.68710274 -0.19225052 0.41755036 0.31439686 0.018760756 0.3762071 0.10798416 1.1948738 -0.23234528 -0.50159806 -0.12367496 1.0604745 -0.5629451 -1.0383934 -0.2920041 0.28503937 -0.09587741 0.56044364 -0.76855356 0.78482753 0.96824336 -0.18823422 0.592406 -0.20306163 0.319861 0.11879752 0.3025989 -1.7357433 -0.10103503 -0.8174336 -0.51818115 0.00959222 -1.8902165 -0.3960911 -0.8227969 -0.3932665 -0.5502339 -1.3789785 0.7579198 -0.51572806 -0.018058741
2598 -0.43606126 -0.16003855 -0.10763806 -0.4859035 -0.24683936 2.2605182e-05 0.42274436 0.7413537 1.7096431 -0.9604747 0.73611146 0.6236747 -0.017539289 0.7151093 -0.59451324 1.3343806 0.89509284 0.4071352 0.5112351 -0.05774699 0.3103792 0.056778006 -0.37461248 -1.0929482 -0.30095115 0.16324191 0.2560191 -0.8516948 -0.4348324 -0.05561896 -0.6957724 -0.12728322 -1.3239588 -0.042979516 -0.3142128 -0.23871781 -0.6628747 1.1517929 0.29814017 0.4602642 0.1938637 -1.3056213 0.39893693 -0.3147051 0.17814402 -0.22685373 -0.40199482 -0.47561556 -0.7154858 -0.99058694
1230 0.79743433 -0.59366983 -0.31722462 0.17927712 -1.1449882 -2.029007 0.4866075 0.11735432 1.4614372 -0.35336497 -0.30348387 0.6650831 0.3720334 0.2957498 -1.2343159 -0.21092647 -0.16331 -0.0011007222 -0.42126936 -0.21308094 1.8699446 0.0463904 -0.27292147 -0.3527177 -0.45910022 0.43120262 0.17512688 -1.5378761 -0.38236856 0.6855099 -0.34158787 0.2421901 -0.17076969 0.23295145 0.294966 -0.07770503 -1.1661743 0.29848626 0.3259737 -0.2119578 0.0899181 -0.53139293 -0.3314061 0.35110754 -0.0260155 0.023900447 0.56229305 0.05209354 -1.4103525 0.28057006
6816 0.7132041 0.586911 0.36273125 0.42133948 0.31753463 -0.0131386 1.0278871 -0.28798413 -0.3566813 -0.48502037 -0.17586832 -0.62023026 -0.4781417 0.01678499 -1.3257378 -0.0110474555 1.5939221 -0.21759307 0.32104662 -0.07733327 1.4427015 0.38017142 0.068371415 -0.22590509 -0.20944065 0.596132 -0.58541244 -0.0035274746 -0.046810076 0.2785308 0.12645781 0.49453852 -1.0703514 0.07753177 0.30988607 -0.5244518 -1.3732536 -0.5335867 -0.021324234 -0.59480745 -0.84564745 -0.6203984 0.16658267 -1.1447673 0.14388499 0.49155223 0.47968906 -0.1467816 -0.6640764 -0.9470528
5790 0.8209322 -0.21642227 -0.80176145 -1.235768 0.14942098 -0.4028167 0.66208553 0.28205487 0.7545215 -0.9829642 -0.5366251 -0.23635954 -0.34241036 0.5088625 -0.4619793 -0.08076576 0.40777957 -0.8493497 -0.88274336 -0.5186235 0.84835964 0.14985093 0.513421 -0.5222182 -0.949072 -0.14876698 0.5450655 -0.3754972 0.5719259 0.30939904 -0.5578305 0.5061721 -0.4951242 -0.5457081 -1.0626465 -0.11086167 -0.4012314 -0.18545693 -0.6067074 -1.418237 0.25351235 -1.2433686 0.37362164 -0.77442324 0.44606566 -0.16507372 1.2383649 -0.17681047 0.15085322 -0.81674
4686 0.38402018 0.071051694 -0.3796711 0.1439646 0.21708162 -0.4727031 0.7473007 0.24683018 0.4400379 -0.2690303 -0.08243676 0.9958947 -0.0050392943 -0.41753927 0.5198335 0.08496043 1.4688687 -0.16903935 -0.76801795 -0.26906082 1.5694706 0.5853306 -0.4758208 -0.51938015 -0.4622255 -0.9070732 -0.33206555 -1.2138726 -0.55248785 -0.06148005 -0.7318805 0.1162352 -1.489866 -1.4571992 0.6521611 -0.8190454 -0.79523003 -0.71380115 -0.75669414 0.9693824 -0.21560416 -0.2866074 0.35346323 -0.19197689 0.40095797 0.825123 0.54778755 -0.31703228 -0.35127744 -0.7695573
1703 0.2683018 -1.0189862 -0.3820311 0.8987511 0.20370016 0.038883355 -0.05399217 -0.13748388 0.44082028 -1.8719962 -0.51556605 0.64298147 -0.8410727 0.5188768 -1.258635 0.11308196 0.795844 -1.0769645 0.7234511 0.3403383 1.4367887 0.5982188 -0.25694612 -0.29946288 -0.45388085 0.42044425 -0.5845117 -0.66716164 -0.20750009 0.6309268 0.58941853 -0.0009834258 0.14767592 -0.32998314 0.33197868 0.82339245 -0.2809695 0.08772406 -0.46632883 -0.69013435 0.030724533 -1.2379762 -1.1546098 -0.1502029 0.3093956 0.6574242 0.039821975 -0.001846555 -0.18660447 -0.42603752
4854 0.7804753 -1.1343263 -0.019576002 0.38703033 0.15717907 -0.16874897 1.1281732 1.0368112 0.5182347 -1.0419408 -0.028467806 0.56803757 -0.37380418 0.4478322 -1.5669163 0.16291514 1.343714 0.33457533 -0.1671592 0.1463043 0.3796512 -0.9477398 -0.045653496 -0.2722239 -0.8034859 -0.5328735 -0.20631693 -1.3558036 1.0038317 0.59621686 0.25175107 -0.41726986 -1.5246699 0.47559088 -0.07652442 0.3273359 -0.26852006 -0.1002292 -0.6017195 -0.6436803 -0.09840019 -0.41054502 -0.15209815 -0.38405487 0.3401492 -0.7495281 -0.6462066 -0.40305236 -0.09392176 0.09269906
3872 0.9431323 0.7018075 -0.47292483 -0.33135262 0.062197614 0.06623099 1.0519414 0.43499008 1.0865319 -1.4935 -0.3169929 0.3493008 0.48862502 0.19491547 0.42734712 -0.012499547 0.98481596 0.047321167 -0.40285796 0.25446954 1.071195 -0.5679792 0.4348118 -1.0440434 -1.230746 0.32790443 -0.96686983 -0.68408537 -0.10972157 0.38519958 0.057352252 0.16366692 -0.3471207 0.312367 -0.29831684 0.538475 -0.5271417 0.25897452 0.11962737 0.048912223 -0.29541638 -0.33535853 -0.117465496 -0.032891963 0.45942014 0.93093526 -0.056674056 -0.586644 0.9017387 0.059556432
421 1.4640028 -0.4716408 -0.7047409 0.91728586 -0.7989077 0.12002612 -0.4192622 0.59756744 0.93126076 -1.2804477 0.6036971 0.5482015 -0.071441405 0.6657316 0.54388595 0.012106987 0.8947068 0.6096025 0.10870578 0.19025666 0.8871912 -0.6136883 0.3961979 -0.46549073 -0.4970696 -0.40448675 -0.0468101 -1.2034792 -1.0403345 0.22575761 -0.039875995 0.7976576 -0.5996709 -0.6257107 -1.3626883 0.31109676 -0.56746525 -0.3861209 -0.3258853 0.5595725 0.35429767 -0.7149053 0.006637434 -0.5151556 -0.36389515 0.14081453 0.16943757 -0.35533857 -0.35691965 0.46290493
4614 0.69484574 0.6198606 -0.5853817 -0.5541734 0.324344 0.10132585 1.1025137 0.37647536 0.9478815 -1.1263801 -0.18939824 0.3255878 0.5573703 0.005028413 0.49395335 0.080375865 0.8239318 -0.037552774 -0.13800089 0.04639686 1.4242328 -0.4744514 0.5859552 -1.0428005 -1.123946 0.35999978 -0.9309048 -0.95509344 0.019229025 0.35759884 0.09596253 0.6020658 -0.1873518 -0.008488314 -0.24334456 0.46713686 -0.35278317 0.12114809 -0.16204418 0.04117179 -0.08154189 -0.37045425 -0.085332595 -0.09260411 0.5415864 1.1366299 -0.26723474 -0.49121547 0.9425827 -0.07773001
7183 0.3013757 -0.37549156 0.5205227 -0.14436841 0.27526337 -0.5058899 0.068121634 0.6996642 0.8565763 0.2993785 0.46958753 0.010241316 -0.11725104 -0.4390921 -0.38836896 0.12287875 1.0617244 -0.67720807 -0.6698615 0.0791227 0.72469914 0.779637 -0.3874622 -0.42190412 -0.5791749 0.31465277 -0.02047577 -0.6892575 -0.5719281 0.905113 -0.15121208 -0.27346975 0.08961105 0.0941168 0.247132 0.26689127 -0.12743226 0.2312666 -0.30120376 0.019310998 -0.31881586 -1.2255982 0.7504049 -0.45519012 0.5873541 0.2499439 -0.04743927 0.30306244 0.3584214 -0.45361707
5667 0.74814475 -0.56488204 -0.715301 0.801022 -0.4376668 -1.0265304 0.60163206 0.12539102 0.80804026 -1.0111231 -0.24593268 1.3984373 0.0333818 -0.18893592 -0.51415944 0.22681871 0.1553049 -0.6376712 -0.272411 -0.08700174 -0.21910536 -0.8732934 1.0928952 -0.94917977 -0.93346554 -0.3175841 -0.7311857 -0.35233292 0.1680766 0.5052943 -0.88695556 0.24428411 -0.98161876 0.56051636 -0.26354945 -0.71684635 -1.2431953 -0.09999538 0.047109667 -0.72829163 -0.14501333 -0.7574798 0.89545137 -0.79843074 -0.16099218 0.4478937 -0.5837461 0.6443863 -0.621232 0.76251453
4813 0.9944777 0.052697327 -0.562308 0.6213316 -0.7355526 -0.30597723 0.5328395 -0.11254099 0.20108321 -1.3789074 -0.13395059 0.8480168 -0.6647941 -0.0046845344 -0.461537 -0.08551878 1.1954801 -0.16834912 -0.051842127 -0.014728108 0.8474809 -0.12996145 0.32236347 -0.5848175 -0.28557265 0.35189807 0.73728305 0.12183825 -0.30282795 -0.44468808 -1.2173322 0.15404858 0.864936 0.062001187 -0.6020826 0.35941234 -0.31848437 -0.48327243 -0.6843662 -0.14174056 -0.6331005 0.03355129 0.25838107 -0.45062727 0.56792367 0.5725033 0.108210236 -0.13636431 -0.55773175 -0.96072596
1573 0.68707514 0.7776705 0.67018783 -0.20329052 -0.14520194 -0.25548452 -0.13025875 0.6111196 0.6231203 -1.4252572 0.98784286 0.8077686 -0.4774919 0.20682806 -0.6029282 -0.94927645 1.420939 -0.35695937 -0.21461652 0.801703 0.8334357 -0.19945724 -0.4898031 1.1927891 -0.95290774 0.9507814 0.9324057 -0.87205935 0.98925596 0.7043648 0.08076775 0.3881727 -0.10989749 -0.39153436 -0.74156845 -0.035633493 -0.34376314 0.32107085 -0.10481244 -1.2570529 0.11400419 -1.3271443 -0.11552729 -0.28644434 0.28302157 0.46600136 -0.13257964 -0.1410815 -0.16041946 0.08386651
473 0.9130367 0.004134878 -0.57231027 -0.26914078 -0.53006226 -0.6592279 -0.062843725 0.3025994 1.695565 -0.38511693 -1.1683413 1.3641802 -0.7110696 -0.9889579 -0.5553808 -0.17237367 -0.0011551081 -0.6201767 -1.0930771 0.45370775 1.7327932 0.13013475 0.03844927 0.069250956 -0.37585628 -0.7083166 0.9865488 -0.6228122 0.12919842 -0.3288344 0.5155791 -0.75986314 -0.5426256 -0.27723423 -1.3787503 0.18240546 -0.40390685 0.15326506 -0.28206247 -0.6173917 -0.32727313 -0.6953452 0.67469984 -0.104111254 0.54057413 0.56123614 0.59136873 0.23381346 -0.15820026 -0.6507188
7059 0.18643056 0.33335552 -0.092374586 -0.03675806 0.38933054 -0.7594309 1.0103195 0.9230934 1.1382127 -0.3613016 0.28331235 0.4517565 -0.7999147 -0.17059432 -0.53506804 -0.9389408 0.97320604 -0.49870303 0.62698036 0.15429376 0.5038701 -0.60257643 -0.036919087 -0.13957076 -0.8264028 -0.23560978 0.43435314 -0.64150816 -0.5596673 -0.1249803 0.22154519 0.3913571 0.29097044 -0.11831857 0.6827739 -0.34944597 -0.20187 -0.051148977 -0.9125065 0.48745954 -0.88576055 -1.0116519 0.9252439 0.07998097 0.25770235 0.6719945 -0.2661127 0.003094967 -0.009379854 -0.046602834
2458 0.31609923 0.3142013 0.2501048 0.21346736 -0.11950316 0.25518358 1.3073673 0.3821455 -0.22951218 -0.5515882 -0.46181303 -0.34533197 -0.6813851 -0.4736083 -1.4045343 -0.03523849 1.9095386 -0.60728747 0.52313685 0.14532337 1.649271 0.7773651 0.34149733 -0.30995753 -0.17021833 0.77849585 -0.036030974 -0.95247227 -0.34335014 -0.034751654 -0.06895803 0.30692837 -1.3855678 0.20517105 -0.21280327 -0.4203869 -0.9057904 -0.93681806 -0.0881032 -0.4113108 -0.3509667 -0.47485292 -0.50737965 -0.9450495 -0.43545523 0.19222596 0.6181783 -0.26006877 -0.99420613 -0.7233
866 0.5370278 -0.5364645 -1.0392017 0.90188533 -0.40841895 -0.7240611 0.3062954 0.93147796 -0.11544953 -1.1178156 0.4957441 0.60585594 0.59488904 -0.2546765 -0.45233715 0.5648172 0.6432666 0.06565539 0.12014269 -0.037895046 0.5426382 -0.71368915 0.686299 -0.10858472 -0.8502475 0.7345928 -0.31617364 -1.225234 -0.6189898 0.7367881 -0.34505662 -0.050606534 -1.2765801 0.26815587 -0.11810982 -0.3115277 -0.3790903 0.43670657 0.69052 -0.96434283 -0.20800129 -0.96576047 0.38733345 -0.21595733 0.029444732 0.86381614 -0.5884414 0.5085754 -0.7314678 0.9922769
4733 0.6613014 -1.0636638 -0.092050105 0.8145215 0.041627675 -0.063470885 0.9838669 0.006628279 0.52610105 -0.13438267 -0.36746222 1.0227871 0.8414845 0.21147582 -0.15946613 -0.3440914 1.1267754 0.25819543 0.00020549873 0.5372424 0.50826925 -0.76090586 -0.23303863 -0.9157032 -1.2018474 0.31113723 -0.37363148 -0.09184305 0.5650842 -0.15706158 -0.5532775 0.4827377 -1.4469098 -0.97790325 -0.36019114 -0.5830604 -1.2048194 0.94224346 -0.34490278 -0.14241445 -0.06162598 -1.1169437 -0.54329354 -0.027015438 0.12335422 0.3086843 0.074629195 -0.37749043 -0.96217793 -0.53835374
3869 1.0063525 0.5828123 0.3385025 -0.101384 -0.6207395 -0.13154037 1.1014719 0.36971778 0.9344542 -0.54920524 -0.41106018 0.7541239 -0.10709145 -0.0036115425 0.48585013 0.43350425 0.6653962 0.18627505 -0.7205909 -0.059223965 0.6697762 -0.9117614 -0.39015433 -0.4142885 -0.9980651 -0.24346781 -1.370877 -1.1526146 0.30147815 -0.18426284 0.425898 0.19978905 0.40615475 -0.32907796 -0.3598055 -0.57784754 -0.54114306 0.6942108 0.1476963 -0.65585166 0.39653924 -1.1955128 0.87473685 -1.0398219 -0.12668905 0.4379154 -0.4397895 -0.28540877 -0.020103218 -0.5916708
3590 0.26128078 -0.77904 0.403509 0.14071871 -1.7775874 -1.5346404 1.4326364 0.121963605 0.6733445 -0.45102182 0.43752185 0.20850888 -0.41285223 -0.025823008 -0.28977653 0.42178068 0.87579894 0.3715163 -0.3789717 0.54028916 1.3699 -0.49925932 0.14831497 -0.19728085 -0.41208345 1.1920491 0.18145975 -0.8715265 -0.21162722 0.31373474 -0.5661662 1.0775626 -0.4453403 0.27379763 -0.8732854 -0.35862377 -0.65896636 0.0692744 0.2640854 -0.09470353 -0.77829653 -1.0229434 -0.030702947 -0.049099684 -1.1567017 0.6987634 -0.31910142 -0.17466195 0.43975803 -0.61821043
1581 0.60503536 0.07331984 -0.36449003 -0.3109934 -0.0002781173 -0.65579385 -0.23914462 1.0991844 2.5033221 -0.62164086 -0.14260729 1.5279608 -0.38167024 -0.15073393 0.07035027 0.1657681 -0.116441205 -0.5097196 -0.32726637 0.73553014 1.3016391 0.07447051 -0.5511234 0.18465142 -0.32698736 -0.78911024 0.36825657 -0.8572812 0.32275736 -0.20140532 -0.18749468 -0.32032698 -0.8333834 -1.3759376 -0.649055 -0.016549546 -1.2601223 0.26927888 0.08244038 -0.84396386 -0.12354357 -0.50776297 0.45069623 0.31333143 -0.06268014 -0.23998854 0.10255577 0.43028554 -0.43203995 -0.3608826
4315 0.9993613 0.054071892 0.60758173 -0.3822568 -0.06916257 -0.14704037 -0.4619647 1.1723962 1.4912148 -0.96671945 -0.24861802 -0.18454719 -1.1756173 -0.4903091 -0.19423163 0.34718448 0.8219067 -0.4737194 0.96249247 0.39755052 1.0271615 0.011387961 1.0386134 -0.72723305 0.20271449 1.0991933 -0.20024791 -0.5519146 -0.07653027 0.94166565 -0.5006119 0.921342 0.066445865 -0.27360705 -0.94791245 -0.7148915 -0.58323896 -0.34301728 -0.67993253 -1.2453009 0.20146501 -0.3234416 0.19628043 -0.66393167 -0.41131422 0.5183927 0.08147661 -0.66983163 -1.308279 -0.072884485
3777 0.9125188 0.18636051 -0.64918715 0.7505726 -0.7460826 -0.4176002 -0.5349674 0.09589283 0.79492587 -1.4642799 -0.79684865 1.14919 0.7262929 0.21989393 0.41128385 -0.3438536 0.5478934 0.75811076 -0.6574026 0.524178 0.9160251 -0.88495296 0.09305943 0.3733876 -1.3017926 -0.24466567 -0.17298214 -0.79550207 0.51432663 0.71483785 -0.72294194 0.03293261 -0.03532438 -0.97879326 0.23306634 -0.24802285 -0.83603776 -0.58260906 -0.3704535 0.017491816 -0.39096648 -1.0733285 0.43729404 -0.29501107 1.3679725 0.18601762 -0.17926574 0.1591727 0.033704374 0.054800536
5668 -0.24243285 -0.28851828 -0.5483353 -0.17025395 0.061857115 -0.40489316 0.8629019 0.8858133 1.6749986 -0.96053594 -0.48686725 0.5300737 -1.1803683 -0.10471382 -1.1413602 -0.9793062 0.8468661 -1.5931442 0.78926265 0.3294232 0.2334818 -0.38057652 0.6932192 0.035985764 -1.238338 0.7445791 0.35653374 -0.44456783 -0.38202038 -0.40011454 -0.687704 0.3119134 -0.49818483 -0.4932905 0.3886327 -0.35736597 -0.68377894 0.10581644 0.25830498 0.6560737 -0.7406798 -0.6043462 0.73505485 -0.1500267 0.019602094 0.7746659 -0.052534588 0.4129504 -0.3667817 0.23806685
1978 0.662935 -0.6025658 -1.1163976 0.8554773 -0.2849413 -0.7586134 0.056041837 0.9966537 -0.009139445 -1.2179748 0.51366675 0.58234876 0.51995987 -0.14027353 -0.63448834 0.52865964 0.6166223 0.10758457 -0.0052886046 0.038709287 0.38627663 -0.7401478 0.4075315 -0.09661678 -0.95731837 0.62527233 -0.25575086 -0.93819594 -0.45960787 0.8153394 -0.43100983 0.096961446 -1.0744425 0.37529787 -0.14243138 -0.4782422 -0.21581043 0.36345723 0.5323299 -0.96504605 -0.20151855 -1.0299728 0.34036055 -0.096042916 -0.032202374 0.97744095 -0.7397937 0.47936615 -0.64682066 0.9058969
6967 1.0772653 0.13435772 0.11665345 -0.531766 -0.1416087 -0.293411 0.30458644 -0.08352897 0.2763635 -0.95264107 -0.065993965 0.3865747 -0.25038835 0.2930498 -0.7088456 -0.66801965 0.52808166 -0.085485235 -0.08495075 0.71708256 1.341865 0.41964105 -0.99636656 0.66759074 -1.2846024 -0.10643521 1.1447641 -0.5187122 0.2551785 0.23943843 -0.103023715 -0.25194559 -0.30360174 -0.4977884 -0.37092447 1.1489586 -1.0748569 -0.2444224 0.21461236 -1.0672934 0.19754413 -1.0035493 0.24850287 0.007758758 0.25284478 -0.34416485 0.19205636 -0.7003137 -0.065942936 -0.16046843
16 0.032533467 -0.012348283 -0.022646796 -0.032039482 -0.16270646 0.49888906 0.2043224 -0.37841806 0.8790249 -0.76569843 -0.41759074 0.41407555 0.2667428 -0.013766865 -0.7154042 0.6257436 0.6023489 -0.576655 -0.5841844 0.13655318 1.035096 -0.43675506 0.14436437 0.37810725 -0.5988078 -0.039759915 0.13351041 -0.41541538 -0.11651295 0.53407997 -0.049677953 0.72715414 -0.29264402 -0.09372978 -0.31787613 0.0091525875 0.15444061 -0.021423232 -0.52035606 0.026992809 0.53056866 -0.64808637 0.85470337 -0.0025976882 -0.12881657 -0.12986404 0.26804885 0.1037078 -0.81442964 -0.24770741
6555 0.14987724 0.023640372 -0.25742328 0.4902976 -0.25220516 -0.18194813 0.1328606 0.9234178 0.29364142 -1.8678077 -1.1154879 1.127003 -1.0946858 0.7732538 -0.041300785 -0.30006984 0.79484487 0.24190149 0.5973417 0.046155058 0.7814541 0.50744146 -0.4782054 -0.7021438 -0.6787263 0.11295698 -0.615737 -1.1354377 -0.5234914 -0.9473398 -0.15120003 1.2785332 -0.60372186 0.17284243 0.15402146 -0.2828521 -0.73687285 0.20363826 0.40257028 -1.1737387 -0.44430885 -0.44288793 -0.25141162 -0.34955588 -0.06917207 0.742938 0.6999929 -1.075482 -0.26093927 -0.7594545
3139 -0.059486195 -0.45437402 -0.15539205 0.6937485 -0.055527925 -0.69463754 0.8792339 0.42234084 0.531754 -1.0788708 0.18112561 0.72573507 0.14413883 0.25124985 -0.73334014 0.7852427 -0.024851326 -0.33352238 -1.1938163 0.17530543 0.42982602 -1.0566455 0.63081896 -0.38703203 -1.0592738 0.8567617 -0.06847551 -1.2020886 0.24818312 -0.084665485 -0.93758893 -0.3923658 -0.7036382 -0.7627017 -0.02368679 0.29897434 -1.0096945 0.19609883 0.5007643 -1.0599492 -0.6331435 -1.2464739 0.086581044 -0.8182537 0.3828222 0.120468125 0.06397842 0.40429696 -0.16742994 0.5609324
4138 1.1533284 -0.34425923 -0.68083143 0.62335384 -0.6874033 -0.13729237 0.7407915 -0.25460684 0.4263987 -1.274278 -0.10200496 0.7703643 -0.9547881 0.027041921 -0.4165719 -0.058184534 1.2228944 0.052418336 -0.17576031 -0.0545545 0.63096684 -0.29155776 0.2655312 -0.25697798 -0.6532277 0.5194506 0.90645516 -0.022083374 -0.008698517 -0.56408894 -1.4700446 0.124126166 0.8426571 0.12962864 -0.6662801 0.24917269 -0.41161627 -0.33324513 -0.5003296 -0.03365119 -0.45093495 0.02079694 0.07861118 -0.26688758 0.393949 0.61175233 0.3023861 -0.10428341 -0.6990012 -0.92880964
6594 0.30781838 -0.3192825 -0.6260897 0.9275228 -0.37476423 -0.33694085 -0.22335078 0.25822487 0.69293046 -1.4836878 -0.70428973 1.075773 -0.030086003 0.6846565 0.8755488 -0.14747086 0.1510986 0.640063 -0.5575838 0.84043205 1.375107 -0.1692971 0.8858696 -0.46111146 -1.1987717 -0.32956052 0.58854026 -1.1092393 0.84039664 0.5500046 -0.17035592 0.7230333 -0.733047 -0.9907706 0.6731955 -0.46453175 -0.040495753 -0.7681929 -0.49630833 0.043309152 -0.5603231 -0.51043934 0.115028605 -0.07529809 1.440317 0.5885401 0.69577926 -0.8186072 0.28327778 -0.842939
6943 1.1708047 0.029408775 1.3451718 -1.0117565 -0.6527739 -0.1790643 0.4237061 1.0417129 1.0189592 -2.0028381 -0.16162327 0.7860943 0.363678 -0.3162828 -0.23283736 0.7859431 0.46415234 -0.2878204 0.11458702 -0.19417958 0.0063694934 0.07796493 1.0659219 -0.19566967 -0.25686884 0.65466183 0.9022953 -0.8898281 -0.4420892 0.8709344 0.5381738 -0.11604032 -0.60622984 -0.019719789 0.1562742 -0.26777968 -1.0068663 -0.67503476 1.3101532 -0.35347167 -0.41284227 -0.19045117 0.52879864 -0.36312336 0.10207645 0.14529428 0.1650743 -0.48659122 -0.3456508 -0.24398316
4160 -0.5554916 -0.93272376 -0.717553 -0.49392262 -0.5954948 -0.9840292 0.7972097 1.2910438 0.86608356 -0.9618676 -0.38543734 0.5027993 -0.8982819 -0.5690064 -1.1417689 0.37919006 0.7873186 -1.474755 0.23701379 0.15997459 0.63624716 -0.9744194 0.07233931 0.10325562 -0.76686096 0.3051911 0.31923413 -0.46871486 0.617472 0.00061335607 -1.0578218 0.11980383 0.017776506 -0.699559 -0.4516552 -0.39819983 -0.5356398 0.750123 0.5468217 -0.2501788 -0.24465252 -0.29985854 0.5460195 0.08837103 -0.30395448 0.14095514 -0.3062448 -0.794359 -0.99439687 -0.4702958
5019 1.0415217 -0.565673 0.42829323 -0.16305181 0.3168941 -1.00423 0.24167871 1.6629618 1.2301793 -0.5109246 -0.42630148 0.43634102 -0.17213258 -0.968745 -0.32486868 -0.0027718334 0.800686 0.23791407 0.15017955 -0.030777937 0.05830871 -0.7792856 0.008277325 -0.7264117 0.23549345 0.9851614 1.1500533 -0.97130895 -0.19735295 0.8674491 -0.057248715 0.4952893 -0.34705833 0.18216856 0.10109823 -0.45823535 -0.86032164 -0.07766634 0.05784725 -0.88451713 -0.06556289 -0.25073126 0.2234274 -0.42940685 0.12741128 0.66584456 0.25875294 -0.7329524 -1.1570983 -0.812661
241 0.4297672 0.65168726 -0.29402736 0.043068867 -0.48853686 -0.7493429 0.49251956 0.7329178 0.089452535 -1.146158 -0.48991084 0.88315904 0.4078509 1.0276631 -0.8118337 -0.5519024 0.869697 -1.3650832 0.19611701 0.06258413 1.1025158 -0.09295551 -0.74336314 0.47876963 -1.475755 0.5857214 0.8375742 -1.0022851 -0.116997205 -0.22074431 -0.07022027 -0.29237366 0.05971196 -1.1521759 -0.8611196 0.553592 -1.0500822 0.6601397 -0.6990706 -0.7926048 0.1891996 -0.9592055 0.72274035 -0.025851484 0.12317022 -0.2453508 0.13381676 -0.16105545 0.07226419 -0.097148396
7086 0.8070376 0.76250726 0.13460359 -0.12108441 0.48717475 -0.8690158 0.22360653 0.789219 0.13154283 -1.6218628 -0.91509247 -0.16408354 0.24233651 -1.2259965 -0.69113094 0.36193255 0.4495407 -0.79929495 0.21015193 0.3953788 1.5242156 -1.1868155 -1.0301586 -0.61187285 -0.46138316 0.074634306 -0.8120815 -0.7675278 0.13927653 0.1968152 -0.30823025 0.58263475 -0.25533867 -0.4718847 -0.85598063 0.29436824 -0.1643943 0.0076823533 0.33502802 -0.96550125 -1.1602149 -1.0933421 0.096449144 -0.20394205 0.4147155 0.91053885 -0.7279926 -0.18748356 0.013443941 -0.533863
6661 0.96972054 0.26045483 0.24426244 0.4980681 -1.0693446 -0.35557848 0.3746523 0.7218731 -0.29342768 -0.18510482 0.64166766 1.8981692 -0.5709259 -0.37742227 -0.32784426 0.17259541 0.72886336 -1.0657008 -0.08067742 -0.16946949 1.1637644 -0.16852556 -0.63134325 -1.1236552 -0.30654505 -0.5282814 0.31320783 -0.31414658 -0.59067863 0.93915373 -0.8755356 0.24704172 -1.5472915 -0.56547844 -0.09037321 -0.47799197 -0.050747804 -0.40323168 -0.49976948 -1.1251619 -0.19077903 -1.3833814 0.6134459 -0.15510982 0.3301785 -0.16802832 -0.19690846 0.18001659 -0.17006212 0.12378923
604 0.74361134 -0.20870157 -0.9661474 0.523534 0.65457374 -0.19859233 0.5163736 0.2967504 0.17517188 -0.9061085 0.04584433 0.86053914 -0.30470008 -0.53931093 -0.5755619 -0.13132079 0.43945882 0.0044404147 -0.9197174 0.37864628 0.43270093 -0.12955357 0.84335464 -0.44844624 -1.0069042 0.3684301 -0.5659985 -1.2135385 -0.06443751 -0.06024814 -0.32277307 0.37248507 -0.4435003 -0.6052634 -0.2082279 -1.1307877 -1.1498631 -0.5490492 0.23249944 -1.160922 -0.18750492 -0.5174515 0.9232527 0.37610614 0.12164337 0.24623199 -0.52936214 0.2945007 -0.68050617 0.10295781
3765 0.22783463 -0.68320054 0.93964463 -0.6699991 0.035437297 -0.36829334 -0.3495904 1.4306759 0.09862521 -1.4478455 -0.015696025 1.5240264 -0.455316 -0.51882523 -0.35513744 0.02169005 0.8699216 -0.846932 0.56653 0.8021197 0.7699091 -0.071840756 0.041867215 -0.83511716 0.26055014 0.483183 -0.16284919 -1.094492 -0.06488073 1.6262983 0.118059054 0.7253496 0.013900237 -0.6396223 -0.021872856 -0.3882042 -1.4166616 -0.099642925 -0.22862741 0.3998092 0.78526086 -0.3272508 0.2117133 0.07750297 1.0851417 0.40316957 0.6971799 -1.0286355 -0.88357866 -0.9833676
3515 1.17636 -0.75997514 -0.11718867 0.90925336 0.030467717 0.48343503 -0.39378324 -0.050773136 0.8820775 -1.2466247 -0.47962543 2.0593197 -0.7378833 0.013458744 -0.5956911 -0.19676065 0.5640089 -0.9313867 -0.5709248 -0.7371718 1.3701175 -0.59942305 -0.36547327 -0.4975182 -0.78501225 0.6664388 -0.1903806 -0.42093498 0.6947165 0.81308633 0.26443592 0.15338857 -0.059929457 0.10577196 -0.7597891 1.3026202 -0.5877057 -0.39752984 0.19983278 -0.8340129 -0.068924524 -0.6261965 -0.08359476 -1.6109836 -0.32544336 0.5916877 0.29705477 0.06410866 0.39834738 -0.3125788
6522 0.3067911 0.58950055 0.08387972 -0.5898012 0.06134733 -0.37729102 0.41113266 0.23889472 0.68421316 -1.3027453 -0.3445965 0.22173245 -0.658079 -0.5015899 -0.43004924 -0.4433684 0.27581912 -0.4356458 0.8954334 0.52914053 1.2526902 -0.061028164 0.9438881 -0.099284075 -0.038973633 -0.048498463 0.71879 -1.6771092 -0.06319516 -0.15424703 0.8078455 0.93180776 -0.3675856 -0.06100463 0.6513113 0.3832079 -0.7028894 0.32773724 0.07886007 -0.08727829 0.38987872 -1.2719238 0.21298088 -0.49249685 0.69676775 0.40006098 -0.6823927 0.29666966 -1.5797361 0.1607073
99 0.844192 0.004982364 0.47908795 -0.013524102 -0.78431386 -0.96060926 0.5695586 0.8534065 0.6108522 -1.5850755 -0.066431634 1.4984969 -0.0029108825 0.5107232 -0.08728272 0.6985888 0.8930109 -0.55008453 -0.1504129 0.6539072 0.055249806 -0.74528444 0.75419474 0.07167697 0.2593156 -0.08043979 0.6570793 -1.0181872 -0.4311908 0.76268566 0.6803653 0.15984745 -0.6255292 -0.40789706 0.2676413 -0.33555368 -0.73267215 -0.75108856 0.8734723 0.18853542 -0.55960333 -0.20917997 0.011098388 -0.03693304 -0.11411762 -0.16763678 -0.28781483 -0.7231849 -0.6916172 -0.04595487
5374 0.29435414 -0.7829238 -0.4334034 -0.32031617 -0.15646452 -0.34034806 0.22761585 0.05263153 0.6121258 -0.97455114 -0.1476054 0.005256551 -0.30954987 -0.7993122 -0.07503009 0.5572595 0.7108794 -0.47104108 -0.028242107 0.20485376 1.6111546 -0.35471377 0.07522392 -0.64248395 -1.5283734 0.7970333 -0.64764434 -0.11118215 0.39113835 1.0027007 0.077391386 0.64177847 -1.054242 -0.8838996 0.06324072 0.8232526 -0.920533 -0.19160831 0.37294132 -0.11396973 -0.6733778 -0.5529981 -0.628491 -0.92989093 0.74705297 -1.4049895 0.0010714866 -0.14523397 -1.3568434 0.19240385
6564 -0.105810516 0.20815066 0.047435854 0.29909214 -0.7193588 -0.14820762 0.24509038 0.66758996 0.44702843 -0.85740876 -0.050165813 0.6895647 -0.27688426 -0.43417364 0.09532178 0.627423 0.12663524 0.5616224 0.21641544 -0.4068107 1.4981745 -0.89065087 0.30905846 -0.1214715 -0.17345011 -0.15737002 0.21412943 -1.6923494 0.51620126 -0.15480037 -0.3593249 0.7291624 -0.44328114 -1.2584474 -0.719836 -0.5962802 -1.0786841 -0.5818497 -0.9893737 -0.14820218 -1.2277185 0.06033872 0.8944269 -1.018217 0.9991623 0.23134297 -0.49702844 -1.2010103 -0.5994181 -0.025632009
3587 0.6040812 -0.4529075 -0.07377854 0.2952994 -0.9601585 -0.22728309 -0.2681678 0.34461442 0.05757174 -0.5613934 -0.17189655 0.78099763 -0.8429488 0.6279933 -0.9409402 0.15647618 0.32946184 0.8326842 0.14570585 -0.628049 0.5600647 0.32333556 0.4284638 -0.8610654 0.040897507 0.75513923 0.4962117 -0.49377522 0.121051945 0.03608543 0.050336465 0.23437263 -0.031643037 0.15870279 -1.0100983 0.2783948 -1.1604525 0.27276227 0.06718149 -0.28376466 0.43529457 -1.4377832 0.59522897 -0.89471745 0.7860974 0.64312845 -0.28339255 0.40309203 -0.7643281 -0.67300636
5671 0.7987441 -0.8047161 -0.5455126 0.77006733 -0.3885933 0.17662981 0.3060461 -0.2052591 1.0508283 -0.653391 -0.95455116 1.0941311 0.34268963 0.6997727 -0.58158505 -0.31035975 1.040135 -0.4814 0.29029885 0.7901783 -0.60670733 -1.8052101 -0.029988566 -1.0294998 -1.4638505 -0.007794646 -0.5179849 -0.5862989 -0.015429444 0.08446267 -0.46196994 0.25880092 -0.6245779 0.11077117 0.11481709 0.04898603 -0.1794688 0.33020356 0.09753521 -0.59754044 -0.72554415 -0.93660516 -0.29745433 -0.40584007 0.45606124 0.2507257 0.16462937 -0.034734428 -0.5539219 -0.7977874
3152 0.9003283 -0.8990621 -0.39752522 -0.006077194 -0.53989136 -0.19116779 0.042868968 0.4201948 0.4615609 -0.11090375 -0.8225911 0.26144877 -0.099465564 0.43732378 -0.9981584 0.85744107 0.58010507 -0.8281175 0.20685916 0.68018246 0.93825066 -0.5713254 0.51436245 -0.49722537 -1.0734878 0.13699456 -0.10499922 -0.3189868 0.18764272 -0.056645963 -0.4568622 0.029298091 0.44772056 -0.43745124 -0.3296739 0.6586536 -1.6015202 -0.9589895 -0.57120955 0.18661538 0.5526104 -0.62041116 0.2914613 -0.49153766 1.3421015 0.38722086 0.23373282 0.8860822 -0.4787575 -0.61743295
389 -0.115223475 -0.37324283 -1.558406 0.4248065 -0.55258054 -1.3517064 0.47020972 -0.04754972 0.48561987 0.38858318 0.45939794 1.3554388 -0.43810955 0.013229242 -0.393152 0.07943693 0.82728374 -0.45533514 0.2815645 1.1004332 0.8197754 -0.3677904 -0.29553464 -0.30489418 -0.8772808 -0.3257491 0.20253983 -1.1638415 0.5917436 0.59147596 -0.39903682 0.23041661 -0.3235551 -0.06488719 -0.9801413 -0.4781891 -0.26277307 0.74208415 -0.70229644 -0.7166965 1.0475767 -0.7977159 0.63293195 -0.47182274 0.83535933 0.5213971 -0.5278175 -0.14959243 -0.39727682 -0.03933531
3748 -0.31793743 -0.51038986 -0.4828392 0.17935662 -1.278189 -0.9301146 -0.29019427 -0.399149 0.47705987 -1.0459204 -0.79703325 1.8303329 0.06589634 0.5329845 0.73302275 -0.08539805 0.4067312 0.20030113 -0.2623769 0.29950002 1.2048898 0.12799925 0.33234042 -0.60495245 -1.1785139 -0.38594028 0.10952688 -1.4813409 1.0045115 0.46288544 -0.45898035 0.92304945 -0.0043267305 -1.3304178 0.35591382 -0.39012825 -0.5404798 -0.1103671 0.16818255 0.24866667 -0.13443252 -0.76699555 0.5990006 -0.48213145 0.57364905 0.25181803 -0.19930297 -0.26210055 0.3454571 -0.12395353
7103 1.1532828 0.49864116 -0.20557506 0.34996295 -0.5524085 -0.14729723 0.3947201 -0.010037596 0.71298045 -1.1111642 -0.49473992 0.45222813 0.020399641 0.38942778 0.7911173 -0.3276168 0.69012773 -1.1264975 -0.6565049 0.9165002 0.70149297 -0.49844226 0.4881883 -1.0717843 -0.51478213 0.20189366 -0.7323928 -0.117734015 0.73199177 0.5255136 0.122632824 -0.31160122 -0.19878004 -0.8292321 -0.9581361 0.11169381 -0.1909271 -0.42620897 0.43856657 -0.56742245 -0.011560184 -1.5179981 0.36317924 0.036390785 -0.49747923 1.2792798 -0.61200225 -0.60049385 -0.5005135 -0.7438907
4470 0.6203487 0.06787351 0.55716676 -0.58776975 -0.24454364 -0.29075208 -0.5329594 0.7265816 1.249751 -0.7965165 -0.81925964 -0.0652978 -1.3538351 -0.43119985 -0.1630138 0.6653185 0.9489606 -0.5258787 0.119057916 1.0502619 0.69274825 0.28308505 0.28828213 -0.11441451 0.18641661 0.87274957 -0.10581976 -0.8530052 0.7355076 1.112052 -0.28529295 0.6145726 0.27653494 -0.4383054 -0.6840216 -1.1585855 -0.96807045 0.18925074 0.61877114 -0.27082855 -0.103282996 -0.13402998 0.6786098 -0.91180104 -0.013857613 1.117378 0.28400174 -0.22988003 -1.4364895 -0.15745673
1920 -0.31956273 0.17287989 -0.1764557 -0.17358942 0.17003049 0.05161027 -0.32705846 0.4687336 1.7355994 -1.3121996 0.54145896 0.46961236 -0.6366586 0.52564454 -1.0417035 0.2657276 0.367107 0.22323477 -0.43646145 0.39658594 0.4402141 0.08137764 -0.1649502 0.04668114 -0.3492524 -0.32184252 0.2998016 -1.2637182 -0.7577788 0.6797484 -0.9121573 0.27411154 -0.41540116 -1.0292048 -0.6786818 -0.59391123 -0.08751261 0.66352385 0.55049014 -0.1638943 -0.53342956 -1.7211921 -0.690133 0.044129945 0.47062072 0.21901454 -0.15159774 -0.20311432 -0.86509246 -0.89021236
4117 0.9629238 0.641328 -0.657339 -0.42591032 0.2059117 0.12873031 0.9849686 0.47917625 1.0523502 -1.2334152 -0.16196524 0.20984888 0.620948 0.11627316 0.62451065 0.16189617 0.9766623 -0.21070316 -0.2437946 0.15967675 1.1750917 -0.4774978 0.52763206 -1.0582998 -1.0745628 0.2542223 -0.7590665 -0.6916322 -0.06845068 0.3421461 0.029713165 0.34233037 -0.46049595 0.23714365 -0.27273586 0.4994017 -0.22883344 0.2994672 -0.02247719 -0.08879962 -0.15956791 -0.34499797 -0.24371235 -0.016243482 0.33982444 1.004418 -0.23233026 -0.6754276 0.72378224 -0.12210318
3652 0.5049469 0.8434302 0.18160944 -0.12665883 0.32384223 -0.66111314 0.44242164 0.90757686 0.28278536 -1.220229 -0.9454318 -0.14283149 0.25620505 -1.206832 -0.46806604 0.24476577 0.54683423 -0.7828376 -0.008885907 0.54539293 1.4460741 -0.99949884 -1.0724156 -0.60833204 -0.33949316 0.10969312 -0.6235727 -0.82784176 -0.11420817 0.2878138 -0.020872768 0.41528776 -0.41490623 -0.6381925 -0.7558166 0.23170455 -0.081618555 0.026112072 0.3205032 -0.908282 -1.0119313 -1.2435639 -0.052834295 -0.28432772 0.44620442 0.69676024 -0.85872287 -0.23076369 -0.06639066 -0.61635
34 0.7027421 -0.92639655 -0.27075008 1.1283402 -1.0299373 0.18251109 0.4434424 0.8901352 0.7234257 -0.7229537 -0.39984676 0.9621839 -1.4237429 -0.7682511 -0.24901555 0.5144184 0.3533462 -0.165568 -0.5323857 -0.20227867 0.31924134 0.07845213 -0.27781805 0.2676578 -1.4379946 0.17849803 -0.30421144 -0.7622318 0.2644027 0.8645753 0.68062514 0.2963978 -0.41683963 -0.86687297 0.019167032 0.19295959 -0.386199 -0.377769 0.018099716 -0.8906693 0.3423231 -0.63874733 -0.61406887 -1.0432589 0.6951242 0.53723913 -0.005660841 0.48253986 -0.14447953 -0.44189027
5382 1.1248064 1.0157704 -0.99449015 -0.51081073 0.5968017 0.3546114 0.5607672 0.25085047 0.3300064 -1.3713094 0.63887626 1.3658509 -0.42275643 0.89875436 -0.7538235 -0.6412784 0.86424863 -0.4762524 0.87861156 0.067652345 0.98982704 0.4388147 -0.39105874 -0.001178826 -1.1180059 -0.1645689 0.6940256 -0.74509484 0.8594434 0.14037374 -0.41448447 0.034525357 -0.20154876 -0.821445 -0.80450326 0.69088906 -0.84403384 0.3073287 -1.0047075 -0.17998324 0.04905614 -0.9987923 0.24013618 0.06503072 0.3346173 0.30079246 -0.25626785 -0.7000315 -0.4477645 -0.31895706
6010 0.088430986 -0.03220083 0.17348675 0.047541376 -0.14971478 0.4230592 0.2425076 -0.31628078 0.77850527 -0.59105885 -0.33099005 0.53630805 0.20117031 -0.09724246 -0.78596896 0.6040631 0.7120786 -0.427396 -0.351108 0.24982654 1.0315444 -0.5548234 0.10593623 0.122919075 -0.7208554 0.20805153 0.07584274 -0.34060827 -0.09485065 0.6934553 0.07494875 0.8599431 -0.28224963 -0.13498797 -0.30857614 0.016650086 0.38691905 0.025197871 -0.5079385 0.3897831 0.404609 -0.5606449 0.985322 -0.054003693 -0.026382582 0.15260933 0.23635775 -0.0021844185 -0.72606254 -0.26983437
6583 0.124301374 0.2035894 -0.04672307 0.09658321 -0.71978635 -0.19508272 0.84490675 -0.17391506 0.9035468 -0.36854708 -0.3046738 0.30474415 0.0006077511 0.57968295 0.1351788 -0.08239552 0.5665245 0.78345317 0.08746973 0.121388994 1.1917096 0.42100388 0.027378995 -0.54846317 -0.43589142 -0.30720016 0.40642306 -1.2281058 0.4502941 0.82619494 -0.68836313 -0.6635258 -0.8073199 -1.0165033 0.5038302 -0.42219883 -0.4138719 -0.7434938 -0.5101949 -0.3860392 -0.47811124 -0.5264256 0.090420105 -0.57116276 0.6778342 -0.09282818 -0.19408868 -1.1439837 0.2945137 -0.29226246
6770 0.8463824 -0.25015306 -0.1960727 -0.5467194 -0.2595901 -0.03767512 1.2574304 0.25814763 0.13661204 -0.016272003 0.35205576 -0.0057822186 -0.23833312 0.22945657 0.2743281 -0.15173683 2.315632 -0.69387734 0.4299872 -0.21750079 1.7309053 -1.4225504 0.21200617 -0.9542664 -0.13693905 0.34133336 0.3299686 -0.6284473 0.26307964 1.299602 -0.30957207 0.44224483 -1.4479681 0.06378927 -0.30993408 -0.18039201 -0.6191385 0.3324582 0.91361433 -0.6221186 -0.2911916 -0.24509278 -0.09159784 -0.33314538 0.028725438 -0.58953273 0.37894425 -0.6069625 -1.3955251 0.84966975
224 0.9011763 -0.13551603 -0.2362624 -0.14978057 -0.20656769 -0.06238445 1.2795969 0.27067178 -0.034791112 -0.053613443 0.19266583 0.029836457 -0.37321487 0.3967438 0.31553912 -0.15676884 2.037358 -0.713369 0.42223153 -0.07229148 1.7589728 -1.2091798 0.16990694 -0.8237117 -0.044113424 0.32589802 0.28938496 -0.6423939 -0.20903848 1.0359442 -0.43891868 0.3214399 -1.2830031 0.1289226 -0.36735398 -0.106378585 -0.5869306 0.36642712 0.89211506 -0.65083504 -0.22592409 -0.22028458 -0.30600592 -0.12002898 0.03721839 -0.5197648 0.5034288 -0.5954945 -1.5057645 0.74329746
972 0.28979072 0.5948687 -0.012244054 0.11451873 -0.46341237 -0.7585059 0.5962508 0.8514741 0.17131636 -0.94612336 -0.49055272 0.6939447 0.33659554 1.0413071 -0.7790796 -0.58184355 0.9949523 -1.2949135 0.0029715246 0.16705309 0.9643439 -0.275532 -0.60513 0.52665156 -1.6180592 0.77178156 0.88734156 -0.9668733 -0.034106635 -0.08636527 -0.090592846 -0.23162138 0.13600257 -1.1841197 -0.9061165 0.44491708 -1.2579201 0.57748216 -0.65476835 -0.9832789 0.108134 -1.0704215 0.5263737 -0.27538556 0.09837422 -0.50592357 0.39424354 -0.12375623 0.1487433 -0.10830372
1675 -0.20768328 -0.8038936 -0.9971003 0.95465934 -0.0330164 -1.0562288 1.2862917 0.25378874 -0.1954377 -0.7898356 0.38080052 1.201269 0.7411079 -0.054748856 -0.24810316 0.59688985 0.70999134 -0.7565426 -0.21104982 -0.5172814 0.36898583 -0.77111435 0.50179243 -0.82734346 -0.4833874 0.45601115 -0.4710685 -1.7029816 -0.39296284 0.28383303 -0.27396783 -0.12923446 -0.9987459 0.098167405 -0.23153333 -0.0519826 -1.3977312 -0.36926273 0.41784698 -1.0619855 -0.5479131 -0.7484086 0.5651852 -0.18342914 1.0738837 0.04536837 -0.055040758 0.37006938 -0.42241517 -0.009899418
4312 0.53288984 0.71972275 -0.8672655 0.18560517 0.11273376 -1.1677766 0.45302635 0.3294721 0.14777961 -0.9196143 -0.48718134 0.15643202 0.035945334 -0.8243009 -0.21868142 1.0956588 0.2289354 -1.0909277 -0.053044394 0.1305289 1.7025453 -0.8213096 -0.5351142 -0.46751377 -0.7452166 0.141075 -0.27877018 -0.9321726 -0.7351334 -0.2952791 -0.34178686 0.6997703 -0.9447437 -1.0690486 -1.204476 -0.103544444 0.018443985 -0.30236813 0.50521535 -0.42267436 -0.28657264 -1.0289563 0.27266407 0.30636162 0.7637741 0.8744453 -0.7408074 0.036885414 0.10908734 -1.1862826
5446 0.30417484 -0.16229318 0.82661414 -0.7090627 -0.47252637 -0.55833024 0.15428846 -0.11326024 0.893986 -0.22042842 0.023438424 0.42164832 -1.0355815 -0.02934064 -0.15134308 -0.17308386 0.7428909 0.059523776 -0.24450532 0.5753016 1.4664894 -0.9844502 0.07581594 -0.11234008 -0.10933864 -0.045263834 -0.12518485 -1.3396528 0.46297225 -0.016986966 -1.1228281 0.176056 -1.2362262 -0.90378934 0.5530558 -0.24746938 -0.12614782 -1.0321609 -0.12042093 0.0069382982 0.2676473 -1.3661968 0.06815993 -0.58384126 0.3756448 1.3980935 0.21080858 0.024303548 -0.34078455 -1.222973
1873 0.32311517 0.11113335 -1.5642719 0.19176154 -0.9838837 -0.27621624 0.79981166 0.4044894 1.1093764 -1.3187606 0.062129926 0.9750856 -0.10029027 -0.3744594 0.3045727 -0.36911505 1.5831995 0.4722619 0.068492554 -0.2844842 1.0489302 -0.4415942 -0.31544626 -0.020329418 -0.53573835 0.9078818 0.2870835 -0.18239678 0.06698323 -0.6681542 0.8163417 -0.1212026 -1.0051061 -0.24206887 0.5391288 -0.79367757 -0.15913783 -0.2710885 1.1180387 -0.4471451 -0.4575485 -0.946952 0.82666683 -0.39252147 0.3753961 -0.088496715 0.123354875 -0.09849459 -0.6652186 -0.4394862
1726 -0.19002816 -0.09122057 -0.33063617 0.24751855 -0.59158874 -0.55472296 0.5296732 0.5162851 0.46137965 -0.6490623 -0.9898158 0.21010809 0.5395495 -0.11638599 0.30157977 -0.3221028 0.055422463 -0.28927994 0.4032837 0.46401185 1.997394 0.7294696 0.59481007 -0.27100366 -0.88294005 0.069219425 0.10784827 -1.3607774 0.33448195 1.4268634 -0.5417632 -0.22807683 -0.8149408 -0.6669443 -0.9178372 -0.79356134 -0.186854 -0.57892454 -0.751436 -0.1883847 -0.7484709 -0.2923739 -0.32985878 -0.2709604 0.9646192 1.2152493 0.36650488 -0.1293456 -0.34512708 0.087376155
5876 0.15920386 -0.046731647 0.13065225 0.12379794 -0.1441438 0.33816454 0.37725148 -0.23314597 0.73478305 -0.62072223 -0.26370043 0.60367477 0.19509903 -0.06087988 -0.8173585 0.720655 0.576191 -0.47476786 -0.42068407 0.218635 1.0500546 -0.50593233 0.10767645 0.1801784 -0.680927 0.06122134 -0.06518609 -0.41696215 -0.165466 0.7458632 -0.11404782 0.8212707 -0.3276336 0.043650627 -0.12717342 0.12108251 0.22225282 -0.08792261 -0.6041433 0.26826265 0.5841205 -0.5806905 0.93413866 0.09843225 0.036989786 0.05946933 0.12292282 -0.0027569535 -0.7501241 -0.14996034
566 -0.2786974 0.55667555 -0.21250427 -0.2515431 0.1558796 -0.543121 0.8988859 -0.3057046 0.50052917 -0.77271783 0.079292215 0.40548453 -0.80512553 0.16415069 -0.7715877 -0.09053854 2.093082 0.51284283 0.055919822 -0.49832177 0.45302886 -0.72206557 -0.2773174 -0.70116585 -0.84744203 -0.5267689 0.96989334 -1.4201318 0.10065598 -0.016161697 0.25918102 0.23626313 -0.5941852 -0.71338606 -1.0980674 -0.7638344 -1.1766171 0.17027698 -0.52148086 0.13805205 0.7300605 0.12080219 0.31169802 -0.53620505 -0.15504628 1.4165682 0.53318894 0.17579116 -0.6593115 0.057007257
2796 0.16515645 0.04388326 0.30896717 -0.13733666 -0.7823778 -0.46577838 -0.43956038 0.92138875 0.4980527 -0.33759582 -0.9143134 0.67150766 -0.5790796 0.5911119 -0.63727766 0.5900973 0.3724492 0.3922102 -0.4696148 -0.111901276 1.6796299 0.1805325 0.4742971 -0.081885695 -0.79513615 -0.89240307 -0.14544167 -1.5521772 0.12978457 1.1803838 -0.33541602 0.103015564 -1.0138862 -0.9740807 0.20994662 -0.14423211 -0.71329373 0.51257914 -0.70361525 0.3796154 -0.11058734 -1.0006891 -0.4978515 0.120721474 0.9308902 0.30548134 -0.40486163 -0.46827865 0.4364465 -0.10406348
7036 0.6296942 -0.2011343 -0.5314034 -0.044013333 0.53451145 -1.090055 1.0726286 1.0977356 1.1047906 0.20991105 -0.1454323 0.88564545 -1.6260377 -0.054329444 -0.9084762 0.2099231 0.36501667 0.08348117 1.0703536 0.65308017 0.8767745 0.20331217 0.82187283 0.39675406 -1.9161676 0.10340471 0.4377516 -1.1387377 0.35718435 -0.82397753 0.5027439 0.48277095 -0.061457284 -0.47969925 0.009296512 0.27138326 -0.8351887 0.17443138 0.18680026 0.15458573 -0.7129431 -1.8520894 0.14438064 -0.27731997 0.73385215 0.9469001 -0.6601254 0.077476636 0.0062063513 -0.16750926
2599 -0.13998207 -1.2882756 -0.27943325 0.2860345 -0.01413223 -1.0930723 0.7855658 0.8496292 0.051703617 -0.60688776 -0.12727714 0.84785336 -0.5261532 0.56989306 -0.82589924 -0.018383078 1.4689084 -0.64539516 -0.1650567 0.38441297 0.06798638 -0.012554216 -0.12753026 -0.27039632 -0.6064624 -0.21837614 -0.12533005 -0.7836181 0.5334506 0.8616768 -0.7596311 -0.06138199 -0.926648 0.6874795 -0.8888538 0.0281818 0.24580577 -0.8185904 0.45945597 -1.3452103 -0.27995697 -1.5941108 -0.5665987 -0.19735186 0.8686612 0.8249691 -0.42834476 -0.15596423 -0.26538816 -0.21571392
2286 -0.29010797 0.583814 -0.15221262 -0.2811216 0.12132846 -0.48821262 0.93772167 -0.25694036 0.50638586 -0.7278538 0.0085958075 0.37128296 -0.8428037 0.026388295 -0.7941001 -0.11467263 2.0636587 0.47800827 0.099988535 -0.4996155 0.6011895 -0.77194506 -0.24358553 -0.8646634 -0.8679729 -0.62941533 0.97247 -1.3616662 0.04548203 -0.07401147 0.34077424 0.11967284 -0.58515346 -0.66577584 -1.1461812 -0.8337486 -1.2798281 0.025879417 -0.7448524 0.041488606 0.5881995 0.10819111 0.38900986 -0.6263815 -0.20458688 1.4612594 0.44265306 0.17230952 -0.4802915 -0.060125068
3517 0.7890527 -0.87927336 -0.24736677 1.0996408 -0.9722833 0.29736894 0.39594465 0.8246905 0.60570854 -0.60415846 -0.46200302 0.8704245 -1.4487845 -0.7539607 -0.15406698 0.56586653 0.2637482 -0.0090561295 -0.54118925 -0.16793667 0.4301445 -0.04808568 -0.27796707 0.40993318 -1.4359752 0.35328123 -0.061788276 -0.711183 0.21445635 0.74056697 0.8246344 0.3540305 -0.4766991 -0.8343181 -0.05975468 0.34227118 -0.42272997 -0.43584353 0.15381648 -0.7902108 0.19239938 -0.72812486 -0.5899659 -1.0107231 0.6617579 0.5187767 -0.0355523 0.34631103 -0.19387753 -0.62629974
316 1.3248624 0.26019728 -0.27786127 -0.35056147 -0.010577222 -0.09287391 0.5622551 -0.45552918 0.46015906 -1.117898 -0.28216922 0.5220841 -1.0490129 -0.6899175 -0.4050263 -0.42431113 0.7012836 0.1450714 -0.03107726 0.8615004 1.7025054 0.3183354 -0.71666867 0.36349222 -1.2804993 -0.55578446 0.6997228 -0.5407984 0.5560195 0.5814355 -0.0272123 0.26009867 -0.53813076 -0.032781802 -0.1576795 0.94805336 -0.95576453 -0.6435675 0.7272951 -0.1926513 0.29001415 -0.8660251 -0.3483577 0.2926842 0.498498 0.13693307 -0.2936515 -1.2031481 -0.86449397 -0.29579103
3497 1.6708372 0.60191905 -0.26275802 0.3714629 -0.27295288 0.05417242 0.6715446 0.96781653 0.65552855 -0.7830727 0.22603764 0.33637455 -0.7195 1.0110878 -0.3178967 -0.99666744 1.801165 -0.07580193 -0.3467848 0.3106361 0.6850589 -0.090759344 -1.1163968 -0.022891901 -1.0649226 0.8871843 0.5911867 -1.5406035 0.19090152 -0.034721613 0.78759515 -0.50190413 -0.78727424 -0.47571433 -0.98529106 0.73562014 -1.0957645 -0.14876162 -0.5051367 -0.6647367 -0.25453076 -0.7054716 -0.9164837 0.07134637 0.21429485 -0.054094426 0.715035 -0.0296021 -0.21029055 -0.70681965
2703 0.0066455677 -0.7352916 -0.93104136 -0.29751012 -0.74096733 -0.48794538 0.5786151 0.6135161 1.0270183 -1.3421465 -0.4491003 0.76790017 -0.45413297 -0.5172129 0.62825704 0.6459294 1.2872983 -1.244093 0.2794469 1.6857365 0.7592936 0.0031342187 0.49423346 0.3849056 -0.4012383 0.15666752 0.06470378 -0.6876979 -0.8703445 0.057851247 -0.1806934 -0.65794307 -0.6631639 0.7964117 -0.20282008 0.62365144 -0.28800482 0.44086066 0.32161424 0.46039128 -1.3135362 -1.1703612 0.028765937 -0.874616 0.3686772 0.23743391 -0.8367084 -0.038653135 -0.17857155 -0.79909164
6884 0.73264056 -0.35717613 0.22227445 -0.43827617 -0.75271237 -0.12362998 0.6545007 1.14622 1.6485271 -1.1586134 -0.38067606 0.22620843 0.16877767 0.07540344 -0.18191491 0.13540015 0.38063315 -0.86360633 -0.44571754 -0.03833544 0.06142458 -0.022808563 0.36391756 -0.64850754 1.0623907 0.94151807 0.13112356 -0.76179385 -0.26283556 0.5921739 0.112204745 0.56161755 0.12925054 -0.2666342 0.23165555 -0.82859796 0.21821645 0.01608238 0.34722763 -0.6728929 -0.33606818 -0.28849217 0.17891446 -0.7000219 0.6815613 0.34571794 0.37364656 -0.5781327 -0.28031388 -0.37600318
1549 1.1128415 -0.78809035 0.092176616 -0.11410077 0.3517906 -0.88942844 0.053967163 1.5837489 1.3631794 -0.86652803 -0.36878127 0.22621016 0.08689599 -0.8834264 -0.24259594 0.20328721 0.79500246 0.55490017 0.060138367 0.059886996 0.09749891 -0.82684505 0.0779336 -0.8116317 0.14200677 0.93633825 1.1472987 -0.9712387 -0.18068841 0.4950967 0.05927991 0.5997317 -0.21053056 0.2883252 0.21801418 -0.20304364 -0.8825046 -0.19099723 -0.07403678 -0.9815305 0.09738795 -0.045789193 0.010325274 -0.77291656 0.17924848 0.7174108 0.32894158 -0.5788785 -1.0778781 -0.9447722
2210 -0.043461155 -0.8526018 -0.1338967 0.21323624 -0.42155036 0.2704392 0.40627924 -0.14462964 1.4536046 -1.0860285 -0.22420618 0.39240596 -1.5206207 -0.2561198 -0.05503304 -0.23315632 1.1828898 0.4551458 0.3447752 -0.9210997 1.9558926 -1.3258286 -0.0265191 -0.0674287 0.18331364 -0.32788828 0.05400405 -0.10432167 -0.6981847 0.46652612 -0.74918914 0.8823528 -1.0407159 -0.17248292 -0.18137355 0.35902968 -0.7026392 0.41625613 0.5189707 -0.8650763 0.0906823 -0.5473788 -0.36887908 -1.2990788 0.22295605 -0.22294466 0.9891118 -0.4335863 -0.9339763 -0.09254161
358 0.018429525 -0.17896895 0.14800094 0.09863214 -0.3047251 0.32692915 0.3131705 -0.2731194 0.77534246 -0.7326821 -0.2178212 0.4412642 0.36307406 -0.22800076 -0.8307005 0.51409906 0.57074904 -0.45766765 -0.24901529 0.2726718 1.3429722 -0.38259906 0.17074303 0.26818717 -0.63034815 0.028370582 0.10447145 -0.4502951 -0.043658715 0.7958203 -0.10354316 0.72365934 -0.31555912 -0.08921348 -0.25816372 -0.04126694 0.44774628 -0.18228303 -0.40063733 0.48264417 0.3692778 -0.38283852 0.83203316 -0.06022766 -0.1386357 0.10545107 0.15586184 -0.0009923107 -0.667536 -0.12896495
3143 0.39120245 0.38345236 0.20015399 0.16219851 -0.46041512 -0.47887316 -0.16863726 0.90702295 0.34023106 -0.45497537 -0.8373465 0.5284192 -0.5436017 0.35476044 -0.43042085 0.78753096 0.6487566 0.35700756 -0.5559133 -0.33879218 1.7500643 0.39131492 0.4303111 -0.114333294 -0.4616148 -0.8098212 -0.077195756 -1.4632363 -0.25637323 1.1121545 -0.37598813 0.04843554 -1.1733307 -0.94570625 0.27952722 -0.019161059 -0.869939 0.4463834 -1.1558118 0.30379826 0.022864671 -0.8506784 -0.2653815 0.10674533 1.0528952 0.34938875 -0.4172167 -0.56960005 0.23432082 0.29552034
6632 1.5458198 -1.0043925 -0.63945925 -0.83969796 0.14240706 -0.54557693 0.28852165 0.23036441 0.41689068 -1.0977823 -0.996006 0.87523407 -0.053698573 0.28927502 0.13005446 -0.15840058 0.6127161 0.055516023 -0.04180683 0.37215355 0.7052137 0.0454546 -0.6107431 -1.2492687 -0.6829612 0.5948853 0.9133326 -0.8052641 0.6810834 1.0842978 0.3307749 0.20190927 -0.81173694 0.20556234 -0.38768926 -0.84548914 0.044698827 -0.3149845 0.21915354 0.32722986 -0.015111049 -0.7608226 0.5985247 -0.27105927 -0.46699607 -0.5895012 -0.5335284 0.31111392 -0.12421024 0.044147383
6062 0.5946552 -0.86925906 0.080303974 0.20424232 -0.096600905 -0.6705563 0.2942366 0.14447413 0.55981046 -0.6533146 -0.007897263 0.20159777 -0.63827187 -0.32629478 0.32400703 -0.8182595 1.5583113 -0.5095709 -0.3135386 -0.24155192 1.8300406 -1.1888409 0.0044108224 -0.682239 -1.2790618 -0.17254569 -0.5647664 -0.29580367 -0.5855445 0.6026086 0.1513135 0.43017885 -1.1293203 -0.72444844 0.96514577 0.012996286 -0.7543553 0.35890943 0.8941713 0.13052827 0.08649649 0.08551235 0.5075929 -1.0473471 0.76296526 -0.18422352 0.34974074 -0.0038471166 -0.8855966 0.2672123
4914 -0.32587573 -0.54357195 -0.11560666 -0.70266664 -0.23813863 -0.2046488 0.1038293 1.416641 0.50733674 -1.4147034 0.08947191 1.2837977 -0.68669784 -0.7825303 -0.38218585 0.41420856 0.968878 -0.48217395 0.11270127 1.2176327 0.120652586 0.34326264 -0.14244902 -1.0358008 0.08689242 0.97769636 -0.13413326 -1.2780639 -0.37748668 1.7312307 0.22739981 0.6240325 -0.44238958 -0.40925348 -0.5876038 -0.5629802 -0.9446707 -0.5554403 -0.16648446 0.5665536 0.16584903 -0.46270913 -0.8976488 -0.01970815 0.941249 -0.15272895 0.7646445 -0.39840147 -0.71854144 -0.6626179
5930 0.17701353 -0.12760377 0.15040334 -0.13617799 -0.050202154 0.3345142 0.26491886 -0.33404532 0.81439286 -0.7630824 -0.30221245 0.55619586 0.27669573 -0.07126576 -0.77070886 0.6976754 0.64106244 -0.59026295 -0.57721394 0.19571409 1.0583626 -0.5681753 0.04697424 0.22447844 -0.6072399 0.15408659 -0.076148234 -0.4036134 -0.041965775 0.74887365 -0.10163262 0.6323488 -0.14957316 -0.08806815 -0.16357206 0.13896134 0.17594574 -0.124477424 -0.53334576 0.27413914 0.48555067 -0.6463116 1.0013305 0.09651278 -0.08888293 0.06082162 -0.0050152224 0.0077355225 -0.8044227 -0.1706608
3291 -0.10932199 -0.18617699 0.0032606535 0.16471213 -0.042162746 0.3612813 0.36301562 -0.40213266 0.7043214 -0.6118804 -0.45581523 0.50607824 0.34329784 0.063665345 -0.9688543 0.6758063 0.8144997 -0.47424778 -0.51075125 0.345921 0.9594756 -0.47024122 -0.026754694 0.15812927 -0.6082632 0.18310635 -0.023455976 -0.56154126 -0.13474128 0.5954608 -0.10845529 0.66409314 -0.18011001 0.04868188 -0.05172099 -0.034985453 0.19445556 -0.10165264 -0.7177866 0.24249992 0.37382898 -0.6482247 0.9522194 -0.03139843 -0.20307274 0.0024097378 0.10402667 -0.03466993 -0.80906075 -0.30493483
1159 0.08612705 -0.0756231 0.27937588 -0.20326109 -1.0071393 -0.7716572 0.5204663 0.8706369 0.9483522 -1.4179083 0.16317087 0.5434628 -0.27047378 0.34260857 0.17596906 0.5312521 0.026609167 0.5103604 0.003890644 0.18592651 0.9814503 -0.8142219 0.50539094 -0.08170386 -0.58832425 -0.01589266 0.4927605 -0.41491 0.71040714 0.040313352 -0.5214835 0.5599625 -1.1616337 -1.4319144 -0.15165289 -0.3079434 -1.3516517 -0.9534503 -0.9337713 0.12584753 -1.037556 -0.35245672 0.4473767 -0.34384695 1.9202973 0.52368504 0.082847126 -0.8221712 -0.22828227 0.1634135
4842 0.66181505 0.001083978 -0.082425855 -0.22956985 -0.87988514 -0.17728686 0.5204985 0.98035824 0.15205146 -1.0157515 0.0968606 0.5686762 0.11294599 -0.51266813 -0.74600995 0.033055525 1.3323997 -0.27268663 -0.22059622 0.5672122 1.6010227 -0.10868467 0.73749965 -1.445042 -0.060994856 -0.89687437 0.37417203 -0.42727783 0.859181 -0.07318357 0.23632422 0.11719243 0.53976536 -0.21798258 -1.0529273 -0.07508779 -0.4547867 -0.076818615 -0.31781238 0.1597049 0.6618097 -1.4648852 -0.6391676 0.013567679 0.40980825 -0.4094865 0.07475523 -0.3285916 -1.0849923 0.78716606
4142 0.15702683 -0.6527813 -0.5129531 0.19515575 -1.1845099 0.3587652 0.9111537 0.55389017 0.12979388 -0.97819847 0.16405323 -0.12709244 -0.49601686 -1.0859439 -0.27363345 0.19618456 1.2212985 -0.22001757 -0.3794817 0.11042487 1.3966433 -0.68566036 0.47090718 -1.6439089 -0.65007615 -0.26690727 0.17958982 -1.083303 -0.23101403 -0.08990728 0.25283688 -0.47601372 0.31992272 0.5590505 -1.0116643 -0.6249243 -1.0007555 -0.28969213 -0.2135045 0.5251702 0.007890714 -1.0321311 -0.0846722 0.5063342 0.03907152 0.04936866 -0.579802 -0.8136786 -0.94939125 0.08820467
5432 0.8106805 0.093287915 -0.5715678 0.75907415 -0.7295491 -0.4773442 -0.59421927 -0.035551768 0.7490254 -1.457151 -0.6727483 1.2066845 0.5820313 0.34074256 0.219478 -0.13873932 0.6193567 0.8563442 -0.8550266 0.48707366 1.0086852 -0.7347036 0.07904552 0.4425812 -1.4177595 -0.20730335 -0.109745495 -0.7331727 0.2927438 0.7705608 -0.61529577 0.03748356 -0.11472672 -1.1070558 0.09798757 -0.18485492 -0.9744215 -0.30616656 -0.45411107 0.18160555 -0.3727919 -1.2429198 0.31725642 0.035266716 1.4673895 0.25339383 -0.21862064 0.18827975 0.22587937 -0.102307044
6264 0.61259776 -1.0539978 -0.10366474 0.7723602 0.06470156 -0.009473621 0.94494325 0.095068455 0.46473294 -0.1256692 -0.35669768 1.0505915 0.83165604 0.16641413 -0.14053735 -0.25130653 1.0787082 0.3105524 0.015743576 0.5673828 0.49436602 -0.8455524 -0.1732449 -0.8728299 -1.1154196 0.21633516 -0.4298532 -0.13633464 0.55449134 -0.13286912 -0.40012836 0.43829462 -1.406939 -0.95932674 -0.37409505 -0.49094748 -1.2457718 0.8468249 -0.38483167 -0.14235115 0.015769627 -1.0221831 -0.5116552 0.017231211 0.11568522 0.25835305 0.066916555 -0.47101495 -0.8950715 -0.44375074
3432 0.14251398 -0.13044329 0.14374286 0.18373555 -0.2499257 0.3361434 0.29628214 -0.2592688 0.7058098 -0.60626763 -0.3195976 0.66744816 0.31459948 -0.05269645 -0.92696124 0.74526757 0.7048207 -0.4287705 -0.5658145 0.25729182 0.93281627 -0.48452675 0.11838088 0.18534063 -0.62326294 0.18464072 -0.102524005 -0.5094835 -0.019342147 0.69785714 0.11394419 0.70930725 -0.3633383 0.0123328045 -0.29485634 0.030017441 0.36715558 -0.12169999 -0.5638564 0.15803805 0.53785455 -0.5629655 0.9165244 0.049888447 0.040631954 0.08971757 0.26040033 0.035431184 -0.74781865 -0.09744057
3279 -0.107012965 0.35731357 0.0929616 -0.0656722 -0.3442929 0.6885951 0.18954344 0.48375475 0.7689195 -1.0221177 -0.77705306 0.74126196 -0.14459488 -0.8623974 -0.30403778 1.4354466 1.802587 -1.045043 -0.063340165 0.11290255 1.4231757 0.15804474 0.6220904 -0.03566416 -0.4731223 -0.30641782 0.08304955 -0.45566165 -0.39267716 -0.40357003 -0.722541 -0.36816058 0.32096255 -0.8898342 0.09267435 0.032368157 -1.2690014 0.21722312 0.51651514 -1.151232 0.35792896 -0.9483936 -0.68830884 -0.8967873 0.1082013 0.7261938 -0.1923461 0.0808748 0.08826104 -0.49045157
475 1.2646134 -0.28520486 0.30780473 -0.8849346 0.12151868 -0.46066788 0.1498983 -0.15629387 0.37372193 -0.43957934 -0.45588303 1.130994 -0.31656653 -0.5056059 -1.139918 0.23212071 0.33188695 0.2938549 1.5539259 0.35513082 0.6008559 -0.16926707 -0.6183164 -0.871289 -0.97947526 0.89007133 0.58503807 -1.0260319 0.080708995 0.54290706 -0.26625475 -0.39573067 -1.1461638 -0.836067 -0.48766023 -0.2949524 0.18923022 0.8707521 -0.92246085 -0.45359015 0.1081831 -0.553014 0.7173897 -1.1492627 0.37866694 0.34168217 0.3660087 0.21976131 -0.9767952 -0.4117185
